=== Run information ===

Scheme:       weka.classifiers.misc.InputMappedClassifier -I -trim -W weka.classifiers.trees.J48 -- -C 0.25 -M 2
Relation:     x_train_gr_smpl-weka.filters.unsupervised.attribute.NumericToNominal-Rfirst-last
Instances:    9690
Attributes:   2305
              [list of attributes omitted]
Test mode:    user supplied test set:  size unknown (reading incrementally)

=== Classifier model (full training set) ===

InputMappedClassifier:

J48 pruned tree
------------------

X1264 = 6: 5 (1.0)
X1264 = 7
|   X1431 = 4: 3 (0.0)
|   X1431 = 5: 3 (0.0)
|   X1431 = 6: 3 (0.0)
|   X1431 = 7: 3 (5.0)
|   X1431 = 8: 5 (4.0)
|   X1431 = 9: 3 (0.0)
|   X1431 = 10: 5 (1.0)
|   X1431 = 11: 3 (0.0)
|   X1431 = 12: 3 (0.0)
|   X1431 = 13: 3 (0.0)
|   X1431 = 14: 3 (0.0)
|   X1431 = 15: 3 (0.0)
|   X1431 = 16: 3 (0.0)
|   X1431 = 17: 3 (0.0)
|   X1431 = 18: 3 (0.0)
|   X1431 = 19: 3 (0.0)
|   X1431 = 20: 3 (0.0)
|   X1431 = 21: 3 (0.0)
|   X1431 = 22: 3 (0.0)
|   X1431 = 23: 3 (0.0)
|   X1431 = 24: 3 (0.0)
|   X1431 = 25: 3 (0.0)
|   X1431 = 26: 3 (0.0)
|   X1431 = 27: 3 (0.0)
|   X1431 = 28: 3 (0.0)
|   X1431 = 29: 3 (0.0)
|   X1431 = 30: 3 (0.0)
|   X1431 = 31: 3 (0.0)
|   X1431 = 32: 3 (0.0)
|   X1431 = 33: 3 (0.0)
|   X1431 = 34: 3 (0.0)
|   X1431 = 35: 3 (0.0)
|   X1431 = 36: 3 (0.0)
|   X1431 = 37: 3 (0.0)
|   X1431 = 38: 3 (0.0)
|   X1431 = 39: 3 (0.0)
|   X1431 = 40: 3 (0.0)
|   X1431 = 41: 3 (0.0)
|   X1431 = 42: 3 (0.0)
|   X1431 = 43: 3 (0.0)
|   X1431 = 44: 3 (0.0)
|   X1431 = 45: 3 (0.0)
|   X1431 = 46: 3 (0.0)
|   X1431 = 47: 3 (0.0)
|   X1431 = 48: 3 (0.0)
|   X1431 = 49: 3 (0.0)
|   X1431 = 50: 3 (0.0)
|   X1431 = 51: 3 (0.0)
|   X1431 = 52: 3 (0.0)
|   X1431 = 53: 3 (0.0)
|   X1431 = 54: 3 (0.0)
|   X1431 = 55: 3 (0.0)
|   X1431 = 56: 3 (0.0)
|   X1431 = 57: 3 (0.0)
|   X1431 = 58: 3 (0.0)
|   X1431 = 59: 3 (0.0)
|   X1431 = 60: 3 (0.0)
|   X1431 = 61: 3 (0.0)
|   X1431 = 62: 3 (0.0)
|   X1431 = 63: 3 (0.0)
|   X1431 = 64: 3 (0.0)
|   X1431 = 65: 3 (0.0)
|   X1431 = 66: 3 (0.0)
|   X1431 = 67: 3 (0.0)
|   X1431 = 68: 3 (0.0)
|   X1431 = 69: 3 (0.0)
|   X1431 = 70: 3 (0.0)
|   X1431 = 71: 3 (0.0)
|   X1431 = 72: 3 (0.0)
|   X1431 = 73: 3 (0.0)
|   X1431 = 74: 3 (0.0)
|   X1431 = 75: 3 (0.0)
|   X1431 = 76: 3 (0.0)
|   X1431 = 77: 3 (0.0)
|   X1431 = 78: 3 (0.0)
|   X1431 = 79: 3 (0.0)
|   X1431 = 80: 3 (0.0)
|   X1431 = 81: 3 (0.0)
|   X1431 = 82: 3 (0.0)
|   X1431 = 83: 3 (0.0)
|   X1431 = 84: 3 (0.0)
|   X1431 = 85: 3 (0.0)
|   X1431 = 86: 3 (0.0)
|   X1431 = 87: 3 (0.0)
|   X1431 = 88: 3 (0.0)
|   X1431 = 89: 3 (0.0)
|   X1431 = 90: 3 (0.0)
|   X1431 = 91: 3 (0.0)
|   X1431 = 92: 3 (0.0)
|   X1431 = 93: 3 (0.0)
|   X1431 = 94: 3 (0.0)
|   X1431 = 95: 3 (0.0)
|   X1431 = 96: 3 (0.0)
|   X1431 = 97: 3 (0.0)
|   X1431 = 98: 3 (0.0)
|   X1431 = 99: 3 (0.0)
|   X1431 = 100: 3 (0.0)
|   X1431 = 101: 3 (0.0)
|   X1431 = 102: 3 (0.0)
|   X1431 = 103: 3 (0.0)
|   X1431 = 104: 3 (0.0)
|   X1431 = 105: 3 (0.0)
|   X1431 = 106: 3 (0.0)
|   X1431 = 107: 3 (0.0)
|   X1431 = 108: 3 (0.0)
|   X1431 = 109: 3 (0.0)
|   X1431 = 110: 3 (0.0)
|   X1431 = 111: 3 (0.0)
|   X1431 = 112: 3 (0.0)
|   X1431 = 113: 3 (0.0)
|   X1431 = 114: 3 (0.0)
|   X1431 = 115: 3 (0.0)
|   X1431 = 116: 3 (0.0)
|   X1431 = 117: 3 (0.0)
|   X1431 = 118: 3 (0.0)
|   X1431 = 119: 3 (0.0)
|   X1431 = 120: 3 (0.0)
|   X1431 = 121: 3 (0.0)
|   X1431 = 122: 3 (0.0)
|   X1431 = 123: 3 (0.0)
|   X1431 = 124: 3 (0.0)
|   X1431 = 125: 3 (0.0)
|   X1431 = 126: 3 (0.0)
|   X1431 = 127: 3 (0.0)
|   X1431 = 128: 3 (0.0)
|   X1431 = 129: 3 (0.0)
|   X1431 = 130: 3 (0.0)
|   X1431 = 131: 3 (0.0)
|   X1431 = 132: 3 (0.0)
|   X1431 = 133: 3 (0.0)
|   X1431 = 134: 3 (0.0)
|   X1431 = 135: 3 (0.0)
|   X1431 = 136: 3 (0.0)
|   X1431 = 137: 3 (0.0)
|   X1431 = 138: 3 (0.0)
|   X1431 = 139: 3 (0.0)
|   X1431 = 140: 3 (0.0)
|   X1431 = 141: 3 (0.0)
|   X1431 = 142: 3 (0.0)
|   X1431 = 143: 3 (0.0)
|   X1431 = 144: 3 (0.0)
|   X1431 = 145: 3 (0.0)
|   X1431 = 146: 3 (0.0)
|   X1431 = 147: 3 (0.0)
|   X1431 = 148: 3 (0.0)
|   X1431 = 149: 3 (0.0)
|   X1431 = 150: 3 (0.0)
|   X1431 = 151: 3 (0.0)
|   X1431 = 152: 3 (0.0)
|   X1431 = 153: 3 (0.0)
|   X1431 = 154: 3 (0.0)
|   X1431 = 155: 3 (0.0)
|   X1431 = 156: 3 (0.0)
|   X1431 = 157: 3 (0.0)
|   X1431 = 158: 3 (0.0)
|   X1431 = 159: 3 (0.0)
|   X1431 = 160: 3 (0.0)
|   X1431 = 161: 3 (0.0)
|   X1431 = 162: 3 (0.0)
|   X1431 = 163: 3 (0.0)
|   X1431 = 164: 3 (0.0)
|   X1431 = 165: 3 (0.0)
|   X1431 = 166: 3 (0.0)
|   X1431 = 167: 3 (0.0)
|   X1431 = 168: 3 (0.0)
|   X1431 = 169: 3 (0.0)
|   X1431 = 170: 3 (0.0)
|   X1431 = 171: 3 (0.0)
|   X1431 = 172: 3 (0.0)
|   X1431 = 173: 3 (0.0)
|   X1431 = 174: 3 (0.0)
|   X1431 = 175: 3 (0.0)
|   X1431 = 176: 3 (0.0)
|   X1431 = 177: 3 (0.0)
|   X1431 = 178: 3 (0.0)
|   X1431 = 179: 3 (0.0)
|   X1431 = 180: 3 (0.0)
|   X1431 = 181: 3 (0.0)
|   X1431 = 182: 3 (0.0)
|   X1431 = 183: 3 (0.0)
|   X1431 = 184: 3 (0.0)
|   X1431 = 185: 3 (0.0)
|   X1431 = 186: 3 (0.0)
|   X1431 = 187: 3 (0.0)
|   X1431 = 188: 3 (0.0)
|   X1431 = 189: 3 (0.0)
|   X1431 = 190: 3 (0.0)
|   X1431 = 191: 3 (0.0)
|   X1431 = 192: 3 (0.0)
|   X1431 = 193: 3 (0.0)
|   X1431 = 194: 3 (0.0)
|   X1431 = 195: 3 (0.0)
|   X1431 = 196: 3 (0.0)
|   X1431 = 197: 3 (0.0)
|   X1431 = 198: 3 (0.0)
|   X1431 = 199: 3 (0.0)
|   X1431 = 200: 3 (0.0)
|   X1431 = 201: 3 (0.0)
|   X1431 = 202: 3 (0.0)
|   X1431 = 203: 3 (0.0)
|   X1431 = 204: 3 (0.0)
|   X1431 = 205: 3 (0.0)
|   X1431 = 206: 3 (0.0)
|   X1431 = 207: 3 (0.0)
|   X1431 = 208: 3 (0.0)
|   X1431 = 209: 3 (0.0)
|   X1431 = 210: 3 (0.0)
|   X1431 = 211: 3 (0.0)
|   X1431 = 212: 3 (0.0)
|   X1431 = 213: 3 (0.0)
|   X1431 = 214: 3 (0.0)
|   X1431 = 215: 3 (0.0)
|   X1431 = 216: 3 (0.0)
|   X1431 = 217: 3 (0.0)
|   X1431 = 218: 3 (0.0)
|   X1431 = 219: 3 (0.0)
|   X1431 = 220: 3 (0.0)
|   X1431 = 221: 3 (0.0)
|   X1431 = 222: 3 (0.0)
|   X1431 = 223: 3 (0.0)
|   X1431 = 224: 3 (0.0)
|   X1431 = 225: 3 (0.0)
|   X1431 = 226: 3 (0.0)
|   X1431 = 227: 3 (0.0)
|   X1431 = 228: 3 (0.0)
|   X1431 = 229: 3 (0.0)
|   X1431 = 230: 3 (0.0)
|   X1431 = 231: 3 (0.0)
|   X1431 = 232: 3 (0.0)
|   X1431 = 233: 3 (0.0)
|   X1431 = 234: 3 (0.0)
|   X1431 = 235: 3 (0.0)
|   X1431 = 236: 3 (0.0)
|   X1431 = 237: 3 (0.0)
|   X1431 = 238: 3 (0.0)
|   X1431 = 239: 3 (0.0)
|   X1431 = 240: 3 (0.0)
|   X1431 = 241: 3 (0.0)
|   X1431 = 242: 3 (0.0)
|   X1431 = 243: 3 (0.0)
|   X1431 = 244: 3 (0.0)
|   X1431 = 245: 3 (0.0)
|   X1431 = 247: 3 (0.0)
|   X1431 = 248: 3 (0.0)
|   X1431 = 249: 3 (0.0)
|   X1431 = 250: 3 (0.0)
|   X1431 = 251: 3 (0.0)
|   X1431 = 252: 3 (0.0)
|   X1431 = 253: 3 (0.0)
|   X1431 = 254: 3 (0.0)
|   X1431 = 255: 3 (0.0)
X1264 = 8
|   X826 = 4: 5 (1.0)
|   X826 = 5: 3 (0.0)
|   X826 = 6: 3 (0.0)
|   X826 = 7: 3 (1.0)
|   X826 = 8: 5 (3.0)
|   X826 = 9: 3 (5.0)
|   X826 = 10: 3 (0.0)
|   X826 = 11: 3 (0.0)
|   X826 = 12: 3 (0.0)
|   X826 = 13: 3 (0.0)
|   X826 = 14: 3 (0.0)
|   X826 = 15: 3 (0.0)
|   X826 = 16: 3 (0.0)
|   X826 = 17: 3 (0.0)
|   X826 = 18: 3 (0.0)
|   X826 = 19: 3 (0.0)
|   X826 = 20: 3 (0.0)
|   X826 = 21: 3 (0.0)
|   X826 = 22: 3 (0.0)
|   X826 = 23: 3 (0.0)
|   X826 = 24: 3 (0.0)
|   X826 = 25: 3 (0.0)
|   X826 = 26: 3 (0.0)
|   X826 = 27: 3 (0.0)
|   X826 = 28: 3 (0.0)
|   X826 = 29: 3 (0.0)
|   X826 = 30: 3 (0.0)
|   X826 = 31: 3 (0.0)
|   X826 = 32: 3 (0.0)
|   X826 = 33: 3 (0.0)
|   X826 = 34: 3 (0.0)
|   X826 = 35: 3 (0.0)
|   X826 = 36: 3 (0.0)
|   X826 = 37: 3 (0.0)
|   X826 = 38: 3 (0.0)
|   X826 = 39: 3 (0.0)
|   X826 = 40: 3 (0.0)
|   X826 = 41: 3 (0.0)
|   X826 = 42: 3 (0.0)
|   X826 = 43: 3 (0.0)
|   X826 = 44: 3 (0.0)
|   X826 = 45: 3 (0.0)
|   X826 = 46: 3 (0.0)
|   X826 = 47: 3 (0.0)
|   X826 = 48: 3 (0.0)
|   X826 = 49: 3 (0.0)
|   X826 = 50: 3 (0.0)
|   X826 = 51: 3 (0.0)
|   X826 = 52: 3 (0.0)
|   X826 = 53: 3 (0.0)
|   X826 = 54: 3 (0.0)
|   X826 = 55: 3 (0.0)
|   X826 = 56: 3 (0.0)
|   X826 = 57: 3 (0.0)
|   X826 = 58: 3 (0.0)
|   X826 = 59: 3 (0.0)
|   X826 = 60: 3 (0.0)
|   X826 = 61: 3 (0.0)
|   X826 = 62: 3 (0.0)
|   X826 = 63: 3 (0.0)
|   X826 = 64: 3 (0.0)
|   X826 = 65: 3 (0.0)
|   X826 = 66: 3 (0.0)
|   X826 = 67: 3 (0.0)
|   X826 = 68: 3 (0.0)
|   X826 = 69: 3 (0.0)
|   X826 = 70: 3 (0.0)
|   X826 = 71: 3 (0.0)
|   X826 = 72: 3 (0.0)
|   X826 = 73: 3 (0.0)
|   X826 = 74: 3 (0.0)
|   X826 = 75: 3 (0.0)
|   X826 = 76: 3 (0.0)
|   X826 = 77: 3 (0.0)
|   X826 = 78: 3 (0.0)
|   X826 = 79: 3 (0.0)
|   X826 = 80: 3 (0.0)
|   X826 = 81: 3 (0.0)
|   X826 = 82: 3 (0.0)
|   X826 = 83: 3 (0.0)
|   X826 = 84: 3 (0.0)
|   X826 = 85: 3 (0.0)
|   X826 = 86: 3 (0.0)
|   X826 = 87: 3 (0.0)
|   X826 = 88: 3 (0.0)
|   X826 = 89: 3 (0.0)
|   X826 = 90: 3 (0.0)
|   X826 = 91: 3 (0.0)
|   X826 = 92: 3 (0.0)
|   X826 = 93: 3 (0.0)
|   X826 = 94: 3 (0.0)
|   X826 = 95: 3 (0.0)
|   X826 = 96: 3 (0.0)
|   X826 = 97: 3 (0.0)
|   X826 = 98: 3 (0.0)
|   X826 = 99: 3 (0.0)
|   X826 = 100: 3 (0.0)
|   X826 = 101: 3 (0.0)
|   X826 = 102: 3 (0.0)
|   X826 = 103: 3 (0.0)
|   X826 = 104: 3 (0.0)
|   X826 = 105: 3 (0.0)
|   X826 = 106: 3 (0.0)
|   X826 = 107: 3 (0.0)
|   X826 = 108: 3 (0.0)
|   X826 = 109: 3 (0.0)
|   X826 = 110: 3 (0.0)
|   X826 = 111: 3 (0.0)
|   X826 = 112: 3 (0.0)
|   X826 = 113: 3 (0.0)
|   X826 = 114: 3 (0.0)
|   X826 = 115: 3 (0.0)
|   X826 = 116: 3 (0.0)
|   X826 = 117: 3 (0.0)
|   X826 = 118: 3 (0.0)
|   X826 = 119: 3 (0.0)
|   X826 = 120: 3 (0.0)
|   X826 = 121: 3 (0.0)
|   X826 = 122: 3 (0.0)
|   X826 = 123: 3 (0.0)
|   X826 = 124: 3 (0.0)
|   X826 = 125: 3 (0.0)
|   X826 = 126: 3 (0.0)
|   X826 = 127: 3 (0.0)
|   X826 = 128: 3 (0.0)
|   X826 = 129: 3 (0.0)
|   X826 = 130: 3 (0.0)
|   X826 = 131: 3 (0.0)
|   X826 = 132: 3 (0.0)
|   X826 = 133: 3 (0.0)
|   X826 = 134: 3 (0.0)
|   X826 = 135: 3 (0.0)
|   X826 = 136: 3 (0.0)
|   X826 = 137: 3 (0.0)
|   X826 = 138: 3 (0.0)
|   X826 = 139: 3 (0.0)
|   X826 = 140: 3 (0.0)
|   X826 = 141: 3 (0.0)
|   X826 = 142: 3 (0.0)
|   X826 = 143: 3 (0.0)
|   X826 = 144: 3 (0.0)
|   X826 = 145: 3 (0.0)
|   X826 = 146: 3 (0.0)
|   X826 = 147: 3 (0.0)
|   X826 = 148: 3 (0.0)
|   X826 = 149: 3 (0.0)
|   X826 = 150: 3 (0.0)
|   X826 = 151: 3 (0.0)
|   X826 = 152: 3 (0.0)
|   X826 = 153: 3 (0.0)
|   X826 = 154: 3 (0.0)
|   X826 = 155: 3 (0.0)
|   X826 = 156: 3 (0.0)
|   X826 = 157: 3 (0.0)
|   X826 = 158: 3 (0.0)
|   X826 = 159: 3 (0.0)
|   X826 = 160: 3 (0.0)
|   X826 = 161: 3 (0.0)
|   X826 = 162: 3 (0.0)
|   X826 = 163: 3 (0.0)
|   X826 = 164: 3 (0.0)
|   X826 = 165: 3 (0.0)
|   X826 = 166: 3 (0.0)
|   X826 = 167: 3 (0.0)
|   X826 = 168: 3 (0.0)
|   X826 = 169: 3 (0.0)
|   X826 = 170: 3 (0.0)
|   X826 = 171: 3 (0.0)
|   X826 = 172: 3 (0.0)
|   X826 = 173: 3 (0.0)
|   X826 = 174: 3 (0.0)
|   X826 = 175: 3 (0.0)
|   X826 = 176: 3 (0.0)
|   X826 = 177: 3 (0.0)
|   X826 = 178: 3 (0.0)
|   X826 = 179: 3 (0.0)
|   X826 = 180: 3 (0.0)
|   X826 = 181: 3 (0.0)
|   X826 = 182: 3 (0.0)
|   X826 = 183: 3 (0.0)
|   X826 = 184: 3 (0.0)
|   X826 = 185: 3 (0.0)
|   X826 = 186: 3 (0.0)
|   X826 = 187: 3 (0.0)
|   X826 = 188: 3 (0.0)
|   X826 = 189: 3 (0.0)
|   X826 = 190: 3 (0.0)
|   X826 = 191: 3 (0.0)
|   X826 = 192: 3 (0.0)
|   X826 = 193: 3 (0.0)
|   X826 = 194: 3 (0.0)
|   X826 = 195: 3 (0.0)
|   X826 = 196: 3 (0.0)
|   X826 = 197: 3 (0.0)
|   X826 = 198: 3 (0.0)
|   X826 = 199: 3 (0.0)
|   X826 = 200: 3 (0.0)
|   X826 = 201: 3 (0.0)
|   X826 = 202: 3 (0.0)
|   X826 = 203: 3 (0.0)
|   X826 = 204: 3 (0.0)
|   X826 = 205: 3 (0.0)
|   X826 = 206: 3 (0.0)
|   X826 = 207: 3 (0.0)
|   X826 = 208: 3 (0.0)
|   X826 = 209: 3 (0.0)
|   X826 = 210: 3 (0.0)
|   X826 = 211: 3 (0.0)
|   X826 = 212: 3 (0.0)
|   X826 = 213: 3 (0.0)
|   X826 = 215: 3 (0.0)
|   X826 = 216: 3 (0.0)
|   X826 = 217: 3 (0.0)
|   X826 = 218: 3 (0.0)
|   X826 = 219: 3 (0.0)
|   X826 = 220: 3 (0.0)
|   X826 = 221: 3 (0.0)
|   X826 = 222: 3 (0.0)
|   X826 = 223: 3 (0.0)
|   X826 = 224: 3 (0.0)
|   X826 = 225: 3 (0.0)
|   X826 = 226: 3 (0.0)
|   X826 = 227: 3 (0.0)
|   X826 = 228: 3 (0.0)
|   X826 = 229: 3 (0.0)
|   X826 = 230: 3 (0.0)
|   X826 = 231: 3 (0.0)
|   X826 = 232: 3 (0.0)
|   X826 = 233: 3 (0.0)
|   X826 = 234: 3 (0.0)
|   X826 = 235: 3 (0.0)
|   X826 = 236: 3 (0.0)
|   X826 = 237: 3 (0.0)
|   X826 = 238: 3 (0.0)
|   X826 = 239: 3 (0.0)
|   X826 = 240: 3 (0.0)
|   X826 = 241: 3 (0.0)
|   X826 = 242: 3 (0.0)
|   X826 = 243: 3 (0.0)
|   X826 = 244: 3 (0.0)
|   X826 = 245: 3 (0.0)
|   X826 = 246: 3 (0.0)
|   X826 = 247: 3 (0.0)
|   X826 = 248: 3 (0.0)
|   X826 = 249: 3 (0.0)
|   X826 = 250: 3 (0.0)
|   X826 = 251: 3 (0.0)
|   X826 = 252: 3 (0.0)
|   X826 = 253: 3 (0.0)
|   X826 = 254: 3 (0.0)
|   X826 = 255: 3 (0.0)
X1264 = 9
|   X797 = 5: 5 (0.0)
|   X797 = 6: 5 (0.0)
|   X797 = 7: 5 (0.0)
|   X797 = 8: 5 (0.0)
|   X797 = 9: 5 (0.0)
|   X797 = 10: 5 (2.0)
|   X797 = 11: 5 (7.0)
|   X797 = 12: 5 (0.0)
|   X797 = 13: 5 (0.0)
|   X797 = 14: 5 (0.0)
|   X797 = 15: 5 (0.0)
|   X797 = 16: 5 (0.0)
|   X797 = 17: 5 (0.0)
|   X797 = 18: 5 (0.0)
|   X797 = 19: 3 (1.0)
|   X797 = 20: 5 (0.0)
|   X797 = 21: 3 (1.0)
|   X797 = 22: 3 (1.0)
|   X797 = 23: 5 (0.0)
|   X797 = 24: 5 (0.0)
|   X797 = 25: 5 (0.0)
|   X797 = 26: 5 (0.0)
|   X797 = 27: 5 (0.0)
|   X797 = 28: 5 (0.0)
|   X797 = 29: 5 (0.0)
|   X797 = 30: 5 (0.0)
|   X797 = 31: 5 (0.0)
|   X797 = 32: 5 (0.0)
|   X797 = 33: 5 (0.0)
|   X797 = 34: 5 (0.0)
|   X797 = 35: 5 (0.0)
|   X797 = 36: 5 (0.0)
|   X797 = 37: 5 (0.0)
|   X797 = 38: 5 (0.0)
|   X797 = 39: 5 (0.0)
|   X797 = 40: 5 (0.0)
|   X797 = 41: 5 (0.0)
|   X797 = 42: 5 (0.0)
|   X797 = 43: 5 (0.0)
|   X797 = 44: 5 (0.0)
|   X797 = 45: 5 (0.0)
|   X797 = 46: 5 (0.0)
|   X797 = 47: 5 (0.0)
|   X797 = 48: 5 (0.0)
|   X797 = 49: 5 (0.0)
|   X797 = 50: 5 (0.0)
|   X797 = 51: 5 (0.0)
|   X797 = 52: 5 (0.0)
|   X797 = 53: 5 (0.0)
|   X797 = 54: 5 (0.0)
|   X797 = 55: 5 (0.0)
|   X797 = 56: 5 (0.0)
|   X797 = 57: 5 (0.0)
|   X797 = 58: 5 (0.0)
|   X797 = 59: 5 (0.0)
|   X797 = 60: 5 (0.0)
|   X797 = 61: 5 (0.0)
|   X797 = 62: 5 (0.0)
|   X797 = 63: 5 (0.0)
|   X797 = 64: 5 (0.0)
|   X797 = 65: 5 (0.0)
|   X797 = 66: 5 (0.0)
|   X797 = 67: 5 (0.0)
|   X797 = 68: 5 (0.0)
|   X797 = 69: 5 (0.0)
|   X797 = 70: 5 (0.0)
|   X797 = 71: 5 (0.0)
|   X797 = 72: 5 (0.0)
|   X797 = 73: 5 (0.0)
|   X797 = 74: 5 (0.0)
|   X797 = 75: 5 (0.0)
|   X797 = 76: 5 (0.0)
|   X797 = 77: 5 (0.0)
|   X797 = 78: 5 (0.0)
|   X797 = 79: 5 (0.0)
|   X797 = 80: 5 (0.0)
|   X797 = 81: 5 (0.0)
|   X797 = 82: 5 (0.0)
|   X797 = 83: 5 (0.0)
|   X797 = 84: 5 (0.0)
|   X797 = 85: 5 (0.0)
|   X797 = 86: 5 (0.0)
|   X797 = 87: 5 (0.0)
|   X797 = 88: 5 (0.0)
|   X797 = 89: 5 (0.0)
|   X797 = 90: 5 (0.0)
|   X797 = 91: 5 (0.0)
|   X797 = 92: 5 (0.0)
|   X797 = 93: 5 (0.0)
|   X797 = 94: 5 (0.0)
|   X797 = 95: 5 (0.0)
|   X797 = 96: 5 (0.0)
|   X797 = 97: 5 (0.0)
|   X797 = 98: 5 (0.0)
|   X797 = 99: 5 (0.0)
|   X797 = 100: 5 (0.0)
|   X797 = 101: 5 (0.0)
|   X797 = 102: 5 (0.0)
|   X797 = 103: 5 (0.0)
|   X797 = 104: 5 (0.0)
|   X797 = 105: 5 (0.0)
|   X797 = 106: 5 (0.0)
|   X797 = 107: 5 (0.0)
|   X797 = 108: 5 (0.0)
|   X797 = 109: 5 (0.0)
|   X797 = 110: 5 (0.0)
|   X797 = 111: 5 (0.0)
|   X797 = 112: 5 (0.0)
|   X797 = 113: 5 (0.0)
|   X797 = 114: 5 (0.0)
|   X797 = 115: 5 (0.0)
|   X797 = 116: 5 (0.0)
|   X797 = 117: 5 (0.0)
|   X797 = 118: 5 (0.0)
|   X797 = 119: 5 (0.0)
|   X797 = 120: 5 (0.0)
|   X797 = 121: 5 (0.0)
|   X797 = 122: 5 (0.0)
|   X797 = 123: 5 (0.0)
|   X797 = 124: 5 (0.0)
|   X797 = 125: 5 (0.0)
|   X797 = 126: 5 (0.0)
|   X797 = 127: 5 (0.0)
|   X797 = 128: 5 (0.0)
|   X797 = 129: 5 (0.0)
|   X797 = 130: 5 (0.0)
|   X797 = 131: 5 (0.0)
|   X797 = 132: 5 (0.0)
|   X797 = 133: 5 (0.0)
|   X797 = 134: 5 (0.0)
|   X797 = 135: 5 (0.0)
|   X797 = 136: 5 (0.0)
|   X797 = 137: 5 (0.0)
|   X797 = 138: 5 (0.0)
|   X797 = 139: 5 (0.0)
|   X797 = 140: 5 (0.0)
|   X797 = 141: 5 (0.0)
|   X797 = 142: 5 (0.0)
|   X797 = 143: 5 (0.0)
|   X797 = 144: 5 (0.0)
|   X797 = 145: 5 (0.0)
|   X797 = 146: 5 (0.0)
|   X797 = 147: 5 (0.0)
|   X797 = 148: 5 (0.0)
|   X797 = 149: 5 (0.0)
|   X797 = 150: 5 (0.0)
|   X797 = 151: 5 (0.0)
|   X797 = 152: 5 (0.0)
|   X797 = 153: 5 (0.0)
|   X797 = 154: 5 (0.0)
|   X797 = 155: 5 (0.0)
|   X797 = 156: 5 (0.0)
|   X797 = 157: 5 (0.0)
|   X797 = 158: 5 (0.0)
|   X797 = 159: 5 (0.0)
|   X797 = 160: 5 (0.0)
|   X797 = 161: 5 (0.0)
|   X797 = 162: 5 (0.0)
|   X797 = 163: 5 (0.0)
|   X797 = 164: 5 (0.0)
|   X797 = 165: 5 (0.0)
|   X797 = 166: 5 (0.0)
|   X797 = 167: 5 (0.0)
|   X797 = 168: 5 (0.0)
|   X797 = 169: 5 (0.0)
|   X797 = 170: 5 (0.0)
|   X797 = 171: 5 (0.0)
|   X797 = 172: 5 (0.0)
|   X797 = 173: 5 (0.0)
|   X797 = 174: 5 (0.0)
|   X797 = 175: 5 (0.0)
|   X797 = 176: 5 (0.0)
|   X797 = 177: 5 (0.0)
|   X797 = 178: 5 (0.0)
|   X797 = 179: 5 (0.0)
|   X797 = 180: 5 (0.0)
|   X797 = 181: 5 (0.0)
|   X797 = 182: 5 (0.0)
|   X797 = 183: 5 (0.0)
|   X797 = 184: 5 (0.0)
|   X797 = 185: 5 (0.0)
|   X797 = 186: 5 (0.0)
|   X797 = 187: 5 (0.0)
|   X797 = 188: 5 (0.0)
|   X797 = 189: 5 (0.0)
|   X797 = 190: 5 (0.0)
|   X797 = 191: 5 (0.0)
|   X797 = 192: 5 (0.0)
|   X797 = 193: 5 (0.0)
|   X797 = 194: 5 (0.0)
|   X797 = 195: 5 (0.0)
|   X797 = 196: 5 (0.0)
|   X797 = 197: 5 (0.0)
|   X797 = 198: 5 (0.0)
|   X797 = 199: 5 (0.0)
|   X797 = 200: 5 (0.0)
|   X797 = 201: 5 (0.0)
|   X797 = 202: 5 (0.0)
|   X797 = 203: 5 (0.0)
|   X797 = 204: 5 (0.0)
|   X797 = 205: 5 (0.0)
|   X797 = 206: 5 (0.0)
|   X797 = 207: 5 (0.0)
|   X797 = 208: 5 (0.0)
|   X797 = 209: 5 (0.0)
|   X797 = 210: 5 (0.0)
|   X797 = 211: 5 (0.0)
|   X797 = 212: 5 (0.0)
|   X797 = 213: 5 (0.0)
|   X797 = 214: 5 (0.0)
|   X797 = 215: 5 (0.0)
|   X797 = 216: 5 (0.0)
|   X797 = 217: 5 (0.0)
|   X797 = 218: 5 (0.0)
|   X797 = 219: 5 (0.0)
|   X797 = 220: 5 (0.0)
|   X797 = 221: 5 (0.0)
|   X797 = 222: 5 (0.0)
|   X797 = 223: 5 (0.0)
|   X797 = 224: 5 (0.0)
|   X797 = 225: 5 (0.0)
|   X797 = 226: 5 (0.0)
|   X797 = 227: 5 (0.0)
|   X797 = 228: 5 (0.0)
|   X797 = 229: 5 (0.0)
|   X797 = 230: 5 (0.0)
|   X797 = 231: 5 (0.0)
|   X797 = 232: 5 (0.0)
|   X797 = 233: 5 (0.0)
|   X797 = 234: 5 (0.0)
|   X797 = 235: 5 (0.0)
|   X797 = 236: 5 (0.0)
|   X797 = 237: 5 (0.0)
|   X797 = 238: 5 (0.0)
|   X797 = 239: 5 (0.0)
|   X797 = 240: 5 (0.0)
|   X797 = 241: 5 (0.0)
|   X797 = 242: 5 (0.0)
|   X797 = 243: 5 (0.0)
|   X797 = 244: 5 (0.0)
|   X797 = 245: 5 (0.0)
|   X797 = 246: 5 (0.0)
|   X797 = 247: 5 (0.0)
|   X797 = 248: 5 (0.0)
|   X797 = 249: 5 (0.0)
|   X797 = 250: 5 (0.0)
|   X797 = 251: 5 (0.0)
|   X797 = 252: 5 (0.0)
|   X797 = 253: 5 (0.0)
|   X797 = 254: 5 (0.0)
|   X797 = 255: 5 (0.0)
X1264 = 10
|   X453 = 4: 3 (0.0)
|   X453 = 5: 3 (0.0)
|   X453 = 6: 3 (0.0)
|   X453 = 7: 3 (1.0)
|   X453 = 8: 5 (4.0)
|   X453 = 9: 5 (1.0)
|   X453 = 10: 3 (7.0)
|   X453 = 11: 3 (0.0)
|   X453 = 12: 3 (1.0)
|   X453 = 13: 3 (0.0)
|   X453 = 14: 3 (0.0)
|   X453 = 15: 3 (0.0)
|   X453 = 16: 3 (0.0)
|   X453 = 17: 3 (0.0)
|   X453 = 18: 3 (1.0)
|   X453 = 19: 3 (0.0)
|   X453 = 20: 3 (0.0)
|   X453 = 21: 3 (0.0)
|   X453 = 22: 3 (0.0)
|   X453 = 23: 3 (0.0)
|   X453 = 24: 3 (0.0)
|   X453 = 25: 3 (0.0)
|   X453 = 26: 3 (0.0)
|   X453 = 27: 3 (0.0)
|   X453 = 28: 3 (0.0)
|   X453 = 29: 3 (0.0)
|   X453 = 30: 3 (0.0)
|   X453 = 31: 3 (0.0)
|   X453 = 32: 3 (0.0)
|   X453 = 33: 3 (0.0)
|   X453 = 34: 3 (0.0)
|   X453 = 35: 3 (0.0)
|   X453 = 36: 3 (0.0)
|   X453 = 37: 3 (0.0)
|   X453 = 38: 3 (0.0)
|   X453 = 39: 3 (0.0)
|   X453 = 40: 3 (0.0)
|   X453 = 41: 3 (0.0)
|   X453 = 42: 3 (0.0)
|   X453 = 43: 3 (0.0)
|   X453 = 44: 3 (0.0)
|   X453 = 45: 3 (0.0)
|   X453 = 46: 3 (0.0)
|   X453 = 47: 3 (0.0)
|   X453 = 48: 3 (0.0)
|   X453 = 49: 3 (0.0)
|   X453 = 50: 3 (0.0)
|   X453 = 51: 3 (0.0)
|   X453 = 52: 3 (0.0)
|   X453 = 53: 3 (0.0)
|   X453 = 54: 3 (0.0)
|   X453 = 55: 3 (0.0)
|   X453 = 56: 3 (0.0)
|   X453 = 57: 3 (0.0)
|   X453 = 58: 3 (0.0)
|   X453 = 59: 3 (0.0)
|   X453 = 60: 3 (0.0)
|   X453 = 61: 3 (0.0)
|   X453 = 62: 3 (0.0)
|   X453 = 63: 3 (0.0)
|   X453 = 64: 3 (0.0)
|   X453 = 65: 3 (0.0)
|   X453 = 66: 3 (0.0)
|   X453 = 67: 3 (0.0)
|   X453 = 68: 3 (0.0)
|   X453 = 69: 3 (0.0)
|   X453 = 70: 3 (0.0)
|   X453 = 71: 3 (0.0)
|   X453 = 72: 3 (0.0)
|   X453 = 73: 3 (0.0)
|   X453 = 74: 3 (0.0)
|   X453 = 75: 3 (0.0)
|   X453 = 76: 3 (0.0)
|   X453 = 77: 3 (0.0)
|   X453 = 78: 3 (0.0)
|   X453 = 79: 3 (0.0)
|   X453 = 80: 3 (0.0)
|   X453 = 81: 3 (0.0)
|   X453 = 82: 3 (0.0)
|   X453 = 83: 3 (0.0)
|   X453 = 84: 3 (0.0)
|   X453 = 85: 3 (0.0)
|   X453 = 86: 3 (0.0)
|   X453 = 87: 3 (0.0)
|   X453 = 88: 3 (0.0)
|   X453 = 89: 3 (0.0)
|   X453 = 90: 3 (0.0)
|   X453 = 91: 3 (0.0)
|   X453 = 92: 3 (0.0)
|   X453 = 93: 3 (0.0)
|   X453 = 94: 3 (0.0)
|   X453 = 95: 3 (0.0)
|   X453 = 96: 3 (0.0)
|   X453 = 97: 3 (0.0)
|   X453 = 98: 3 (0.0)
|   X453 = 99: 3 (0.0)
|   X453 = 100: 3 (0.0)
|   X453 = 101: 3 (0.0)
|   X453 = 102: 3 (0.0)
|   X453 = 103: 3 (0.0)
|   X453 = 104: 3 (0.0)
|   X453 = 105: 3 (0.0)
|   X453 = 106: 3 (0.0)
|   X453 = 107: 3 (0.0)
|   X453 = 108: 3 (0.0)
|   X453 = 109: 3 (0.0)
|   X453 = 110: 3 (0.0)
|   X453 = 111: 3 (0.0)
|   X453 = 112: 3 (0.0)
|   X453 = 113: 3 (0.0)
|   X453 = 114: 3 (0.0)
|   X453 = 115: 3 (0.0)
|   X453 = 116: 3 (0.0)
|   X453 = 117: 3 (0.0)
|   X453 = 118: 3 (0.0)
|   X453 = 119: 3 (0.0)
|   X453 = 120: 3 (0.0)
|   X453 = 121: 3 (0.0)
|   X453 = 122: 3 (0.0)
|   X453 = 123: 3 (0.0)
|   X453 = 124: 3 (0.0)
|   X453 = 125: 3 (0.0)
|   X453 = 126: 3 (0.0)
|   X453 = 127: 3 (0.0)
|   X453 = 128: 3 (0.0)
|   X453 = 129: 3 (0.0)
|   X453 = 130: 3 (0.0)
|   X453 = 131: 3 (0.0)
|   X453 = 132: 3 (0.0)
|   X453 = 133: 3 (0.0)
|   X453 = 134: 3 (0.0)
|   X453 = 135: 3 (0.0)
|   X453 = 136: 3 (0.0)
|   X453 = 137: 3 (0.0)
|   X453 = 138: 3 (0.0)
|   X453 = 139: 3 (0.0)
|   X453 = 140: 3 (0.0)
|   X453 = 141: 3 (0.0)
|   X453 = 142: 3 (0.0)
|   X453 = 143: 3 (0.0)
|   X453 = 144: 3 (0.0)
|   X453 = 145: 3 (0.0)
|   X453 = 146: 3 (0.0)
|   X453 = 147: 3 (0.0)
|   X453 = 148: 3 (0.0)
|   X453 = 149: 3 (0.0)
|   X453 = 150: 3 (0.0)
|   X453 = 151: 3 (0.0)
|   X453 = 152: 3 (0.0)
|   X453 = 153: 3 (0.0)
|   X453 = 154: 3 (0.0)
|   X453 = 155: 3 (0.0)
|   X453 = 156: 3 (0.0)
|   X453 = 157: 3 (0.0)
|   X453 = 158: 3 (0.0)
|   X453 = 159: 3 (0.0)
|   X453 = 160: 3 (0.0)
|   X453 = 161: 3 (0.0)
|   X453 = 162: 3 (0.0)
|   X453 = 163: 3 (0.0)
|   X453 = 164: 3 (0.0)
|   X453 = 165: 3 (0.0)
|   X453 = 166: 3 (0.0)
|   X453 = 167: 3 (0.0)
|   X453 = 168: 3 (0.0)
|   X453 = 169: 3 (0.0)
|   X453 = 170: 3 (0.0)
|   X453 = 171: 3 (0.0)
|   X453 = 172: 3 (0.0)
|   X453 = 173: 3 (0.0)
|   X453 = 174: 3 (0.0)
|   X453 = 175: 3 (0.0)
|   X453 = 176: 3 (0.0)
|   X453 = 177: 3 (0.0)
|   X453 = 178: 3 (0.0)
|   X453 = 179: 3 (0.0)
|   X453 = 180: 3 (0.0)
|   X453 = 181: 3 (0.0)
|   X453 = 182: 3 (0.0)
|   X453 = 183: 3 (0.0)
|   X453 = 184: 3 (0.0)
|   X453 = 185: 3 (0.0)
|   X453 = 186: 3 (0.0)
|   X453 = 187: 3 (0.0)
|   X453 = 188: 3 (0.0)
|   X453 = 189: 3 (0.0)
|   X453 = 190: 3 (0.0)
|   X453 = 191: 3 (0.0)
|   X453 = 192: 3 (0.0)
|   X453 = 193: 3 (0.0)
|   X453 = 194: 3 (0.0)
|   X453 = 195: 3 (0.0)
|   X453 = 196: 3 (0.0)
|   X453 = 197: 3 (0.0)
|   X453 = 198: 3 (0.0)
|   X453 = 199: 3 (0.0)
|   X453 = 200: 3 (0.0)
|   X453 = 201: 3 (0.0)
|   X453 = 202: 3 (0.0)
|   X453 = 203: 3 (0.0)
|   X453 = 204: 3 (0.0)
|   X453 = 205: 3 (0.0)
|   X453 = 206: 3 (0.0)
|   X453 = 207: 3 (0.0)
|   X453 = 208: 3 (0.0)
|   X453 = 209: 3 (0.0)
|   X453 = 210: 3 (0.0)
|   X453 = 211: 3 (0.0)
|   X453 = 212: 3 (0.0)
|   X453 = 213: 3 (0.0)
|   X453 = 214: 3 (0.0)
|   X453 = 215: 3 (0.0)
|   X453 = 216: 3 (0.0)
|   X453 = 217: 3 (0.0)
|   X453 = 218: 3 (0.0)
|   X453 = 219: 3 (0.0)
|   X453 = 220: 3 (0.0)
|   X453 = 221: 3 (0.0)
|   X453 = 222: 3 (0.0)
|   X453 = 223: 3 (0.0)
|   X453 = 224: 3 (0.0)
|   X453 = 225: 3 (0.0)
|   X453 = 226: 3 (0.0)
|   X453 = 227: 3 (0.0)
|   X453 = 228: 3 (0.0)
|   X453 = 229: 3 (0.0)
|   X453 = 230: 3 (0.0)
|   X453 = 231: 3 (0.0)
|   X453 = 232: 3 (0.0)
|   X453 = 233: 3 (0.0)
|   X453 = 234: 3 (0.0)
|   X453 = 235: 3 (0.0)
|   X453 = 236: 3 (0.0)
|   X453 = 237: 3 (0.0)
|   X453 = 238: 3 (0.0)
|   X453 = 239: 3 (0.0)
|   X453 = 240: 3 (0.0)
|   X453 = 241: 3 (0.0)
|   X453 = 242: 3 (0.0)
|   X453 = 243: 3 (0.0)
|   X453 = 244: 3 (0.0)
|   X453 = 245: 3 (0.0)
|   X453 = 246: 3 (0.0)
|   X453 = 247: 3 (0.0)
|   X453 = 248: 3 (0.0)
|   X453 = 249: 3 (0.0)
|   X453 = 250: 3 (0.0)
|   X453 = 251: 3 (0.0)
|   X453 = 252: 3 (0.0)
|   X453 = 253: 3 (0.0)
|   X453 = 254: 3 (0.0)
|   X453 = 255: 3 (0.0)
X1264 = 11: 3 (9.0/1.0)
X1264 = 12
|   X1306 = 4: 4 (1.0)
|   X1306 = 5: 3 (0.0)
|   X1306 = 6: 3 (0.0)
|   X1306 = 7: 5 (4.0)
|   X1306 = 8: 5 (1.0)
|   X1306 = 9: 3 (1.0)
|   X1306 = 10: 3 (5.0)
|   X1306 = 11: 3 (1.0)
|   X1306 = 12: 3 (1.0)
|   X1306 = 13: 3 (1.0)
|   X1306 = 14: 3 (2.0)
|   X1306 = 15: 3 (0.0)
|   X1306 = 16: 3 (0.0)
|   X1306 = 17: 3 (0.0)
|   X1306 = 18: 3 (0.0)
|   X1306 = 19: 3 (0.0)
|   X1306 = 20: 3 (0.0)
|   X1306 = 21: 3 (0.0)
|   X1306 = 22: 3 (0.0)
|   X1306 = 23: 8 (1.0)
|   X1306 = 24: 3 (0.0)
|   X1306 = 25: 3 (0.0)
|   X1306 = 26: 3 (0.0)
|   X1306 = 27: 3 (0.0)
|   X1306 = 28: 3 (0.0)
|   X1306 = 29: 3 (0.0)
|   X1306 = 30: 3 (0.0)
|   X1306 = 31: 3 (0.0)
|   X1306 = 32: 3 (0.0)
|   X1306 = 33: 3 (0.0)
|   X1306 = 34: 3 (0.0)
|   X1306 = 35: 3 (0.0)
|   X1306 = 36: 3 (0.0)
|   X1306 = 37: 3 (0.0)
|   X1306 = 38: 3 (0.0)
|   X1306 = 39: 3 (0.0)
|   X1306 = 40: 3 (0.0)
|   X1306 = 41: 3 (0.0)
|   X1306 = 42: 3 (0.0)
|   X1306 = 43: 3 (0.0)
|   X1306 = 44: 3 (0.0)
|   X1306 = 45: 3 (0.0)
|   X1306 = 46: 3 (0.0)
|   X1306 = 47: 3 (0.0)
|   X1306 = 48: 3 (0.0)
|   X1306 = 49: 3 (0.0)
|   X1306 = 50: 3 (0.0)
|   X1306 = 51: 3 (0.0)
|   X1306 = 52: 3 (0.0)
|   X1306 = 53: 3 (0.0)
|   X1306 = 54: 3 (0.0)
|   X1306 = 55: 3 (0.0)
|   X1306 = 56: 3 (0.0)
|   X1306 = 57: 3 (0.0)
|   X1306 = 58: 3 (0.0)
|   X1306 = 59: 3 (0.0)
|   X1306 = 60: 3 (0.0)
|   X1306 = 61: 3 (0.0)
|   X1306 = 62: 3 (0.0)
|   X1306 = 63: 3 (0.0)
|   X1306 = 64: 3 (0.0)
|   X1306 = 65: 3 (0.0)
|   X1306 = 66: 3 (0.0)
|   X1306 = 67: 3 (0.0)
|   X1306 = 68: 3 (0.0)
|   X1306 = 69: 3 (0.0)
|   X1306 = 70: 3 (0.0)
|   X1306 = 71: 3 (0.0)
|   X1306 = 72: 3 (0.0)
|   X1306 = 73: 3 (0.0)
|   X1306 = 74: 3 (0.0)
|   X1306 = 75: 3 (0.0)
|   X1306 = 76: 3 (0.0)
|   X1306 = 77: 3 (0.0)
|   X1306 = 78: 3 (0.0)
|   X1306 = 79: 3 (0.0)
|   X1306 = 80: 3 (0.0)
|   X1306 = 81: 3 (0.0)
|   X1306 = 82: 3 (0.0)
|   X1306 = 83: 3 (0.0)
|   X1306 = 84: 3 (0.0)
|   X1306 = 85: 3 (0.0)
|   X1306 = 86: 3 (0.0)
|   X1306 = 87: 3 (0.0)
|   X1306 = 88: 3 (0.0)
|   X1306 = 89: 3 (0.0)
|   X1306 = 90: 3 (0.0)
|   X1306 = 91: 3 (0.0)
|   X1306 = 92: 3 (0.0)
|   X1306 = 93: 3 (0.0)
|   X1306 = 94: 3 (0.0)
|   X1306 = 95: 3 (0.0)
|   X1306 = 96: 3 (0.0)
|   X1306 = 97: 3 (0.0)
|   X1306 = 98: 3 (0.0)
|   X1306 = 99: 3 (0.0)
|   X1306 = 100: 3 (0.0)
|   X1306 = 101: 3 (0.0)
|   X1306 = 102: 3 (0.0)
|   X1306 = 103: 3 (0.0)
|   X1306 = 104: 3 (0.0)
|   X1306 = 105: 3 (0.0)
|   X1306 = 106: 3 (0.0)
|   X1306 = 107: 3 (0.0)
|   X1306 = 108: 3 (0.0)
|   X1306 = 109: 3 (0.0)
|   X1306 = 110: 3 (0.0)
|   X1306 = 111: 3 (0.0)
|   X1306 = 112: 3 (0.0)
|   X1306 = 113: 3 (0.0)
|   X1306 = 114: 3 (0.0)
|   X1306 = 115: 3 (0.0)
|   X1306 = 116: 3 (0.0)
|   X1306 = 117: 3 (0.0)
|   X1306 = 118: 3 (0.0)
|   X1306 = 119: 3 (0.0)
|   X1306 = 120: 3 (0.0)
|   X1306 = 121: 3 (0.0)
|   X1306 = 122: 3 (0.0)
|   X1306 = 123: 3 (0.0)
|   X1306 = 124: 3 (0.0)
|   X1306 = 125: 3 (0.0)
|   X1306 = 126: 3 (0.0)
|   X1306 = 127: 3 (0.0)
|   X1306 = 128: 3 (0.0)
|   X1306 = 129: 3 (0.0)
|   X1306 = 130: 3 (0.0)
|   X1306 = 131: 3 (0.0)
|   X1306 = 132: 3 (0.0)
|   X1306 = 133: 3 (0.0)
|   X1306 = 134: 3 (0.0)
|   X1306 = 135: 3 (0.0)
|   X1306 = 136: 3 (0.0)
|   X1306 = 137: 3 (0.0)
|   X1306 = 138: 3 (0.0)
|   X1306 = 139: 3 (0.0)
|   X1306 = 140: 3 (0.0)
|   X1306 = 141: 3 (0.0)
|   X1306 = 142: 3 (0.0)
|   X1306 = 143: 3 (0.0)
|   X1306 = 144: 3 (0.0)
|   X1306 = 145: 3 (0.0)
|   X1306 = 146: 3 (0.0)
|   X1306 = 147: 3 (0.0)
|   X1306 = 148: 3 (0.0)
|   X1306 = 149: 3 (0.0)
|   X1306 = 150: 3 (0.0)
|   X1306 = 151: 3 (0.0)
|   X1306 = 152: 3 (0.0)
|   X1306 = 153: 3 (0.0)
|   X1306 = 154: 3 (0.0)
|   X1306 = 155: 3 (0.0)
|   X1306 = 156: 3 (0.0)
|   X1306 = 157: 3 (0.0)
|   X1306 = 158: 3 (0.0)
|   X1306 = 159: 3 (0.0)
|   X1306 = 160: 3 (0.0)
|   X1306 = 161: 3 (0.0)
|   X1306 = 162: 3 (0.0)
|   X1306 = 163: 3 (0.0)
|   X1306 = 164: 3 (0.0)
|   X1306 = 165: 3 (0.0)
|   X1306 = 166: 3 (0.0)
|   X1306 = 167: 3 (0.0)
|   X1306 = 168: 3 (0.0)
|   X1306 = 169: 3 (0.0)
|   X1306 = 170: 3 (0.0)
|   X1306 = 171: 3 (0.0)
|   X1306 = 172: 3 (0.0)
|   X1306 = 173: 3 (0.0)
|   X1306 = 174: 3 (0.0)
|   X1306 = 175: 3 (0.0)
|   X1306 = 176: 3 (0.0)
|   X1306 = 177: 3 (0.0)
|   X1306 = 178: 3 (0.0)
|   X1306 = 179: 3 (0.0)
|   X1306 = 180: 3 (0.0)
|   X1306 = 181: 3 (0.0)
|   X1306 = 182: 3 (0.0)
|   X1306 = 183: 3 (0.0)
|   X1306 = 184: 3 (0.0)
|   X1306 = 185: 3 (0.0)
|   X1306 = 186: 3 (0.0)
|   X1306 = 187: 3 (0.0)
|   X1306 = 188: 3 (0.0)
|   X1306 = 189: 3 (0.0)
|   X1306 = 190: 3 (0.0)
|   X1306 = 191: 3 (0.0)
|   X1306 = 192: 3 (0.0)
|   X1306 = 193: 3 (0.0)
|   X1306 = 194: 3 (0.0)
|   X1306 = 195: 3 (0.0)
|   X1306 = 196: 3 (0.0)
|   X1306 = 197: 3 (0.0)
|   X1306 = 198: 3 (0.0)
|   X1306 = 199: 3 (0.0)
|   X1306 = 200: 3 (0.0)
|   X1306 = 201: 3 (0.0)
|   X1306 = 202: 3 (0.0)
|   X1306 = 203: 3 (0.0)
|   X1306 = 204: 3 (0.0)
|   X1306 = 205: 3 (0.0)
|   X1306 = 206: 3 (0.0)
|   X1306 = 207: 3 (0.0)
|   X1306 = 208: 3 (0.0)
|   X1306 = 209: 3 (0.0)
|   X1306 = 210: 3 (0.0)
|   X1306 = 211: 3 (0.0)
|   X1306 = 212: 3 (0.0)
|   X1306 = 213: 3 (0.0)
|   X1306 = 214: 3 (0.0)
|   X1306 = 215: 3 (0.0)
|   X1306 = 216: 3 (0.0)
|   X1306 = 217: 3 (0.0)
|   X1306 = 218: 3 (0.0)
|   X1306 = 219: 3 (0.0)
|   X1306 = 220: 3 (0.0)
|   X1306 = 221: 3 (0.0)
|   X1306 = 222: 3 (0.0)
|   X1306 = 223: 3 (0.0)
|   X1306 = 224: 3 (0.0)
|   X1306 = 225: 3 (0.0)
|   X1306 = 226: 3 (0.0)
|   X1306 = 227: 3 (0.0)
|   X1306 = 228: 3 (0.0)
|   X1306 = 229: 3 (0.0)
|   X1306 = 230: 3 (0.0)
|   X1306 = 231: 3 (0.0)
|   X1306 = 232: 3 (0.0)
|   X1306 = 233: 3 (0.0)
|   X1306 = 234: 3 (0.0)
|   X1306 = 235: 3 (0.0)
|   X1306 = 236: 3 (0.0)
|   X1306 = 237: 3 (0.0)
|   X1306 = 238: 3 (0.0)
|   X1306 = 239: 3 (0.0)
|   X1306 = 240: 3 (0.0)
|   X1306 = 241: 3 (0.0)
|   X1306 = 242: 3 (0.0)
|   X1306 = 243: 3 (0.0)
|   X1306 = 244: 3 (0.0)
|   X1306 = 245: 3 (0.0)
|   X1306 = 246: 3 (0.0)
|   X1306 = 247: 3 (0.0)
|   X1306 = 248: 3 (0.0)
|   X1306 = 249: 3 (0.0)
|   X1306 = 250: 3 (0.0)
|   X1306 = 251: 3 (0.0)
|   X1306 = 252: 3 (0.0)
|   X1306 = 253: 3 (0.0)
|   X1306 = 254: 3 (0.0)
|   X1306 = 255: 3 (0.0)
X1264 = 13: 3 (16.0/4.0)
X1264 = 14
|   X1898 = 4: 3 (0.0)
|   X1898 = 5: 4 (5.0)
|   X1898 = 6: 3 (0.0)
|   X1898 = 7: 4 (2.0)
|   X1898 = 8: 3 (0.0)
|   X1898 = 9: 3 (2.0)
|   X1898 = 10: 3 (4.0)
|   X1898 = 11: 3 (5.0)
|   X1898 = 12: 4 (2.0)
|   X1898 = 13: 3 (1.0)
|   X1898 = 14: 3 (1.0)
|   X1898 = 15: 7 (1.0)
|   X1898 = 16: 3 (0.0)
|   X1898 = 17: 3 (0.0)
|   X1898 = 18: 3 (0.0)
|   X1898 = 19: 3 (0.0)
|   X1898 = 20: 3 (0.0)
|   X1898 = 21: 3 (0.0)
|   X1898 = 22: 3 (0.0)
|   X1898 = 23: 3 (0.0)
|   X1898 = 24: 3 (0.0)
|   X1898 = 25: 3 (0.0)
|   X1898 = 26: 3 (0.0)
|   X1898 = 27: 3 (0.0)
|   X1898 = 28: 3 (0.0)
|   X1898 = 29: 3 (0.0)
|   X1898 = 30: 3 (1.0)
|   X1898 = 31: 3 (0.0)
|   X1898 = 32: 6 (1.0)
|   X1898 = 33: 3 (0.0)
|   X1898 = 34: 3 (0.0)
|   X1898 = 35: 3 (0.0)
|   X1898 = 36: 3 (0.0)
|   X1898 = 37: 3 (0.0)
|   X1898 = 38: 3 (0.0)
|   X1898 = 39: 3 (0.0)
|   X1898 = 40: 3 (0.0)
|   X1898 = 41: 3 (0.0)
|   X1898 = 42: 3 (0.0)
|   X1898 = 43: 3 (0.0)
|   X1898 = 44: 3 (0.0)
|   X1898 = 45: 3 (0.0)
|   X1898 = 46: 3 (0.0)
|   X1898 = 47: 3 (0.0)
|   X1898 = 48: 3 (0.0)
|   X1898 = 49: 3 (0.0)
|   X1898 = 50: 3 (0.0)
|   X1898 = 51: 3 (0.0)
|   X1898 = 52: 3 (0.0)
|   X1898 = 53: 3 (0.0)
|   X1898 = 54: 3 (0.0)
|   X1898 = 55: 3 (0.0)
|   X1898 = 56: 3 (0.0)
|   X1898 = 57: 3 (0.0)
|   X1898 = 58: 3 (0.0)
|   X1898 = 59: 3 (0.0)
|   X1898 = 60: 3 (0.0)
|   X1898 = 61: 3 (0.0)
|   X1898 = 62: 3 (0.0)
|   X1898 = 63: 3 (0.0)
|   X1898 = 64: 3 (0.0)
|   X1898 = 65: 3 (0.0)
|   X1898 = 66: 3 (0.0)
|   X1898 = 67: 3 (0.0)
|   X1898 = 68: 3 (0.0)
|   X1898 = 69: 3 (0.0)
|   X1898 = 70: 3 (0.0)
|   X1898 = 71: 3 (0.0)
|   X1898 = 72: 3 (0.0)
|   X1898 = 73: 3 (0.0)
|   X1898 = 74: 3 (0.0)
|   X1898 = 75: 3 (0.0)
|   X1898 = 76: 3 (0.0)
|   X1898 = 77: 3 (0.0)
|   X1898 = 78: 3 (0.0)
|   X1898 = 79: 3 (0.0)
|   X1898 = 80: 3 (0.0)
|   X1898 = 81: 3 (0.0)
|   X1898 = 82: 3 (0.0)
|   X1898 = 83: 3 (0.0)
|   X1898 = 84: 3 (0.0)
|   X1898 = 85: 3 (0.0)
|   X1898 = 86: 3 (0.0)
|   X1898 = 87: 3 (0.0)
|   X1898 = 88: 3 (0.0)
|   X1898 = 89: 3 (0.0)
|   X1898 = 90: 3 (0.0)
|   X1898 = 91: 3 (0.0)
|   X1898 = 92: 3 (0.0)
|   X1898 = 93: 3 (0.0)
|   X1898 = 94: 3 (0.0)
|   X1898 = 95: 3 (0.0)
|   X1898 = 96: 3 (0.0)
|   X1898 = 97: 3 (0.0)
|   X1898 = 98: 3 (0.0)
|   X1898 = 99: 3 (0.0)
|   X1898 = 100: 3 (0.0)
|   X1898 = 101: 3 (0.0)
|   X1898 = 102: 3 (0.0)
|   X1898 = 103: 3 (0.0)
|   X1898 = 104: 3 (0.0)
|   X1898 = 105: 3 (0.0)
|   X1898 = 106: 3 (0.0)
|   X1898 = 107: 3 (0.0)
|   X1898 = 108: 3 (0.0)
|   X1898 = 109: 3 (0.0)
|   X1898 = 110: 3 (0.0)
|   X1898 = 111: 3 (0.0)
|   X1898 = 112: 3 (0.0)
|   X1898 = 113: 3 (0.0)
|   X1898 = 114: 3 (0.0)
|   X1898 = 115: 3 (0.0)
|   X1898 = 116: 3 (0.0)
|   X1898 = 117: 3 (0.0)
|   X1898 = 118: 3 (0.0)
|   X1898 = 119: 3 (0.0)
|   X1898 = 120: 3 (0.0)
|   X1898 = 121: 3 (0.0)
|   X1898 = 122: 3 (0.0)
|   X1898 = 123: 3 (0.0)
|   X1898 = 124: 3 (0.0)
|   X1898 = 125: 3 (0.0)
|   X1898 = 126: 3 (0.0)
|   X1898 = 127: 3 (0.0)
|   X1898 = 128: 3 (0.0)
|   X1898 = 129: 3 (0.0)
|   X1898 = 130: 3 (0.0)
|   X1898 = 131: 3 (0.0)
|   X1898 = 132: 3 (0.0)
|   X1898 = 133: 3 (0.0)
|   X1898 = 134: 3 (0.0)
|   X1898 = 135: 3 (0.0)
|   X1898 = 136: 3 (0.0)
|   X1898 = 137: 3 (0.0)
|   X1898 = 138: 3 (0.0)
|   X1898 = 139: 3 (0.0)
|   X1898 = 140: 3 (0.0)
|   X1898 = 141: 3 (0.0)
|   X1898 = 142: 3 (0.0)
|   X1898 = 143: 3 (0.0)
|   X1898 = 144: 3 (0.0)
|   X1898 = 145: 3 (0.0)
|   X1898 = 146: 3 (0.0)
|   X1898 = 147: 3 (0.0)
|   X1898 = 148: 3 (0.0)
|   X1898 = 149: 3 (0.0)
|   X1898 = 150: 3 (0.0)
|   X1898 = 151: 3 (0.0)
|   X1898 = 152: 3 (0.0)
|   X1898 = 153: 3 (0.0)
|   X1898 = 154: 3 (0.0)
|   X1898 = 155: 3 (0.0)
|   X1898 = 156: 3 (0.0)
|   X1898 = 157: 3 (0.0)
|   X1898 = 158: 3 (0.0)
|   X1898 = 159: 3 (0.0)
|   X1898 = 160: 3 (0.0)
|   X1898 = 161: 3 (0.0)
|   X1898 = 162: 3 (0.0)
|   X1898 = 163: 3 (0.0)
|   X1898 = 164: 3 (0.0)
|   X1898 = 165: 3 (0.0)
|   X1898 = 166: 3 (0.0)
|   X1898 = 167: 3 (0.0)
|   X1898 = 168: 3 (0.0)
|   X1898 = 169: 3 (0.0)
|   X1898 = 170: 3 (0.0)
|   X1898 = 171: 3 (0.0)
|   X1898 = 172: 3 (0.0)
|   X1898 = 173: 3 (0.0)
|   X1898 = 174: 3 (0.0)
|   X1898 = 175: 3 (0.0)
|   X1898 = 176: 3 (0.0)
|   X1898 = 177: 3 (0.0)
|   X1898 = 178: 3 (0.0)
|   X1898 = 179: 3 (0.0)
|   X1898 = 180: 3 (0.0)
|   X1898 = 181: 3 (0.0)
|   X1898 = 182: 3 (0.0)
|   X1898 = 183: 3 (0.0)
|   X1898 = 184: 3 (0.0)
|   X1898 = 185: 3 (0.0)
|   X1898 = 186: 3 (0.0)
|   X1898 = 187: 3 (0.0)
|   X1898 = 188: 3 (0.0)
|   X1898 = 189: 3 (0.0)
|   X1898 = 190: 3 (0.0)
|   X1898 = 191: 3 (0.0)
|   X1898 = 192: 3 (0.0)
|   X1898 = 193: 3 (0.0)
|   X1898 = 194: 3 (0.0)
|   X1898 = 195: 3 (0.0)
|   X1898 = 196: 3 (0.0)
|   X1898 = 197: 3 (0.0)
|   X1898 = 198: 3 (0.0)
|   X1898 = 199: 3 (0.0)
|   X1898 = 200: 3 (0.0)
|   X1898 = 201: 3 (0.0)
|   X1898 = 202: 3 (0.0)
|   X1898 = 203: 3 (0.0)
|   X1898 = 204: 3 (0.0)
|   X1898 = 205: 3 (0.0)
|   X1898 = 206: 3 (0.0)
|   X1898 = 207: 3 (0.0)
|   X1898 = 208: 3 (0.0)
|   X1898 = 209: 3 (0.0)
|   X1898 = 211: 3 (0.0)
|   X1898 = 212: 3 (0.0)
|   X1898 = 213: 3 (0.0)
|   X1898 = 214: 3 (0.0)
|   X1898 = 215: 3 (0.0)
|   X1898 = 216: 3 (0.0)
|   X1898 = 217: 3 (0.0)
|   X1898 = 218: 3 (0.0)
|   X1898 = 219: 3 (0.0)
|   X1898 = 220: 3 (0.0)
|   X1898 = 221: 3 (0.0)
|   X1898 = 222: 3 (0.0)
|   X1898 = 223: 3 (0.0)
|   X1898 = 224: 3 (0.0)
|   X1898 = 225: 3 (0.0)
|   X1898 = 226: 3 (0.0)
|   X1898 = 227: 3 (0.0)
|   X1898 = 228: 3 (0.0)
|   X1898 = 229: 3 (0.0)
|   X1898 = 230: 3 (0.0)
|   X1898 = 231: 3 (0.0)
|   X1898 = 232: 3 (0.0)
|   X1898 = 233: 3 (0.0)
|   X1898 = 234: 3 (0.0)
|   X1898 = 235: 3 (0.0)
|   X1898 = 236: 3 (0.0)
|   X1898 = 237: 3 (0.0)
|   X1898 = 238: 3 (0.0)
|   X1898 = 239: 3 (0.0)
|   X1898 = 240: 3 (0.0)
|   X1898 = 241: 3 (0.0)
|   X1898 = 242: 3 (0.0)
|   X1898 = 243: 3 (0.0)
|   X1898 = 244: 3 (0.0)
|   X1898 = 245: 3 (0.0)
|   X1898 = 246: 3 (0.0)
|   X1898 = 247: 3 (0.0)
|   X1898 = 248: 3 (0.0)
|   X1898 = 249: 3 (0.0)
|   X1898 = 251: 3 (0.0)
|   X1898 = 252: 3 (0.0)
|   X1898 = 253: 3 (0.0)
|   X1898 = 254: 3 (0.0)
|   X1898 = 255: 3 (0.0)
X1264 = 15
|   X1098 = 5: 4 (0.0)
|   X1098 = 6: 4 (0.0)
|   X1098 = 7: 4 (1.0)
|   X1098 = 8: 4 (10.0)
|   X1098 = 9: 4 (3.0)
|   X1098 = 10: 3 (3.0)
|   X1098 = 11: 4 (0.0)
|   X1098 = 12: 4 (0.0)
|   X1098 = 13: 4 (0.0)
|   X1098 = 14: 3 (3.0/1.0)
|   X1098 = 15: 4 (0.0)
|   X1098 = 16: 6 (2.0)
|   X1098 = 17: 4 (0.0)
|   X1098 = 18: 3 (1.0)
|   X1098 = 19: 6 (1.0)
|   X1098 = 20: 3 (1.0)
|   X1098 = 21: 4 (0.0)
|   X1098 = 22: 4 (0.0)
|   X1098 = 23: 4 (0.0)
|   X1098 = 24: 8 (2.0)
|   X1098 = 25: 4 (0.0)
|   X1098 = 26: 4 (0.0)
|   X1098 = 27: 4 (0.0)
|   X1098 = 28: 4 (0.0)
|   X1098 = 29: 3 (1.0)
|   X1098 = 30: 4 (0.0)
|   X1098 = 31: 4 (0.0)
|   X1098 = 32: 7 (1.0)
|   X1098 = 33: 4 (0.0)
|   X1098 = 34: 4 (0.0)
|   X1098 = 35: 4 (0.0)
|   X1098 = 36: 4 (0.0)
|   X1098 = 37: 4 (0.0)
|   X1098 = 38: 4 (0.0)
|   X1098 = 39: 4 (0.0)
|   X1098 = 40: 4 (0.0)
|   X1098 = 41: 4 (0.0)
|   X1098 = 42: 4 (0.0)
|   X1098 = 43: 4 (0.0)
|   X1098 = 44: 4 (0.0)
|   X1098 = 45: 4 (0.0)
|   X1098 = 46: 4 (0.0)
|   X1098 = 47: 4 (0.0)
|   X1098 = 48: 4 (0.0)
|   X1098 = 49: 4 (0.0)
|   X1098 = 50: 7 (1.0)
|   X1098 = 51: 4 (0.0)
|   X1098 = 52: 4 (0.0)
|   X1098 = 53: 7 (1.0)
|   X1098 = 54: 4 (0.0)
|   X1098 = 55: 4 (0.0)
|   X1098 = 56: 4 (0.0)
|   X1098 = 57: 4 (0.0)
|   X1098 = 58: 4 (0.0)
|   X1098 = 59: 4 (0.0)
|   X1098 = 60: 4 (0.0)
|   X1098 = 61: 4 (0.0)
|   X1098 = 62: 4 (0.0)
|   X1098 = 63: 4 (0.0)
|   X1098 = 64: 4 (0.0)
|   X1098 = 65: 4 (0.0)
|   X1098 = 66: 4 (0.0)
|   X1098 = 67: 3 (1.0)
|   X1098 = 68: 4 (0.0)
|   X1098 = 69: 4 (0.0)
|   X1098 = 70: 4 (0.0)
|   X1098 = 71: 4 (0.0)
|   X1098 = 72: 4 (0.0)
|   X1098 = 73: 4 (0.0)
|   X1098 = 74: 4 (0.0)
|   X1098 = 75: 4 (0.0)
|   X1098 = 76: 4 (0.0)
|   X1098 = 77: 4 (0.0)
|   X1098 = 78: 4 (0.0)
|   X1098 = 79: 4 (0.0)
|   X1098 = 80: 4 (0.0)
|   X1098 = 81: 4 (0.0)
|   X1098 = 82: 4 (0.0)
|   X1098 = 83: 4 (0.0)
|   X1098 = 84: 4 (0.0)
|   X1098 = 85: 4 (0.0)
|   X1098 = 86: 4 (0.0)
|   X1098 = 87: 4 (0.0)
|   X1098 = 88: 4 (0.0)
|   X1098 = 89: 4 (0.0)
|   X1098 = 90: 4 (0.0)
|   X1098 = 91: 4 (0.0)
|   X1098 = 92: 4 (0.0)
|   X1098 = 93: 4 (0.0)
|   X1098 = 94: 4 (0.0)
|   X1098 = 95: 4 (0.0)
|   X1098 = 96: 4 (0.0)
|   X1098 = 97: 4 (0.0)
|   X1098 = 98: 3 (1.0)
|   X1098 = 99: 4 (0.0)
|   X1098 = 100: 4 (0.0)
|   X1098 = 101: 4 (0.0)
|   X1098 = 102: 4 (0.0)
|   X1098 = 103: 4 (0.0)
|   X1098 = 104: 4 (0.0)
|   X1098 = 105: 4 (0.0)
|   X1098 = 106: 4 (0.0)
|   X1098 = 107: 4 (0.0)
|   X1098 = 108: 4 (0.0)
|   X1098 = 109: 4 (0.0)
|   X1098 = 110: 4 (0.0)
|   X1098 = 111: 4 (0.0)
|   X1098 = 112: 4 (0.0)
|   X1098 = 113: 4 (0.0)
|   X1098 = 114: 4 (0.0)
|   X1098 = 115: 4 (0.0)
|   X1098 = 116: 4 (0.0)
|   X1098 = 117: 4 (0.0)
|   X1098 = 118: 4 (0.0)
|   X1098 = 119: 4 (0.0)
|   X1098 = 120: 4 (0.0)
|   X1098 = 121: 4 (0.0)
|   X1098 = 122: 4 (0.0)
|   X1098 = 123: 4 (0.0)
|   X1098 = 124: 4 (0.0)
|   X1098 = 125: 4 (0.0)
|   X1098 = 126: 4 (0.0)
|   X1098 = 127: 4 (0.0)
|   X1098 = 128: 4 (0.0)
|   X1098 = 129: 4 (0.0)
|   X1098 = 130: 4 (0.0)
|   X1098 = 131: 4 (0.0)
|   X1098 = 132: 4 (0.0)
|   X1098 = 133: 4 (0.0)
|   X1098 = 134: 4 (0.0)
|   X1098 = 135: 4 (0.0)
|   X1098 = 136: 4 (0.0)
|   X1098 = 137: 4 (0.0)
|   X1098 = 138: 4 (0.0)
|   X1098 = 139: 4 (0.0)
|   X1098 = 140: 4 (0.0)
|   X1098 = 141: 4 (0.0)
|   X1098 = 142: 4 (0.0)
|   X1098 = 143: 4 (0.0)
|   X1098 = 144: 4 (0.0)
|   X1098 = 145: 4 (0.0)
|   X1098 = 146: 4 (0.0)
|   X1098 = 147: 4 (0.0)
|   X1098 = 148: 4 (0.0)
|   X1098 = 149: 4 (0.0)
|   X1098 = 150: 4 (0.0)
|   X1098 = 151: 4 (0.0)
|   X1098 = 152: 4 (0.0)
|   X1098 = 153: 4 (0.0)
|   X1098 = 154: 4 (0.0)
|   X1098 = 155: 4 (0.0)
|   X1098 = 156: 4 (0.0)
|   X1098 = 157: 4 (0.0)
|   X1098 = 158: 4 (0.0)
|   X1098 = 159: 4 (0.0)
|   X1098 = 160: 4 (0.0)
|   X1098 = 161: 4 (0.0)
|   X1098 = 162: 4 (0.0)
|   X1098 = 163: 4 (0.0)
|   X1098 = 164: 4 (0.0)
|   X1098 = 165: 4 (0.0)
|   X1098 = 166: 4 (0.0)
|   X1098 = 167: 4 (0.0)
|   X1098 = 168: 4 (0.0)
|   X1098 = 169: 4 (0.0)
|   X1098 = 170: 4 (0.0)
|   X1098 = 171: 4 (0.0)
|   X1098 = 172: 4 (0.0)
|   X1098 = 173: 4 (0.0)
|   X1098 = 174: 4 (0.0)
|   X1098 = 175: 4 (0.0)
|   X1098 = 176: 4 (0.0)
|   X1098 = 177: 4 (0.0)
|   X1098 = 178: 4 (0.0)
|   X1098 = 179: 4 (0.0)
|   X1098 = 180: 4 (0.0)
|   X1098 = 181: 4 (0.0)
|   X1098 = 182: 4 (0.0)
|   X1098 = 183: 4 (0.0)
|   X1098 = 184: 4 (0.0)
|   X1098 = 185: 4 (0.0)
|   X1098 = 186: 4 (0.0)
|   X1098 = 187: 4 (0.0)
|   X1098 = 188: 4 (0.0)
|   X1098 = 189: 4 (0.0)
|   X1098 = 190: 4 (0.0)
|   X1098 = 191: 4 (0.0)
|   X1098 = 192: 4 (0.0)
|   X1098 = 193: 4 (0.0)
|   X1098 = 194: 4 (0.0)
|   X1098 = 195: 4 (0.0)
|   X1098 = 196: 4 (0.0)
|   X1098 = 197: 4 (0.0)
|   X1098 = 198: 4 (0.0)
|   X1098 = 199: 4 (0.0)
|   X1098 = 200: 4 (0.0)
|   X1098 = 201: 4 (0.0)
|   X1098 = 202: 4 (0.0)
|   X1098 = 203: 4 (0.0)
|   X1098 = 204: 4 (0.0)
|   X1098 = 205: 4 (0.0)
|   X1098 = 206: 4 (0.0)
|   X1098 = 207: 4 (0.0)
|   X1098 = 208: 4 (0.0)
|   X1098 = 209: 4 (0.0)
|   X1098 = 210: 4 (0.0)
|   X1098 = 211: 4 (0.0)
|   X1098 = 212: 4 (0.0)
|   X1098 = 213: 4 (0.0)
|   X1098 = 214: 4 (0.0)
|   X1098 = 215: 4 (0.0)
|   X1098 = 216: 4 (0.0)
|   X1098 = 217: 4 (0.0)
|   X1098 = 218: 4 (0.0)
|   X1098 = 219: 4 (0.0)
|   X1098 = 220: 4 (0.0)
|   X1098 = 221: 4 (0.0)
|   X1098 = 222: 4 (0.0)
|   X1098 = 223: 4 (0.0)
|   X1098 = 224: 4 (0.0)
|   X1098 = 225: 4 (0.0)
|   X1098 = 226: 4 (0.0)
|   X1098 = 227: 4 (0.0)
|   X1098 = 228: 4 (0.0)
|   X1098 = 229: 4 (0.0)
|   X1098 = 230: 4 (0.0)
|   X1098 = 231: 4 (0.0)
|   X1098 = 232: 4 (0.0)
|   X1098 = 233: 4 (0.0)
|   X1098 = 234: 4 (0.0)
|   X1098 = 235: 4 (0.0)
|   X1098 = 236: 4 (0.0)
|   X1098 = 237: 4 (0.0)
|   X1098 = 238: 4 (0.0)
|   X1098 = 239: 4 (0.0)
|   X1098 = 240: 4 (0.0)
|   X1098 = 241: 4 (0.0)
|   X1098 = 242: 4 (0.0)
|   X1098 = 243: 4 (0.0)
|   X1098 = 244: 4 (0.0)
|   X1098 = 245: 4 (0.0)
|   X1098 = 246: 4 (0.0)
|   X1098 = 247: 4 (0.0)
|   X1098 = 248: 4 (0.0)
|   X1098 = 249: 4 (0.0)
|   X1098 = 250: 4 (0.0)
|   X1098 = 251: 4 (0.0)
|   X1098 = 252: 4 (0.0)
|   X1098 = 253: 4 (0.0)
|   X1098 = 254: 4 (0.0)
|   X1098 = 255: 4 (0.0)
X1264 = 16
|   X1900 = 4: 3 (0.0)
|   X1900 = 5: 4 (1.0)
|   X1900 = 6: 4 (5.0)
|   X1900 = 7: 3 (0.0)
|   X1900 = 8: 3 (0.0)
|   X1900 = 9: 3 (7.0)
|   X1900 = 10: 3 (2.0/1.0)
|   X1900 = 11: 3 (2.0)
|   X1900 = 12: 3 (3.0)
|   X1900 = 13: 3 (2.0)
|   X1900 = 14: 3 (1.0)
|   X1900 = 15: 3 (1.0)
|   X1900 = 16: 6 (2.0)
|   X1900 = 17: 6 (2.0)
|   X1900 = 18
|   |   X375 = 5: 8 (0.0)
|   |   X375 = 6: 8 (0.0)
|   |   X375 = 7: 8 (0.0)
|   |   X375 = 8: 8 (0.0)
|   |   X375 = 9: 8 (0.0)
|   |   X375 = 10: 8 (0.0)
|   |   X375 = 11: 8 (0.0)
|   |   X375 = 12: 8 (0.0)
|   |   X375 = 13: 8 (1.0)
|   |   X375 = 14: 8 (0.0)
|   |   X375 = 15: 8 (0.0)
|   |   X375 = 16: 8 (0.0)
|   |   X375 = 17: 8 (0.0)
|   |   X375 = 18: 6 (2.0)
|   |   X375 = 19: 8 (0.0)
|   |   X375 = 20: 8 (0.0)
|   |   X375 = 21: 8 (0.0)
|   |   X375 = 22: 8 (0.0)
|   |   X375 = 23: 8 (0.0)
|   |   X375 = 24: 8 (5.0)
|   |   X375 = 25: 6 (1.0)
|   |   X375 = 26: 8 (0.0)
|   |   X375 = 27: 8 (0.0)
|   |   X375 = 28: 8 (0.0)
|   |   X375 = 29: 8 (0.0)
|   |   X375 = 30: 8 (0.0)
|   |   X375 = 31: 8 (0.0)
|   |   X375 = 32: 8 (0.0)
|   |   X375 = 33: 8 (0.0)
|   |   X375 = 34: 8 (0.0)
|   |   X375 = 35: 8 (0.0)
|   |   X375 = 36: 8 (0.0)
|   |   X375 = 37: 8 (0.0)
|   |   X375 = 38: 8 (0.0)
|   |   X375 = 39: 8 (0.0)
|   |   X375 = 40: 8 (0.0)
|   |   X375 = 41: 8 (0.0)
|   |   X375 = 42: 8 (0.0)
|   |   X375 = 43: 8 (0.0)
|   |   X375 = 44: 8 (0.0)
|   |   X375 = 45: 8 (0.0)
|   |   X375 = 46: 8 (0.0)
|   |   X375 = 47: 8 (0.0)
|   |   X375 = 48: 8 (0.0)
|   |   X375 = 49: 8 (0.0)
|   |   X375 = 50: 8 (0.0)
|   |   X375 = 51: 8 (0.0)
|   |   X375 = 52: 8 (0.0)
|   |   X375 = 53: 8 (0.0)
|   |   X375 = 54: 8 (0.0)
|   |   X375 = 55: 8 (0.0)
|   |   X375 = 56: 8 (0.0)
|   |   X375 = 57: 8 (0.0)
|   |   X375 = 58: 8 (0.0)
|   |   X375 = 59: 8 (0.0)
|   |   X375 = 60: 8 (0.0)
|   |   X375 = 61: 8 (0.0)
|   |   X375 = 62: 8 (0.0)
|   |   X375 = 63: 8 (0.0)
|   |   X375 = 64: 8 (0.0)
|   |   X375 = 65: 8 (0.0)
|   |   X375 = 66: 8 (0.0)
|   |   X375 = 67: 8 (0.0)
|   |   X375 = 68: 8 (0.0)
|   |   X375 = 69: 8 (0.0)
|   |   X375 = 70: 8 (0.0)
|   |   X375 = 71: 8 (0.0)
|   |   X375 = 72: 8 (0.0)
|   |   X375 = 73: 8 (0.0)
|   |   X375 = 74: 8 (0.0)
|   |   X375 = 75: 8 (0.0)
|   |   X375 = 76: 8 (0.0)
|   |   X375 = 77: 8 (0.0)
|   |   X375 = 78: 8 (0.0)
|   |   X375 = 79: 8 (0.0)
|   |   X375 = 80: 8 (0.0)
|   |   X375 = 81: 8 (0.0)
|   |   X375 = 82: 8 (0.0)
|   |   X375 = 83: 8 (0.0)
|   |   X375 = 84: 8 (0.0)
|   |   X375 = 85: 8 (0.0)
|   |   X375 = 86: 8 (0.0)
|   |   X375 = 87: 8 (0.0)
|   |   X375 = 88: 8 (0.0)
|   |   X375 = 89: 8 (0.0)
|   |   X375 = 90: 8 (0.0)
|   |   X375 = 91: 8 (0.0)
|   |   X375 = 92: 8 (0.0)
|   |   X375 = 93: 8 (0.0)
|   |   X375 = 94: 8 (0.0)
|   |   X375 = 95: 8 (0.0)
|   |   X375 = 96: 8 (0.0)
|   |   X375 = 97: 8 (0.0)
|   |   X375 = 98: 8 (0.0)
|   |   X375 = 99: 8 (0.0)
|   |   X375 = 100: 8 (0.0)
|   |   X375 = 101: 8 (0.0)
|   |   X375 = 102: 8 (0.0)
|   |   X375 = 103: 8 (0.0)
|   |   X375 = 104: 8 (0.0)
|   |   X375 = 105: 8 (0.0)
|   |   X375 = 106: 8 (0.0)
|   |   X375 = 107: 8 (0.0)
|   |   X375 = 108: 8 (0.0)
|   |   X375 = 109: 8 (0.0)
|   |   X375 = 110: 8 (0.0)
|   |   X375 = 111: 8 (0.0)
|   |   X375 = 112: 8 (0.0)
|   |   X375 = 113: 8 (0.0)
|   |   X375 = 114: 8 (0.0)
|   |   X375 = 115: 8 (0.0)
|   |   X375 = 116: 8 (0.0)
|   |   X375 = 117: 8 (0.0)
|   |   X375 = 118: 8 (0.0)
|   |   X375 = 119: 8 (0.0)
|   |   X375 = 120: 8 (0.0)
|   |   X375 = 121: 8 (0.0)
|   |   X375 = 122: 8 (0.0)
|   |   X375 = 123: 8 (0.0)
|   |   X375 = 124: 8 (0.0)
|   |   X375 = 125: 8 (0.0)
|   |   X375 = 126: 8 (0.0)
|   |   X375 = 127: 8 (0.0)
|   |   X375 = 128: 8 (0.0)
|   |   X375 = 129: 8 (0.0)
|   |   X375 = 130: 8 (0.0)
|   |   X375 = 131: 8 (0.0)
|   |   X375 = 132: 8 (0.0)
|   |   X375 = 133: 8 (0.0)
|   |   X375 = 134: 8 (0.0)
|   |   X375 = 135: 8 (0.0)
|   |   X375 = 136: 8 (0.0)
|   |   X375 = 137: 8 (0.0)
|   |   X375 = 138: 8 (0.0)
|   |   X375 = 139: 8 (0.0)
|   |   X375 = 140: 8 (0.0)
|   |   X375 = 141: 8 (0.0)
|   |   X375 = 142: 8 (0.0)
|   |   X375 = 143: 8 (0.0)
|   |   X375 = 144: 8 (0.0)
|   |   X375 = 145: 8 (0.0)
|   |   X375 = 146: 8 (0.0)
|   |   X375 = 147: 8 (0.0)
|   |   X375 = 148: 8 (0.0)
|   |   X375 = 149: 8 (0.0)
|   |   X375 = 150: 8 (0.0)
|   |   X375 = 151: 8 (0.0)
|   |   X375 = 152: 8 (0.0)
|   |   X375 = 153: 8 (0.0)
|   |   X375 = 154: 8 (0.0)
|   |   X375 = 155: 8 (0.0)
|   |   X375 = 156: 8 (0.0)
|   |   X375 = 157: 8 (0.0)
|   |   X375 = 158: 8 (0.0)
|   |   X375 = 159: 8 (0.0)
|   |   X375 = 160: 8 (0.0)
|   |   X375 = 161: 8 (0.0)
|   |   X375 = 162: 8 (0.0)
|   |   X375 = 163: 8 (0.0)
|   |   X375 = 164: 8 (0.0)
|   |   X375 = 165: 8 (0.0)
|   |   X375 = 166: 8 (0.0)
|   |   X375 = 167: 8 (0.0)
|   |   X375 = 168: 8 (0.0)
|   |   X375 = 169: 8 (0.0)
|   |   X375 = 170: 8 (0.0)
|   |   X375 = 171: 8 (0.0)
|   |   X375 = 172: 8 (0.0)
|   |   X375 = 173: 8 (0.0)
|   |   X375 = 174: 8 (0.0)
|   |   X375 = 175: 8 (0.0)
|   |   X375 = 176: 8 (0.0)
|   |   X375 = 177: 8 (0.0)
|   |   X375 = 178: 8 (0.0)
|   |   X375 = 179: 8 (0.0)
|   |   X375 = 180: 8 (0.0)
|   |   X375 = 181: 8 (0.0)
|   |   X375 = 182: 8 (0.0)
|   |   X375 = 183: 8 (0.0)
|   |   X375 = 184: 8 (0.0)
|   |   X375 = 185: 8 (0.0)
|   |   X375 = 186: 8 (0.0)
|   |   X375 = 187: 8 (0.0)
|   |   X375 = 188: 8 (0.0)
|   |   X375 = 189: 8 (0.0)
|   |   X375 = 190: 8 (0.0)
|   |   X375 = 191: 8 (0.0)
|   |   X375 = 192: 8 (0.0)
|   |   X375 = 193: 8 (0.0)
|   |   X375 = 194: 8 (0.0)
|   |   X375 = 195: 8 (0.0)
|   |   X375 = 196: 8 (0.0)
|   |   X375 = 197: 8 (0.0)
|   |   X375 = 198: 8 (0.0)
|   |   X375 = 199: 8 (0.0)
|   |   X375 = 200: 8 (0.0)
|   |   X375 = 201: 8 (0.0)
|   |   X375 = 202: 8 (0.0)
|   |   X375 = 203: 8 (0.0)
|   |   X375 = 204: 8 (0.0)
|   |   X375 = 205: 8 (0.0)
|   |   X375 = 206: 8 (0.0)
|   |   X375 = 207: 8 (0.0)
|   |   X375 = 208: 8 (0.0)
|   |   X375 = 209: 8 (0.0)
|   |   X375 = 210: 8 (0.0)
|   |   X375 = 211: 8 (0.0)
|   |   X375 = 212: 8 (0.0)
|   |   X375 = 213: 8 (0.0)
|   |   X375 = 214: 8 (0.0)
|   |   X375 = 215: 8 (0.0)
|   |   X375 = 216: 8 (0.0)
|   |   X375 = 217: 8 (0.0)
|   |   X375 = 218: 8 (0.0)
|   |   X375 = 219: 8 (0.0)
|   |   X375 = 220: 8 (0.0)
|   |   X375 = 221: 8 (0.0)
|   |   X375 = 222: 8 (0.0)
|   |   X375 = 223: 8 (0.0)
|   |   X375 = 224: 8 (0.0)
|   |   X375 = 225: 8 (0.0)
|   |   X375 = 226: 8 (0.0)
|   |   X375 = 227: 8 (0.0)
|   |   X375 = 228: 8 (0.0)
|   |   X375 = 229: 8 (0.0)
|   |   X375 = 230: 8 (0.0)
|   |   X375 = 231: 8 (0.0)
|   |   X375 = 232: 8 (0.0)
|   |   X375 = 233: 8 (0.0)
|   |   X375 = 234: 8 (0.0)
|   |   X375 = 235: 8 (0.0)
|   |   X375 = 236: 8 (0.0)
|   |   X375 = 237: 8 (0.0)
|   |   X375 = 238: 8 (0.0)
|   |   X375 = 239: 8 (0.0)
|   |   X375 = 240: 8 (0.0)
|   |   X375 = 241: 8 (0.0)
|   |   X375 = 242: 8 (0.0)
|   |   X375 = 243: 8 (0.0)
|   |   X375 = 244: 8 (0.0)
|   |   X375 = 245: 8 (0.0)
|   |   X375 = 246: 8 (0.0)
|   |   X375 = 247: 8 (0.0)
|   |   X375 = 248: 8 (0.0)
|   |   X375 = 249: 8 (0.0)
|   |   X375 = 250: 8 (0.0)
|   |   X375 = 251: 8 (0.0)
|   |   X375 = 252: 8 (0.0)
|   |   X375 = 253: 8 (0.0)
|   |   X375 = 254: 8 (0.0)
|   |   X375 = 255: 8 (0.0)
|   X1900 = 19: 3 (0.0)
|   X1900 = 20: 4 (1.0)
|   X1900 = 21: 3 (0.0)
|   X1900 = 22: 3 (0.0)
|   X1900 = 23: 3 (0.0)
|   X1900 = 24: 3 (0.0)
|   X1900 = 25: 3 (0.0)
|   X1900 = 26: 3 (0.0)
|   X1900 = 27: 3 (0.0)
|   X1900 = 28: 3 (0.0)
|   X1900 = 29: 3 (0.0)
|   X1900 = 30: 6 (1.0)
|   X1900 = 31: 3 (0.0)
|   X1900 = 32: 3 (0.0)
|   X1900 = 33: 3 (0.0)
|   X1900 = 34: 6 (1.0)
|   X1900 = 35: 6 (1.0)
|   X1900 = 36: 3 (0.0)
|   X1900 = 37: 6 (1.0)
|   X1900 = 38: 3 (0.0)
|   X1900 = 39: 3 (0.0)
|   X1900 = 40: 3 (0.0)
|   X1900 = 41: 3 (0.0)
|   X1900 = 42: 3 (0.0)
|   X1900 = 43: 3 (0.0)
|   X1900 = 44: 3 (0.0)
|   X1900 = 45: 3 (0.0)
|   X1900 = 46: 3 (0.0)
|   X1900 = 47: 3 (0.0)
|   X1900 = 48: 3 (0.0)
|   X1900 = 49: 3 (0.0)
|   X1900 = 50: 3 (0.0)
|   X1900 = 51: 3 (0.0)
|   X1900 = 52: 3 (0.0)
|   X1900 = 53: 3 (0.0)
|   X1900 = 54: 3 (0.0)
|   X1900 = 55: 3 (0.0)
|   X1900 = 56: 3 (0.0)
|   X1900 = 57: 3 (0.0)
|   X1900 = 58: 3 (0.0)
|   X1900 = 59: 3 (0.0)
|   X1900 = 60: 3 (0.0)
|   X1900 = 61: 3 (0.0)
|   X1900 = 62: 3 (0.0)
|   X1900 = 63: 3 (0.0)
|   X1900 = 64: 3 (0.0)
|   X1900 = 65: 3 (0.0)
|   X1900 = 66: 3 (0.0)
|   X1900 = 67: 3 (0.0)
|   X1900 = 68: 3 (0.0)
|   X1900 = 69: 3 (0.0)
|   X1900 = 70: 3 (0.0)
|   X1900 = 71: 3 (0.0)
|   X1900 = 72: 3 (0.0)
|   X1900 = 73: 3 (0.0)
|   X1900 = 74: 3 (0.0)
|   X1900 = 75: 3 (0.0)
|   X1900 = 76: 3 (0.0)
|   X1900 = 77: 3 (0.0)
|   X1900 = 78: 3 (0.0)
|   X1900 = 79: 3 (0.0)
|   X1900 = 80: 3 (0.0)
|   X1900 = 81: 3 (0.0)
|   X1900 = 82: 3 (0.0)
|   X1900 = 83: 3 (0.0)
|   X1900 = 84: 3 (0.0)
|   X1900 = 85: 3 (0.0)
|   X1900 = 86: 3 (0.0)
|   X1900 = 87: 3 (0.0)
|   X1900 = 88: 3 (0.0)
|   X1900 = 89: 3 (0.0)
|   X1900 = 90: 3 (0.0)
|   X1900 = 91: 3 (0.0)
|   X1900 = 92: 3 (0.0)
|   X1900 = 93: 3 (0.0)
|   X1900 = 94: 3 (0.0)
|   X1900 = 95: 3 (0.0)
|   X1900 = 96: 3 (0.0)
|   X1900 = 97: 3 (0.0)
|   X1900 = 98: 3 (0.0)
|   X1900 = 99: 3 (0.0)
|   X1900 = 100: 3 (0.0)
|   X1900 = 101: 3 (0.0)
|   X1900 = 102: 3 (0.0)
|   X1900 = 103: 3 (0.0)
|   X1900 = 104: 3 (0.0)
|   X1900 = 105: 3 (0.0)
|   X1900 = 106: 3 (0.0)
|   X1900 = 107: 3 (0.0)
|   X1900 = 108: 3 (0.0)
|   X1900 = 109: 3 (0.0)
|   X1900 = 110: 3 (0.0)
|   X1900 = 111: 3 (0.0)
|   X1900 = 112: 3 (0.0)
|   X1900 = 113: 3 (0.0)
|   X1900 = 114: 3 (0.0)
|   X1900 = 115: 3 (0.0)
|   X1900 = 116: 3 (0.0)
|   X1900 = 117: 3 (0.0)
|   X1900 = 118: 3 (0.0)
|   X1900 = 119: 3 (0.0)
|   X1900 = 120: 3 (0.0)
|   X1900 = 121: 3 (0.0)
|   X1900 = 122: 3 (0.0)
|   X1900 = 123: 3 (0.0)
|   X1900 = 124: 3 (0.0)
|   X1900 = 125: 3 (0.0)
|   X1900 = 126: 3 (0.0)
|   X1900 = 127: 3 (0.0)
|   X1900 = 128: 3 (0.0)
|   X1900 = 129: 3 (0.0)
|   X1900 = 130: 3 (0.0)
|   X1900 = 131: 3 (0.0)
|   X1900 = 132: 3 (0.0)
|   X1900 = 133: 3 (0.0)
|   X1900 = 134: 3 (0.0)
|   X1900 = 135: 3 (0.0)
|   X1900 = 136: 3 (0.0)
|   X1900 = 137: 3 (0.0)
|   X1900 = 138: 3 (0.0)
|   X1900 = 139: 3 (0.0)
|   X1900 = 140: 3 (0.0)
|   X1900 = 141: 3 (0.0)
|   X1900 = 142: 3 (0.0)
|   X1900 = 143: 3 (0.0)
|   X1900 = 144: 3 (0.0)
|   X1900 = 145: 3 (0.0)
|   X1900 = 146: 3 (0.0)
|   X1900 = 147: 3 (0.0)
|   X1900 = 148: 3 (0.0)
|   X1900 = 149: 3 (0.0)
|   X1900 = 150: 3 (0.0)
|   X1900 = 151: 3 (0.0)
|   X1900 = 152: 3 (0.0)
|   X1900 = 153: 3 (0.0)
|   X1900 = 154: 3 (0.0)
|   X1900 = 155: 3 (0.0)
|   X1900 = 156: 3 (0.0)
|   X1900 = 157: 3 (0.0)
|   X1900 = 158: 3 (0.0)
|   X1900 = 159: 3 (0.0)
|   X1900 = 160: 3 (0.0)
|   X1900 = 161: 3 (0.0)
|   X1900 = 162: 3 (0.0)
|   X1900 = 163: 3 (0.0)
|   X1900 = 164: 3 (0.0)
|   X1900 = 165: 3 (0.0)
|   X1900 = 166: 3 (0.0)
|   X1900 = 167: 3 (0.0)
|   X1900 = 168: 3 (0.0)
|   X1900 = 169: 3 (0.0)
|   X1900 = 170: 3 (0.0)
|   X1900 = 171: 3 (0.0)
|   X1900 = 172: 3 (0.0)
|   X1900 = 173: 3 (0.0)
|   X1900 = 174: 3 (0.0)
|   X1900 = 175: 3 (0.0)
|   X1900 = 176: 3 (0.0)
|   X1900 = 177: 3 (0.0)
|   X1900 = 178: 3 (0.0)
|   X1900 = 179: 3 (0.0)
|   X1900 = 180: 3 (0.0)
|   X1900 = 181: 3 (0.0)
|   X1900 = 182: 3 (0.0)
|   X1900 = 183: 3 (0.0)
|   X1900 = 184: 3 (0.0)
|   X1900 = 186: 3 (0.0)
|   X1900 = 187: 3 (0.0)
|   X1900 = 188: 3 (0.0)
|   X1900 = 189: 3 (0.0)
|   X1900 = 190: 3 (0.0)
|   X1900 = 191: 3 (0.0)
|   X1900 = 193: 3 (0.0)
|   X1900 = 195: 3 (0.0)
|   X1900 = 196: 3 (0.0)
|   X1900 = 197: 3 (0.0)
|   X1900 = 198: 3 (0.0)
|   X1900 = 199: 3 (0.0)
|   X1900 = 200: 3 (0.0)
|   X1900 = 201: 3 (0.0)
|   X1900 = 202: 3 (0.0)
|   X1900 = 203: 3 (0.0)
|   X1900 = 204: 3 (0.0)
|   X1900 = 205: 3 (0.0)
|   X1900 = 206: 3 (0.0)
|   X1900 = 207: 3 (0.0)
|   X1900 = 208: 3 (0.0)
|   X1900 = 209: 3 (0.0)
|   X1900 = 210: 3 (0.0)
|   X1900 = 211: 3 (0.0)
|   X1900 = 212: 3 (0.0)
|   X1900 = 213: 3 (0.0)
|   X1900 = 214: 3 (0.0)
|   X1900 = 215: 3 (0.0)
|   X1900 = 216: 3 (0.0)
|   X1900 = 217: 3 (0.0)
|   X1900 = 218: 3 (0.0)
|   X1900 = 219: 3 (0.0)
|   X1900 = 220: 3 (0.0)
|   X1900 = 221: 3 (0.0)
|   X1900 = 222: 3 (0.0)
|   X1900 = 223: 3 (0.0)
|   X1900 = 224: 3 (0.0)
|   X1900 = 225: 3 (0.0)
|   X1900 = 226: 3 (0.0)
|   X1900 = 227: 3 (0.0)
|   X1900 = 229: 3 (0.0)
|   X1900 = 230: 3 (0.0)
|   X1900 = 231: 3 (0.0)
|   X1900 = 232: 3 (0.0)
|   X1900 = 234: 3 (0.0)
|   X1900 = 235: 3 (0.0)
|   X1900 = 236: 3 (0.0)
|   X1900 = 237: 3 (0.0)
|   X1900 = 238: 3 (0.0)
|   X1900 = 239: 3 (0.0)
|   X1900 = 240: 3 (0.0)
|   X1900 = 241: 3 (0.0)
|   X1900 = 242: 3 (0.0)
|   X1900 = 243: 3 (0.0)
|   X1900 = 244: 3 (0.0)
|   X1900 = 245: 3 (0.0)
|   X1900 = 246: 3 (0.0)
|   X1900 = 247: 3 (0.0)
|   X1900 = 248: 3 (0.0)
|   X1900 = 249: 3 (0.0)
|   X1900 = 250: 3 (0.0)
|   X1900 = 251: 3 (0.0)
|   X1900 = 252: 3 (0.0)
|   X1900 = 253: 3 (0.0)
|   X1900 = 254: 3 (0.0)
|   X1900 = 255: 3 (0.0)
X1264 = 17
|   X1913 = 4: 3 (0.0)
|   X1913 = 5: 3 (0.0)
|   X1913 = 6: 3 (0.0)
|   X1913 = 7: 4 (1.0)
|   X1913 = 8: 3 (0.0)
|   X1913 = 9: 4 (1.0)
|   X1913 = 10: 3 (0.0)
|   X1913 = 11: 3 (0.0)
|   X1913 = 12: 3 (1.0)
|   X1913 = 13: 6 (1.0)
|   X1913 = 14: 3 (0.0)
|   X1913 = 15: 3 (2.0)
|   X1913 = 16: 6 (1.0)
|   X1913 = 17: 6 (7.0)
|   X1913 = 18: 6 (1.0)
|   X1913 = 19: 3 (0.0)
|   X1913 = 20: 7 (1.0)
|   X1913 = 21: 3 (0.0)
|   X1913 = 22: 3 (0.0)
|   X1913 = 23: 3 (0.0)
|   X1913 = 24: 3 (0.0)
|   X1913 = 25: 3 (0.0)
|   X1913 = 26: 3 (0.0)
|   X1913 = 27: 3 (0.0)
|   X1913 = 28: 6 (1.0)
|   X1913 = 29: 3 (0.0)
|   X1913 = 30: 3 (1.0)
|   X1913 = 31: 3 (2.0)
|   X1913 = 32: 3 (0.0)
|   X1913 = 33: 3 (0.0)
|   X1913 = 34: 3 (0.0)
|   X1913 = 35: 3 (0.0)
|   X1913 = 36: 3 (0.0)
|   X1913 = 37: 3 (0.0)
|   X1913 = 38: 3 (0.0)
|   X1913 = 39: 3 (0.0)
|   X1913 = 40: 3 (0.0)
|   X1913 = 41: 3 (0.0)
|   X1913 = 42: 3 (0.0)
|   X1913 = 43: 3 (0.0)
|   X1913 = 44: 3 (0.0)
|   X1913 = 45: 3 (0.0)
|   X1913 = 46: 3 (0.0)
|   X1913 = 47: 3 (2.0)
|   X1913 = 48: 3 (0.0)
|   X1913 = 49: 3 (2.0)
|   X1913 = 50: 3 (0.0)
|   X1913 = 51: 3 (0.0)
|   X1913 = 52: 3 (0.0)
|   X1913 = 53: 3 (0.0)
|   X1913 = 54: 3 (0.0)
|   X1913 = 55: 3 (1.0)
|   X1913 = 56: 3 (1.0)
|   X1913 = 57: 3 (0.0)
|   X1913 = 58: 3 (0.0)
|   X1913 = 59: 3 (0.0)
|   X1913 = 60: 3 (0.0)
|   X1913 = 61: 3 (0.0)
|   X1913 = 62: 3 (0.0)
|   X1913 = 63: 3 (0.0)
|   X1913 = 64: 3 (0.0)
|   X1913 = 65: 3 (0.0)
|   X1913 = 66: 3 (0.0)
|   X1913 = 67: 3 (0.0)
|   X1913 = 68: 3 (0.0)
|   X1913 = 69: 3 (0.0)
|   X1913 = 70: 3 (0.0)
|   X1913 = 71: 3 (0.0)
|   X1913 = 72: 3 (0.0)
|   X1913 = 73: 3 (0.0)
|   X1913 = 74: 3 (0.0)
|   X1913 = 75: 3 (0.0)
|   X1913 = 76: 3 (0.0)
|   X1913 = 77: 3 (0.0)
|   X1913 = 78: 6 (1.0)
|   X1913 = 79: 3 (0.0)
|   X1913 = 80: 3 (0.0)
|   X1913 = 81: 3 (0.0)
|   X1913 = 82: 3 (0.0)
|   X1913 = 83: 3 (0.0)
|   X1913 = 84: 3 (0.0)
|   X1913 = 85: 3 (0.0)
|   X1913 = 86: 3 (1.0)
|   X1913 = 87: 3 (0.0)
|   X1913 = 88: 3 (0.0)
|   X1913 = 89: 3 (0.0)
|   X1913 = 90: 3 (0.0)
|   X1913 = 91: 3 (0.0)
|   X1913 = 92: 3 (0.0)
|   X1913 = 93: 3 (0.0)
|   X1913 = 94: 3 (0.0)
|   X1913 = 95: 3 (0.0)
|   X1913 = 96: 3 (0.0)
|   X1913 = 97: 3 (0.0)
|   X1913 = 98: 3 (0.0)
|   X1913 = 99: 3 (0.0)
|   X1913 = 100: 3 (0.0)
|   X1913 = 101: 3 (0.0)
|   X1913 = 102: 3 (0.0)
|   X1913 = 103: 3 (0.0)
|   X1913 = 104: 3 (0.0)
|   X1913 = 105: 3 (0.0)
|   X1913 = 106: 3 (0.0)
|   X1913 = 107: 3 (0.0)
|   X1913 = 108: 3 (0.0)
|   X1913 = 109: 3 (0.0)
|   X1913 = 110: 3 (0.0)
|   X1913 = 111: 3 (0.0)
|   X1913 = 112: 3 (0.0)
|   X1913 = 113: 3 (0.0)
|   X1913 = 114: 3 (0.0)
|   X1913 = 115: 3 (0.0)
|   X1913 = 116: 3 (0.0)
|   X1913 = 117: 3 (0.0)
|   X1913 = 118: 3 (0.0)
|   X1913 = 119: 3 (0.0)
|   X1913 = 120: 3 (0.0)
|   X1913 = 121: 3 (0.0)
|   X1913 = 122: 3 (0.0)
|   X1913 = 123: 3 (0.0)
|   X1913 = 124: 3 (0.0)
|   X1913 = 125: 3 (0.0)
|   X1913 = 126: 3 (0.0)
|   X1913 = 127: 3 (0.0)
|   X1913 = 128: 3 (0.0)
|   X1913 = 129: 3 (0.0)
|   X1913 = 130: 3 (0.0)
|   X1913 = 131: 3 (0.0)
|   X1913 = 132: 3 (0.0)
|   X1913 = 133: 3 (0.0)
|   X1913 = 134: 3 (0.0)
|   X1913 = 135: 3 (0.0)
|   X1913 = 136: 3 (0.0)
|   X1913 = 137: 3 (0.0)
|   X1913 = 138: 3 (0.0)
|   X1913 = 139: 3 (0.0)
|   X1913 = 140: 3 (0.0)
|   X1913 = 141: 3 (0.0)
|   X1913 = 142: 3 (0.0)
|   X1913 = 143: 3 (0.0)
|   X1913 = 144: 3 (0.0)
|   X1913 = 145: 3 (0.0)
|   X1913 = 146: 3 (0.0)
|   X1913 = 147: 3 (0.0)
|   X1913 = 148: 3 (0.0)
|   X1913 = 149: 3 (0.0)
|   X1913 = 150: 3 (0.0)
|   X1913 = 151: 3 (0.0)
|   X1913 = 152: 3 (0.0)
|   X1913 = 153: 3 (0.0)
|   X1913 = 154: 3 (0.0)
|   X1913 = 155: 3 (0.0)
|   X1913 = 156: 3 (0.0)
|   X1913 = 157: 3 (0.0)
|   X1913 = 158: 3 (0.0)
|   X1913 = 159: 3 (0.0)
|   X1913 = 160: 3 (0.0)
|   X1913 = 161: 3 (0.0)
|   X1913 = 162: 3 (0.0)
|   X1913 = 163: 3 (0.0)
|   X1913 = 164: 3 (0.0)
|   X1913 = 165: 3 (0.0)
|   X1913 = 166: 3 (0.0)
|   X1913 = 167: 3 (0.0)
|   X1913 = 168: 3 (0.0)
|   X1913 = 169: 3 (0.0)
|   X1913 = 170: 3 (0.0)
|   X1913 = 171: 3 (0.0)
|   X1913 = 172: 3 (0.0)
|   X1913 = 173: 3 (0.0)
|   X1913 = 174: 3 (0.0)
|   X1913 = 175: 3 (0.0)
|   X1913 = 176: 3 (0.0)
|   X1913 = 177: 3 (0.0)
|   X1913 = 178: 3 (0.0)
|   X1913 = 179: 3 (0.0)
|   X1913 = 180: 3 (0.0)
|   X1913 = 181: 3 (0.0)
|   X1913 = 182: 3 (0.0)
|   X1913 = 183: 3 (0.0)
|   X1913 = 184: 3 (0.0)
|   X1913 = 185: 3 (0.0)
|   X1913 = 186: 3 (0.0)
|   X1913 = 187: 3 (0.0)
|   X1913 = 188: 3 (0.0)
|   X1913 = 189: 3 (0.0)
|   X1913 = 190: 3 (0.0)
|   X1913 = 191: 3 (0.0)
|   X1913 = 192: 3 (0.0)
|   X1913 = 193: 3 (0.0)
|   X1913 = 194: 3 (0.0)
|   X1913 = 195: 3 (1.0)
|   X1913 = 196: 3 (0.0)
|   X1913 = 197: 3 (0.0)
|   X1913 = 198: 3 (0.0)
|   X1913 = 199: 3 (0.0)
|   X1913 = 200: 3 (0.0)
|   X1913 = 201: 3 (0.0)
|   X1913 = 202: 3 (0.0)
|   X1913 = 203: 3 (0.0)
|   X1913 = 204: 3 (0.0)
|   X1913 = 205: 3 (0.0)
|   X1913 = 206: 3 (0.0)
|   X1913 = 207: 3 (0.0)
|   X1913 = 208: 3 (0.0)
|   X1913 = 209: 3 (0.0)
|   X1913 = 210: 3 (0.0)
|   X1913 = 211: 3 (0.0)
|   X1913 = 212: 3 (0.0)
|   X1913 = 213: 3 (0.0)
|   X1913 = 214: 3 (0.0)
|   X1913 = 215: 3 (0.0)
|   X1913 = 216: 3 (0.0)
|   X1913 = 217: 3 (0.0)
|   X1913 = 218: 3 (0.0)
|   X1913 = 219: 3 (0.0)
|   X1913 = 220: 3 (0.0)
|   X1913 = 221: 3 (0.0)
|   X1913 = 222: 3 (0.0)
|   X1913 = 223: 3 (0.0)
|   X1913 = 224: 3 (0.0)
|   X1913 = 225: 3 (0.0)
|   X1913 = 226: 3 (0.0)
|   X1913 = 227: 3 (0.0)
|   X1913 = 228: 3 (0.0)
|   X1913 = 229: 3 (0.0)
|   X1913 = 230: 3 (0.0)
|   X1913 = 231: 3 (0.0)
|   X1913 = 232: 3 (0.0)
|   X1913 = 233: 3 (0.0)
|   X1913 = 234: 3 (0.0)
|   X1913 = 235: 3 (0.0)
|   X1913 = 236: 3 (0.0)
|   X1913 = 237: 3 (0.0)
|   X1913 = 238: 3 (0.0)
|   X1913 = 239: 3 (0.0)
|   X1913 = 240: 3 (0.0)
|   X1913 = 241: 3 (0.0)
|   X1913 = 242: 3 (0.0)
|   X1913 = 243: 3 (0.0)
|   X1913 = 244: 3 (0.0)
|   X1913 = 245: 3 (0.0)
|   X1913 = 246: 3 (0.0)
|   X1913 = 247: 3 (0.0)
|   X1913 = 248: 3 (0.0)
|   X1913 = 249: 3 (0.0)
|   X1913 = 250: 3 (0.0)
|   X1913 = 251: 3 (0.0)
|   X1913 = 252: 3 (0.0)
|   X1913 = 253: 3 (0.0)
|   X1913 = 254: 3 (0.0)
|   X1913 = 255: 3 (0.0)
X1264 = 18
|   X580 = 5: 3 (0.0)
|   X580 = 6: 3 (0.0)
|   X580 = 7: 3 (0.0)
|   X580 = 8: 4 (2.0)
|   X580 = 9: 4 (1.0)
|   X580 = 10: 3 (0.0)
|   X580 = 11: 3 (0.0)
|   X580 = 12: 6 (2.0)
|   X580 = 13: 3 (0.0)
|   X580 = 14: 6 (4.0)
|   X580 = 15: 6 (2.0)
|   X580 = 16: 6 (6.0)
|   X580 = 17: 3 (1.0)
|   X580 = 18: 3 (1.0)
|   X580 = 19: 3 (0.0)
|   X580 = 20: 3 (0.0)
|   X580 = 21: 3 (1.0)
|   X580 = 22: 3 (0.0)
|   X580 = 23: 8 (1.0)
|   X580 = 24: 3 (0.0)
|   X580 = 25: 3 (1.0)
|   X580 = 26: 3 (1.0)
|   X580 = 27: 3 (0.0)
|   X580 = 28: 3 (0.0)
|   X580 = 29: 3 (0.0)
|   X580 = 30: 3 (0.0)
|   X580 = 31: 3 (0.0)
|   X580 = 32: 3 (0.0)
|   X580 = 33: 3 (0.0)
|   X580 = 34: 3 (1.0)
|   X580 = 35: 3 (2.0)
|   X580 = 36: 3 (0.0)
|   X580 = 37: 3 (0.0)
|   X580 = 38: 3 (0.0)
|   X580 = 39: 3 (0.0)
|   X580 = 40: 3 (0.0)
|   X580 = 41: 3 (0.0)
|   X580 = 42: 3 (2.0)
|   X580 = 43: 3 (0.0)
|   X580 = 44: 3 (0.0)
|   X580 = 45: 3 (0.0)
|   X580 = 46: 3 (0.0)
|   X580 = 47: 3 (1.0)
|   X580 = 48: 3 (1.0)
|   X580 = 49: 3 (0.0)
|   X580 = 50: 3 (0.0)
|   X580 = 51: 3 (0.0)
|   X580 = 52: 3 (0.0)
|   X580 = 53: 3 (0.0)
|   X580 = 54: 3 (0.0)
|   X580 = 55: 3 (0.0)
|   X580 = 56: 3 (0.0)
|   X580 = 57: 3 (0.0)
|   X580 = 58: 3 (0.0)
|   X580 = 59: 3 (0.0)
|   X580 = 60: 3 (0.0)
|   X580 = 61: 3 (0.0)
|   X580 = 62: 3 (0.0)
|   X580 = 63: 3 (0.0)
|   X580 = 64: 3 (0.0)
|   X580 = 65: 3 (0.0)
|   X580 = 66: 3 (0.0)
|   X580 = 67: 3 (0.0)
|   X580 = 68: 3 (0.0)
|   X580 = 69: 3 (0.0)
|   X580 = 70: 3 (0.0)
|   X580 = 71: 3 (0.0)
|   X580 = 72: 3 (0.0)
|   X580 = 73: 3 (0.0)
|   X580 = 74: 3 (0.0)
|   X580 = 75: 3 (0.0)
|   X580 = 76: 3 (0.0)
|   X580 = 77: 3 (0.0)
|   X580 = 78: 3 (0.0)
|   X580 = 79: 3 (0.0)
|   X580 = 80: 3 (0.0)
|   X580 = 81: 3 (0.0)
|   X580 = 82: 3 (0.0)
|   X580 = 83: 7 (2.0)
|   X580 = 84: 3 (1.0)
|   X580 = 85: 3 (0.0)
|   X580 = 86: 3 (0.0)
|   X580 = 87: 3 (0.0)
|   X580 = 88: 3 (0.0)
|   X580 = 89: 3 (0.0)
|   X580 = 90: 3 (0.0)
|   X580 = 91: 3 (0.0)
|   X580 = 92: 3 (0.0)
|   X580 = 93: 3 (0.0)
|   X580 = 94: 3 (0.0)
|   X580 = 95: 3 (1.0)
|   X580 = 96: 3 (0.0)
|   X580 = 97: 3 (0.0)
|   X580 = 98: 3 (0.0)
|   X580 = 99: 3 (0.0)
|   X580 = 100: 3 (0.0)
|   X580 = 101: 3 (0.0)
|   X580 = 102: 3 (0.0)
|   X580 = 103: 3 (0.0)
|   X580 = 104: 3 (0.0)
|   X580 = 105: 3 (0.0)
|   X580 = 106: 3 (0.0)
|   X580 = 107: 3 (0.0)
|   X580 = 108: 3 (0.0)
|   X580 = 109: 3 (0.0)
|   X580 = 110: 3 (0.0)
|   X580 = 111: 3 (0.0)
|   X580 = 112: 3 (0.0)
|   X580 = 113: 3 (0.0)
|   X580 = 114: 3 (0.0)
|   X580 = 115: 3 (0.0)
|   X580 = 116: 3 (0.0)
|   X580 = 117: 3 (0.0)
|   X580 = 118: 3 (0.0)
|   X580 = 119: 3 (0.0)
|   X580 = 120: 3 (0.0)
|   X580 = 121: 3 (0.0)
|   X580 = 122: 3 (0.0)
|   X580 = 123: 3 (1.0)
|   X580 = 124: 3 (0.0)
|   X580 = 125: 3 (0.0)
|   X580 = 126: 3 (0.0)
|   X580 = 127: 3 (0.0)
|   X580 = 128: 3 (0.0)
|   X580 = 129: 3 (0.0)
|   X580 = 130: 3 (0.0)
|   X580 = 131: 3 (0.0)
|   X580 = 132: 3 (0.0)
|   X580 = 133: 3 (0.0)
|   X580 = 134: 3 (0.0)
|   X580 = 135: 3 (0.0)
|   X580 = 136: 3 (0.0)
|   X580 = 137: 3 (0.0)
|   X580 = 138: 3 (0.0)
|   X580 = 139: 3 (0.0)
|   X580 = 140: 3 (0.0)
|   X580 = 141: 7 (1.0)
|   X580 = 142: 3 (0.0)
|   X580 = 143: 3 (0.0)
|   X580 = 144: 3 (0.0)
|   X580 = 145: 3 (0.0)
|   X580 = 146: 3 (0.0)
|   X580 = 147: 3 (0.0)
|   X580 = 148: 3 (0.0)
|   X580 = 149: 3 (0.0)
|   X580 = 150: 3 (0.0)
|   X580 = 151: 3 (0.0)
|   X580 = 152: 3 (0.0)
|   X580 = 153: 3 (0.0)
|   X580 = 154: 3 (0.0)
|   X580 = 155: 3 (0.0)
|   X580 = 156: 7 (1.0)
|   X580 = 157: 3 (0.0)
|   X580 = 158: 3 (0.0)
|   X580 = 159: 3 (0.0)
|   X580 = 160: 3 (0.0)
|   X580 = 161: 3 (0.0)
|   X580 = 162: 3 (0.0)
|   X580 = 163: 3 (0.0)
|   X580 = 164: 3 (0.0)
|   X580 = 165: 3 (0.0)
|   X580 = 166: 3 (0.0)
|   X580 = 167: 3 (0.0)
|   X580 = 168: 3 (0.0)
|   X580 = 169: 3 (0.0)
|   X580 = 170: 3 (0.0)
|   X580 = 171: 3 (0.0)
|   X580 = 172: 3 (0.0)
|   X580 = 173: 3 (0.0)
|   X580 = 174: 3 (0.0)
|   X580 = 175: 3 (0.0)
|   X580 = 176: 3 (0.0)
|   X580 = 177: 3 (0.0)
|   X580 = 178: 3 (0.0)
|   X580 = 179: 3 (0.0)
|   X580 = 180: 3 (0.0)
|   X580 = 181: 3 (0.0)
|   X580 = 182: 3 (0.0)
|   X580 = 183: 3 (0.0)
|   X580 = 184: 3 (0.0)
|   X580 = 185: 3 (0.0)
|   X580 = 186: 3 (0.0)
|   X580 = 187: 3 (0.0)
|   X580 = 188: 3 (0.0)
|   X580 = 189: 3 (0.0)
|   X580 = 190: 3 (0.0)
|   X580 = 191: 3 (0.0)
|   X580 = 192: 3 (0.0)
|   X580 = 193: 3 (0.0)
|   X580 = 194: 3 (0.0)
|   X580 = 195: 3 (0.0)
|   X580 = 196: 3 (0.0)
|   X580 = 197: 3 (0.0)
|   X580 = 198: 3 (0.0)
|   X580 = 199: 3 (0.0)
|   X580 = 200: 3 (0.0)
|   X580 = 201: 3 (0.0)
|   X580 = 202: 3 (0.0)
|   X580 = 203: 3 (0.0)
|   X580 = 204: 3 (0.0)
|   X580 = 205: 3 (0.0)
|   X580 = 206: 3 (0.0)
|   X580 = 207: 3 (0.0)
|   X580 = 208: 3 (0.0)
|   X580 = 209: 3 (0.0)
|   X580 = 210: 3 (0.0)
|   X580 = 211: 3 (0.0)
|   X580 = 212: 3 (0.0)
|   X580 = 213: 3 (0.0)
|   X580 = 214: 3 (0.0)
|   X580 = 215: 3 (0.0)
|   X580 = 216: 3 (0.0)
|   X580 = 217: 3 (0.0)
|   X580 = 218: 3 (0.0)
|   X580 = 219: 3 (1.0)
|   X580 = 220: 3 (0.0)
|   X580 = 221: 3 (0.0)
|   X580 = 222: 3 (0.0)
|   X580 = 223: 3 (0.0)
|   X580 = 224: 3 (0.0)
|   X580 = 225: 3 (0.0)
|   X580 = 226: 3 (0.0)
|   X580 = 227: 3 (0.0)
|   X580 = 228: 3 (0.0)
|   X580 = 229: 3 (0.0)
|   X580 = 230: 3 (0.0)
|   X580 = 231: 3 (0.0)
|   X580 = 232: 3 (0.0)
|   X580 = 233: 3 (0.0)
|   X580 = 234: 3 (0.0)
|   X580 = 235: 3 (0.0)
|   X580 = 236: 3 (0.0)
|   X580 = 237: 3 (0.0)
|   X580 = 238: 3 (0.0)
|   X580 = 239: 3 (0.0)
|   X580 = 240: 3 (0.0)
|   X580 = 241: 3 (0.0)
|   X580 = 242: 3 (0.0)
|   X580 = 243: 3 (0.0)
|   X580 = 244: 3 (0.0)
|   X580 = 245: 3 (0.0)
|   X580 = 246: 3 (0.0)
|   X580 = 247: 3 (0.0)
|   X580 = 248: 3 (0.0)
|   X580 = 249: 3 (0.0)
|   X580 = 250: 3 (0.0)
|   X580 = 251: 3 (0.0)
|   X580 = 252: 3 (0.0)
|   X580 = 253: 3 (0.0)
|   X580 = 254: 3 (0.0)
|   X580 = 255: 3 (4.0)
X1264 = 19
|   X1743 = 4: 3 (0.0)
|   X1743 = 5: 3 (0.0)
|   X1743 = 6: 4 (2.0)
|   X1743 = 7: 4 (3.0)
|   X1743 = 8: 4 (1.0)
|   X1743 = 9: 4 (2.0)
|   X1743 = 10: 4 (2.0)
|   X1743 = 11: 3 (5.0)
|   X1743 = 12: 3 (6.0/1.0)
|   X1743 = 13: 3 (2.0)
|   X1743 = 14: 3 (0.0)
|   X1743 = 15: 3 (3.0)
|   X1743 = 16: 6 (4.0/1.0)
|   X1743 = 17: 2 (1.0)
|   X1743 = 18: 3 (3.0)
|   X1743 = 19: 6 (1.0)
|   X1743 = 20: 4 (1.0)
|   X1743 = 21: 3 (1.0)
|   X1743 = 22: 3 (1.0)
|   X1743 = 23: 8 (1.0)
|   X1743 = 24: 3 (0.0)
|   X1743 = 25: 3 (0.0)
|   X1743 = 26: 3 (0.0)
|   X1743 = 27: 3 (0.0)
|   X1743 = 28: 3 (0.0)
|   X1743 = 29: 3 (2.0/1.0)
|   X1743 = 30: 3 (0.0)
|   X1743 = 31: 3 (1.0)
|   X1743 = 32: 3 (0.0)
|   X1743 = 33: 3 (0.0)
|   X1743 = 34: 3 (0.0)
|   X1743 = 35: 3 (0.0)
|   X1743 = 36: 3 (0.0)
|   X1743 = 37: 3 (0.0)
|   X1743 = 38: 3 (0.0)
|   X1743 = 39: 3 (0.0)
|   X1743 = 40: 3 (0.0)
|   X1743 = 41: 3 (0.0)
|   X1743 = 42: 3 (0.0)
|   X1743 = 43: 3 (0.0)
|   X1743 = 44: 3 (0.0)
|   X1743 = 45: 3 (0.0)
|   X1743 = 46: 3 (0.0)
|   X1743 = 47: 3 (0.0)
|   X1743 = 48: 3 (0.0)
|   X1743 = 49: 3 (0.0)
|   X1743 = 50: 8 (1.0)
|   X1743 = 51: 3 (0.0)
|   X1743 = 52: 3 (0.0)
|   X1743 = 53: 3 (0.0)
|   X1743 = 54: 3 (0.0)
|   X1743 = 55: 3 (0.0)
|   X1743 = 56: 3 (0.0)
|   X1743 = 57: 3 (0.0)
|   X1743 = 58: 3 (0.0)
|   X1743 = 59: 3 (0.0)
|   X1743 = 60: 3 (0.0)
|   X1743 = 61: 3 (0.0)
|   X1743 = 62: 3 (0.0)
|   X1743 = 63: 3 (0.0)
|   X1743 = 64: 3 (0.0)
|   X1743 = 65: 7 (1.0)
|   X1743 = 66: 3 (0.0)
|   X1743 = 67: 3 (0.0)
|   X1743 = 68: 3 (0.0)
|   X1743 = 69: 3 (0.0)
|   X1743 = 70: 3 (0.0)
|   X1743 = 71: 7 (1.0)
|   X1743 = 72: 3 (0.0)
|   X1743 = 73: 3 (0.0)
|   X1743 = 74: 3 (0.0)
|   X1743 = 75: 3 (0.0)
|   X1743 = 76: 3 (0.0)
|   X1743 = 77: 3 (0.0)
|   X1743 = 78: 3 (0.0)
|   X1743 = 79: 3 (0.0)
|   X1743 = 80: 3 (0.0)
|   X1743 = 81: 3 (0.0)
|   X1743 = 82: 3 (0.0)
|   X1743 = 83: 3 (0.0)
|   X1743 = 84: 3 (0.0)
|   X1743 = 85: 3 (0.0)
|   X1743 = 86: 3 (0.0)
|   X1743 = 87: 3 (0.0)
|   X1743 = 88: 3 (0.0)
|   X1743 = 89: 3 (0.0)
|   X1743 = 90: 3 (0.0)
|   X1743 = 91: 3 (0.0)
|   X1743 = 92: 3 (0.0)
|   X1743 = 93: 3 (0.0)
|   X1743 = 94: 3 (0.0)
|   X1743 = 95: 3 (0.0)
|   X1743 = 96: 3 (0.0)
|   X1743 = 97: 3 (0.0)
|   X1743 = 98: 3 (0.0)
|   X1743 = 99: 3 (0.0)
|   X1743 = 100: 3 (0.0)
|   X1743 = 101: 3 (0.0)
|   X1743 = 102: 3 (0.0)
|   X1743 = 103: 3 (0.0)
|   X1743 = 104: 3 (0.0)
|   X1743 = 105: 3 (0.0)
|   X1743 = 106: 3 (0.0)
|   X1743 = 107: 3 (0.0)
|   X1743 = 108: 3 (0.0)
|   X1743 = 109: 3 (0.0)
|   X1743 = 110: 3 (0.0)
|   X1743 = 111: 3 (0.0)
|   X1743 = 112: 3 (0.0)
|   X1743 = 113: 3 (0.0)
|   X1743 = 114: 3 (0.0)
|   X1743 = 115: 3 (0.0)
|   X1743 = 116: 3 (0.0)
|   X1743 = 117: 3 (0.0)
|   X1743 = 118: 3 (0.0)
|   X1743 = 119: 3 (0.0)
|   X1743 = 120: 3 (0.0)
|   X1743 = 121: 3 (0.0)
|   X1743 = 122: 3 (0.0)
|   X1743 = 123: 3 (0.0)
|   X1743 = 124: 3 (0.0)
|   X1743 = 125: 3 (0.0)
|   X1743 = 126: 3 (0.0)
|   X1743 = 127: 3 (0.0)
|   X1743 = 128: 3 (0.0)
|   X1743 = 129: 3 (0.0)
|   X1743 = 130: 3 (0.0)
|   X1743 = 131: 3 (0.0)
|   X1743 = 132: 3 (0.0)
|   X1743 = 133: 3 (0.0)
|   X1743 = 134: 3 (0.0)
|   X1743 = 135: 3 (0.0)
|   X1743 = 136: 3 (0.0)
|   X1743 = 137: 3 (0.0)
|   X1743 = 138: 3 (0.0)
|   X1743 = 139: 3 (0.0)
|   X1743 = 140: 3 (0.0)
|   X1743 = 141: 3 (0.0)
|   X1743 = 142: 3 (0.0)
|   X1743 = 143: 3 (0.0)
|   X1743 = 144: 3 (0.0)
|   X1743 = 145: 3 (0.0)
|   X1743 = 146: 3 (0.0)
|   X1743 = 147: 3 (0.0)
|   X1743 = 148: 3 (0.0)
|   X1743 = 149: 3 (0.0)
|   X1743 = 150: 3 (0.0)
|   X1743 = 151: 3 (0.0)
|   X1743 = 152: 3 (0.0)
|   X1743 = 153: 3 (0.0)
|   X1743 = 154: 3 (0.0)
|   X1743 = 155: 3 (0.0)
|   X1743 = 156: 3 (0.0)
|   X1743 = 157: 3 (0.0)
|   X1743 = 158: 3 (0.0)
|   X1743 = 159: 3 (0.0)
|   X1743 = 160: 3 (0.0)
|   X1743 = 161: 3 (0.0)
|   X1743 = 162: 3 (0.0)
|   X1743 = 163: 3 (0.0)
|   X1743 = 164: 3 (0.0)
|   X1743 = 165: 3 (0.0)
|   X1743 = 166: 3 (0.0)
|   X1743 = 167: 3 (0.0)
|   X1743 = 168: 3 (0.0)
|   X1743 = 169: 3 (0.0)
|   X1743 = 170: 3 (0.0)
|   X1743 = 171: 3 (0.0)
|   X1743 = 172: 3 (0.0)
|   X1743 = 173: 3 (0.0)
|   X1743 = 174: 3 (0.0)
|   X1743 = 175: 3 (0.0)
|   X1743 = 176: 3 (0.0)
|   X1743 = 177: 3 (0.0)
|   X1743 = 178: 3 (0.0)
|   X1743 = 179: 3 (0.0)
|   X1743 = 180: 3 (0.0)
|   X1743 = 181: 3 (0.0)
|   X1743 = 182: 3 (0.0)
|   X1743 = 183: 3 (0.0)
|   X1743 = 184: 3 (0.0)
|   X1743 = 185: 3 (0.0)
|   X1743 = 186: 3 (0.0)
|   X1743 = 187: 3 (0.0)
|   X1743 = 188: 3 (0.0)
|   X1743 = 189: 3 (0.0)
|   X1743 = 190: 3 (0.0)
|   X1743 = 191: 3 (0.0)
|   X1743 = 192: 3 (0.0)
|   X1743 = 193: 3 (0.0)
|   X1743 = 194: 3 (0.0)
|   X1743 = 195: 3 (0.0)
|   X1743 = 196: 3 (0.0)
|   X1743 = 197: 3 (0.0)
|   X1743 = 198: 3 (0.0)
|   X1743 = 199: 3 (0.0)
|   X1743 = 200: 3 (0.0)
|   X1743 = 201: 3 (0.0)
|   X1743 = 202: 3 (0.0)
|   X1743 = 203: 3 (0.0)
|   X1743 = 204: 3 (0.0)
|   X1743 = 205: 3 (0.0)
|   X1743 = 206: 3 (0.0)
|   X1743 = 207: 3 (0.0)
|   X1743 = 208: 3 (0.0)
|   X1743 = 209: 3 (0.0)
|   X1743 = 210: 3 (0.0)
|   X1743 = 211: 3 (0.0)
|   X1743 = 212: 3 (0.0)
|   X1743 = 213: 3 (0.0)
|   X1743 = 214: 3 (0.0)
|   X1743 = 215: 3 (0.0)
|   X1743 = 216: 3 (0.0)
|   X1743 = 217: 3 (0.0)
|   X1743 = 218: 3 (0.0)
|   X1743 = 219: 3 (0.0)
|   X1743 = 220: 3 (0.0)
|   X1743 = 221: 3 (0.0)
|   X1743 = 222: 3 (0.0)
|   X1743 = 223: 3 (0.0)
|   X1743 = 224: 3 (0.0)
|   X1743 = 225: 3 (0.0)
|   X1743 = 226: 3 (0.0)
|   X1743 = 227: 3 (0.0)
|   X1743 = 228: 3 (0.0)
|   X1743 = 229: 3 (0.0)
|   X1743 = 230: 3 (0.0)
|   X1743 = 231: 3 (0.0)
|   X1743 = 232: 3 (0.0)
|   X1743 = 233: 3 (0.0)
|   X1743 = 234: 3 (0.0)
|   X1743 = 235: 3 (0.0)
|   X1743 = 236: 3 (0.0)
|   X1743 = 237: 3 (0.0)
|   X1743 = 238: 3 (0.0)
|   X1743 = 239: 3 (0.0)
|   X1743 = 240: 3 (0.0)
|   X1743 = 241: 3 (0.0)
|   X1743 = 242: 3 (0.0)
|   X1743 = 243: 3 (0.0)
|   X1743 = 244: 3 (0.0)
|   X1743 = 245: 3 (0.0)
|   X1743 = 246: 3 (0.0)
|   X1743 = 247: 3 (0.0)
|   X1743 = 248: 3 (0.0)
|   X1743 = 249: 3 (0.0)
|   X1743 = 250: 3 (0.0)
|   X1743 = 251: 3 (0.0)
|   X1743 = 252: 3 (0.0)
|   X1743 = 253: 3 (0.0)
|   X1743 = 254: 3 (0.0)
|   X1743 = 255: 3 (0.0)
X1264 = 20: 3 (42.0/20.0)
X1264 = 21
|   X1895 = 4: 3 (0.0)
|   X1895 = 5: 3 (0.0)
|   X1895 = 6: 3 (0.0)
|   X1895 = 7: 4 (2.0)
|   X1895 = 8: 4 (6.0)
|   X1895 = 9: 4 (1.0)
|   X1895 = 10: 3 (4.0/1.0)
|   X1895 = 11: 4 (2.0)
|   X1895 = 12: 3 (6.0)
|   X1895 = 13: 3 (1.0)
|   X1895 = 14: 3 (2.0)
|   X1895 = 15: 3 (5.0)
|   X1895 = 16: 3 (1.0)
|   X1895 = 17: 3 (2.0/1.0)
|   X1895 = 18: 3 (3.0)
|   X1895 = 19: 3 (0.0)
|   X1895 = 20: 8 (2.0)
|   X1895 = 21: 3 (0.0)
|   X1895 = 22: 2 (1.0)
|   X1895 = 23: 2 (1.0)
|   X1895 = 24: 3 (0.0)
|   X1895 = 25: 3 (1.0)
|   X1895 = 26: 3 (0.0)
|   X1895 = 27: 3 (0.0)
|   X1895 = 28: 3 (0.0)
|   X1895 = 29: 3 (0.0)
|   X1895 = 30: 3 (0.0)
|   X1895 = 31: 3 (0.0)
|   X1895 = 32: 3 (0.0)
|   X1895 = 33: 6 (1.0)
|   X1895 = 34: 3 (2.0)
|   X1895 = 35: 3 (1.0)
|   X1895 = 36: 3 (0.0)
|   X1895 = 37: 3 (0.0)
|   X1895 = 38: 3 (0.0)
|   X1895 = 39: 3 (0.0)
|   X1895 = 40: 7 (1.0)
|   X1895 = 41: 3 (0.0)
|   X1895 = 42: 3 (0.0)
|   X1895 = 43: 3 (0.0)
|   X1895 = 44: 9 (1.0)
|   X1895 = 45: 3 (0.0)
|   X1895 = 46: 3 (0.0)
|   X1895 = 47: 3 (0.0)
|   X1895 = 48: 3 (0.0)
|   X1895 = 49: 3 (0.0)
|   X1895 = 50: 3 (0.0)
|   X1895 = 51: 3 (0.0)
|   X1895 = 52: 3 (0.0)
|   X1895 = 53: 3 (0.0)
|   X1895 = 54: 3 (0.0)
|   X1895 = 55: 3 (0.0)
|   X1895 = 56: 3 (0.0)
|   X1895 = 57: 3 (0.0)
|   X1895 = 58: 3 (0.0)
|   X1895 = 59: 3 (0.0)
|   X1895 = 60: 3 (0.0)
|   X1895 = 61: 3 (0.0)
|   X1895 = 62: 3 (0.0)
|   X1895 = 63: 3 (0.0)
|   X1895 = 64: 3 (0.0)
|   X1895 = 65: 3 (0.0)
|   X1895 = 66: 3 (0.0)
|   X1895 = 67: 3 (0.0)
|   X1895 = 68: 3 (0.0)
|   X1895 = 69: 3 (0.0)
|   X1895 = 70: 3 (0.0)
|   X1895 = 71: 3 (0.0)
|   X1895 = 72: 3 (0.0)
|   X1895 = 73: 3 (0.0)
|   X1895 = 74: 3 (0.0)
|   X1895 = 75: 3 (0.0)
|   X1895 = 76: 3 (0.0)
|   X1895 = 77: 3 (0.0)
|   X1895 = 78: 3 (0.0)
|   X1895 = 79: 3 (0.0)
|   X1895 = 80: 3 (0.0)
|   X1895 = 81: 3 (0.0)
|   X1895 = 82: 3 (0.0)
|   X1895 = 83: 3 (0.0)
|   X1895 = 84: 3 (0.0)
|   X1895 = 85: 3 (0.0)
|   X1895 = 86: 3 (0.0)
|   X1895 = 87: 3 (0.0)
|   X1895 = 88: 3 (0.0)
|   X1895 = 89: 3 (0.0)
|   X1895 = 90: 3 (0.0)
|   X1895 = 91: 3 (0.0)
|   X1895 = 92: 3 (0.0)
|   X1895 = 93: 3 (0.0)
|   X1895 = 94: 3 (0.0)
|   X1895 = 95: 3 (0.0)
|   X1895 = 96: 3 (0.0)
|   X1895 = 97: 3 (0.0)
|   X1895 = 98: 3 (0.0)
|   X1895 = 99: 3 (0.0)
|   X1895 = 100: 3 (0.0)
|   X1895 = 101: 3 (0.0)
|   X1895 = 102: 3 (0.0)
|   X1895 = 103: 3 (0.0)
|   X1895 = 104: 3 (0.0)
|   X1895 = 105: 3 (0.0)
|   X1895 = 106: 3 (0.0)
|   X1895 = 107: 3 (0.0)
|   X1895 = 108: 3 (0.0)
|   X1895 = 109: 3 (0.0)
|   X1895 = 110: 3 (0.0)
|   X1895 = 111: 3 (0.0)
|   X1895 = 112: 3 (0.0)
|   X1895 = 113: 3 (0.0)
|   X1895 = 114: 3 (0.0)
|   X1895 = 115: 3 (0.0)
|   X1895 = 116: 3 (0.0)
|   X1895 = 117: 3 (0.0)
|   X1895 = 118: 3 (0.0)
|   X1895 = 119: 3 (0.0)
|   X1895 = 120: 3 (0.0)
|   X1895 = 121: 3 (0.0)
|   X1895 = 122: 3 (0.0)
|   X1895 = 123: 3 (0.0)
|   X1895 = 124: 3 (0.0)
|   X1895 = 125: 3 (0.0)
|   X1895 = 126: 3 (0.0)
|   X1895 = 127: 3 (0.0)
|   X1895 = 128: 3 (0.0)
|   X1895 = 129: 3 (0.0)
|   X1895 = 130: 3 (0.0)
|   X1895 = 131: 3 (0.0)
|   X1895 = 132: 3 (0.0)
|   X1895 = 133: 3 (0.0)
|   X1895 = 134: 3 (0.0)
|   X1895 = 135: 3 (0.0)
|   X1895 = 136: 3 (0.0)
|   X1895 = 137: 3 (0.0)
|   X1895 = 138: 3 (0.0)
|   X1895 = 139: 3 (0.0)
|   X1895 = 140: 3 (0.0)
|   X1895 = 141: 3 (0.0)
|   X1895 = 142: 3 (0.0)
|   X1895 = 143: 3 (0.0)
|   X1895 = 144: 3 (0.0)
|   X1895 = 145: 3 (0.0)
|   X1895 = 146: 3 (0.0)
|   X1895 = 147: 3 (0.0)
|   X1895 = 148: 3 (0.0)
|   X1895 = 149: 3 (0.0)
|   X1895 = 150: 3 (0.0)
|   X1895 = 151: 3 (0.0)
|   X1895 = 152: 3 (0.0)
|   X1895 = 153: 3 (0.0)
|   X1895 = 154: 3 (0.0)
|   X1895 = 155: 3 (0.0)
|   X1895 = 156: 3 (0.0)
|   X1895 = 157: 3 (0.0)
|   X1895 = 158: 3 (0.0)
|   X1895 = 159: 3 (0.0)
|   X1895 = 160: 3 (0.0)
|   X1895 = 161: 3 (0.0)
|   X1895 = 162: 3 (0.0)
|   X1895 = 163: 3 (0.0)
|   X1895 = 164: 3 (0.0)
|   X1895 = 165: 3 (0.0)
|   X1895 = 166: 3 (0.0)
|   X1895 = 167: 3 (0.0)
|   X1895 = 168: 3 (0.0)
|   X1895 = 169: 3 (0.0)
|   X1895 = 170: 3 (0.0)
|   X1895 = 171: 3 (0.0)
|   X1895 = 172: 3 (0.0)
|   X1895 = 173: 3 (0.0)
|   X1895 = 174: 3 (0.0)
|   X1895 = 175: 3 (0.0)
|   X1895 = 176: 3 (0.0)
|   X1895 = 177: 3 (0.0)
|   X1895 = 178: 3 (0.0)
|   X1895 = 179: 3 (0.0)
|   X1895 = 180: 3 (0.0)
|   X1895 = 181: 3 (0.0)
|   X1895 = 182: 3 (0.0)
|   X1895 = 183: 3 (0.0)
|   X1895 = 184: 3 (0.0)
|   X1895 = 185: 3 (0.0)
|   X1895 = 186: 3 (0.0)
|   X1895 = 187: 3 (0.0)
|   X1895 = 188: 3 (0.0)
|   X1895 = 189: 3 (0.0)
|   X1895 = 190: 3 (0.0)
|   X1895 = 191: 3 (0.0)
|   X1895 = 192: 3 (0.0)
|   X1895 = 193: 3 (0.0)
|   X1895 = 194: 3 (0.0)
|   X1895 = 195: 3 (0.0)
|   X1895 = 196: 3 (0.0)
|   X1895 = 197: 3 (0.0)
|   X1895 = 198: 3 (0.0)
|   X1895 = 199: 3 (0.0)
|   X1895 = 200: 3 (0.0)
|   X1895 = 201: 3 (0.0)
|   X1895 = 202: 3 (0.0)
|   X1895 = 203: 3 (0.0)
|   X1895 = 204: 3 (0.0)
|   X1895 = 205: 3 (0.0)
|   X1895 = 206: 3 (0.0)
|   X1895 = 207: 3 (0.0)
|   X1895 = 208: 3 (0.0)
|   X1895 = 209: 3 (0.0)
|   X1895 = 210: 3 (0.0)
|   X1895 = 211: 3 (0.0)
|   X1895 = 212: 3 (0.0)
|   X1895 = 213: 3 (0.0)
|   X1895 = 214: 3 (0.0)
|   X1895 = 215: 3 (0.0)
|   X1895 = 216: 3 (0.0)
|   X1895 = 217: 3 (0.0)
|   X1895 = 218: 3 (0.0)
|   X1895 = 219: 3 (0.0)
|   X1895 = 220: 3 (0.0)
|   X1895 = 221: 3 (0.0)
|   X1895 = 222: 3 (0.0)
|   X1895 = 223: 3 (0.0)
|   X1895 = 224: 3 (0.0)
|   X1895 = 225: 3 (0.0)
|   X1895 = 226: 3 (0.0)
|   X1895 = 227: 3 (0.0)
|   X1895 = 228: 3 (0.0)
|   X1895 = 229: 3 (0.0)
|   X1895 = 230: 3 (0.0)
|   X1895 = 231: 3 (0.0)
|   X1895 = 232: 3 (0.0)
|   X1895 = 233: 3 (0.0)
|   X1895 = 234: 3 (0.0)
|   X1895 = 236: 3 (0.0)
|   X1895 = 237: 3 (0.0)
|   X1895 = 238: 3 (0.0)
|   X1895 = 239: 3 (0.0)
|   X1895 = 241: 3 (0.0)
|   X1895 = 242: 3 (0.0)
|   X1895 = 243: 3 (0.0)
|   X1895 = 244: 3 (0.0)
|   X1895 = 245: 3 (0.0)
|   X1895 = 246: 3 (0.0)
|   X1895 = 247: 3 (0.0)
|   X1895 = 248: 3 (0.0)
|   X1895 = 249: 3 (0.0)
|   X1895 = 250: 3 (0.0)
|   X1895 = 251: 3 (0.0)
|   X1895 = 252: 3 (0.0)
|   X1895 = 253: 3 (0.0)
|   X1895 = 254: 3 (0.0)
|   X1895 = 255: 3 (0.0)
X1264 = 22: 3 (60.0/28.0)
X1264 = 23
|   X2279 = 5: 3 (0.0)
|   X2279 = 6: 4 (1.0)
|   X2279 = 7: 4 (1.0)
|   X2279 = 8: 4 (7.0)
|   X2279 = 9: 3 (1.0)
|   X2279 = 10: 4 (6.0)
|   X2279 = 11: 4 (1.0)
|   X2279 = 12: 4 (2.0)
|   X2279 = 13: 6 (2.0)
|   X2279 = 14: 3 (2.0)
|   X2279 = 15: 3 (0.0)
|   X2279 = 16: 3 (0.0)
|   X2279 = 17: 3 (1.0)
|   X2279 = 18: 3 (1.0)
|   X2279 = 19: 8 (1.0)
|   X2279 = 20: 3 (2.0)
|   X2279 = 21: 3 (1.0)
|   X2279 = 22: 3 (0.0)
|   X2279 = 23: 4 (2.0)
|   X2279 = 24: 3 (1.0)
|   X2279 = 25: 3 (4.0)
|   X2279 = 26: 3 (0.0)
|   X2279 = 27: 3 (2.0)
|   X2279 = 28: 6 (1.0)
|   X2279 = 29: 3 (0.0)
|   X2279 = 30: 3 (2.0/1.0)
|   X2279 = 31: 3 (2.0)
|   X2279 = 32: 3 (0.0)
|   X2279 = 33: 3 (2.0)
|   X2279 = 34: 3 (0.0)
|   X2279 = 35: 3 (0.0)
|   X2279 = 36: 3 (1.0)
|   X2279 = 37: 3 (0.0)
|   X2279 = 38: 3 (0.0)
|   X2279 = 39: 3 (0.0)
|   X2279 = 40: 3 (0.0)
|   X2279 = 41: 3 (0.0)
|   X2279 = 42: 3 (0.0)
|   X2279 = 43: 6 (1.0)
|   X2279 = 44: 3 (0.0)
|   X2279 = 45: 3 (0.0)
|   X2279 = 46: 3 (1.0)
|   X2279 = 47: 3 (0.0)
|   X2279 = 48: 3 (0.0)
|   X2279 = 49: 3 (1.0)
|   X2279 = 50: 3 (0.0)
|   X2279 = 51: 6 (1.0)
|   X2279 = 52: 3 (0.0)
|   X2279 = 53: 3 (0.0)
|   X2279 = 54: 6 (1.0)
|   X2279 = 55: 3 (0.0)
|   X2279 = 56: 3 (0.0)
|   X2279 = 57: 3 (0.0)
|   X2279 = 58: 3 (0.0)
|   X2279 = 59: 3 (0.0)
|   X2279 = 60: 3 (0.0)
|   X2279 = 61: 3 (0.0)
|   X2279 = 62: 3 (0.0)
|   X2279 = 63: 3 (0.0)
|   X2279 = 64: 8 (1.0)
|   X2279 = 65: 3 (0.0)
|   X2279 = 66: 3 (0.0)
|   X2279 = 67: 3 (0.0)
|   X2279 = 68: 3 (0.0)
|   X2279 = 69: 3 (0.0)
|   X2279 = 70: 3 (0.0)
|   X2279 = 71: 3 (1.0)
|   X2279 = 72: 3 (0.0)
|   X2279 = 73: 3 (0.0)
|   X2279 = 74: 3 (0.0)
|   X2279 = 75: 3 (0.0)
|   X2279 = 76: 3 (0.0)
|   X2279 = 77: 3 (0.0)
|   X2279 = 78: 3 (0.0)
|   X2279 = 79: 3 (0.0)
|   X2279 = 80: 3 (0.0)
|   X2279 = 81: 3 (0.0)
|   X2279 = 82: 3 (0.0)
|   X2279 = 83: 3 (0.0)
|   X2279 = 84: 3 (0.0)
|   X2279 = 85: 3 (0.0)
|   X2279 = 86: 3 (0.0)
|   X2279 = 87: 3 (0.0)
|   X2279 = 88: 3 (0.0)
|   X2279 = 89: 3 (0.0)
|   X2279 = 90: 3 (0.0)
|   X2279 = 91: 7 (1.0)
|   X2279 = 92: 3 (0.0)
|   X2279 = 93: 3 (0.0)
|   X2279 = 94: 3 (0.0)
|   X2279 = 95: 3 (2.0/1.0)
|   X2279 = 96: 3 (0.0)
|   X2279 = 97: 3 (0.0)
|   X2279 = 98: 3 (0.0)
|   X2279 = 99: 3 (0.0)
|   X2279 = 100: 3 (0.0)
|   X2279 = 101: 3 (0.0)
|   X2279 = 102: 3 (0.0)
|   X2279 = 103: 3 (0.0)
|   X2279 = 104: 3 (0.0)
|   X2279 = 105: 3 (0.0)
|   X2279 = 106: 3 (0.0)
|   X2279 = 107: 3 (0.0)
|   X2279 = 108: 3 (0.0)
|   X2279 = 109: 3 (0.0)
|   X2279 = 110: 3 (0.0)
|   X2279 = 111: 3 (0.0)
|   X2279 = 112: 3 (0.0)
|   X2279 = 113: 3 (0.0)
|   X2279 = 114: 3 (0.0)
|   X2279 = 115: 3 (0.0)
|   X2279 = 116: 3 (0.0)
|   X2279 = 117: 3 (0.0)
|   X2279 = 118: 3 (0.0)
|   X2279 = 119: 3 (0.0)
|   X2279 = 120: 3 (0.0)
|   X2279 = 121: 3 (0.0)
|   X2279 = 122: 3 (0.0)
|   X2279 = 123: 3 (0.0)
|   X2279 = 124: 3 (0.0)
|   X2279 = 125: 3 (0.0)
|   X2279 = 126: 3 (0.0)
|   X2279 = 127: 3 (0.0)
|   X2279 = 128: 3 (0.0)
|   X2279 = 129: 3 (0.0)
|   X2279 = 130: 3 (0.0)
|   X2279 = 131: 3 (0.0)
|   X2279 = 132: 3 (0.0)
|   X2279 = 133: 3 (0.0)
|   X2279 = 134: 3 (0.0)
|   X2279 = 135: 3 (0.0)
|   X2279 = 136: 3 (0.0)
|   X2279 = 137: 3 (0.0)
|   X2279 = 138: 3 (0.0)
|   X2279 = 139: 3 (0.0)
|   X2279 = 140: 3 (0.0)
|   X2279 = 141: 3 (0.0)
|   X2279 = 142: 3 (0.0)
|   X2279 = 143: 3 (0.0)
|   X2279 = 144: 3 (0.0)
|   X2279 = 145: 3 (0.0)
|   X2279 = 146: 3 (0.0)
|   X2279 = 147: 3 (0.0)
|   X2279 = 148: 3 (0.0)
|   X2279 = 149: 3 (0.0)
|   X2279 = 150: 3 (0.0)
|   X2279 = 151: 3 (0.0)
|   X2279 = 152: 3 (0.0)
|   X2279 = 153: 3 (0.0)
|   X2279 = 154: 3 (0.0)
|   X2279 = 155: 3 (0.0)
|   X2279 = 156: 3 (0.0)
|   X2279 = 157: 3 (0.0)
|   X2279 = 158: 3 (0.0)
|   X2279 = 159: 3 (0.0)
|   X2279 = 160: 3 (0.0)
|   X2279 = 161: 3 (0.0)
|   X2279 = 162: 3 (0.0)
|   X2279 = 163: 3 (0.0)
|   X2279 = 164: 3 (0.0)
|   X2279 = 165: 3 (0.0)
|   X2279 = 166: 3 (0.0)
|   X2279 = 167: 3 (0.0)
|   X2279 = 168: 3 (0.0)
|   X2279 = 169: 3 (0.0)
|   X2279 = 170: 3 (0.0)
|   X2279 = 171: 3 (0.0)
|   X2279 = 172: 3 (0.0)
|   X2279 = 173: 3 (0.0)
|   X2279 = 174: 3 (0.0)
|   X2279 = 175: 3 (0.0)
|   X2279 = 176: 3 (0.0)
|   X2279 = 177: 3 (0.0)
|   X2279 = 178: 3 (0.0)
|   X2279 = 179: 3 (0.0)
|   X2279 = 180: 3 (0.0)
|   X2279 = 181: 3 (0.0)
|   X2279 = 182: 3 (0.0)
|   X2279 = 183: 3 (0.0)
|   X2279 = 184: 3 (0.0)
|   X2279 = 185: 3 (0.0)
|   X2279 = 186: 3 (0.0)
|   X2279 = 187: 3 (0.0)
|   X2279 = 188: 3 (0.0)
|   X2279 = 189: 3 (0.0)
|   X2279 = 190: 3 (0.0)
|   X2279 = 191: 3 (0.0)
|   X2279 = 192: 3 (0.0)
|   X2279 = 193: 3 (0.0)
|   X2279 = 194: 3 (0.0)
|   X2279 = 195: 3 (0.0)
|   X2279 = 196: 3 (0.0)
|   X2279 = 197: 3 (0.0)
|   X2279 = 198: 3 (0.0)
|   X2279 = 199: 3 (0.0)
|   X2279 = 200: 3 (0.0)
|   X2279 = 201: 3 (1.0)
|   X2279 = 202: 3 (0.0)
|   X2279 = 203: 3 (0.0)
|   X2279 = 204: 3 (0.0)
|   X2279 = 205: 3 (0.0)
|   X2279 = 206: 3 (0.0)
|   X2279 = 207: 3 (0.0)
|   X2279 = 208: 3 (0.0)
|   X2279 = 209: 3 (0.0)
|   X2279 = 210: 3 (0.0)
|   X2279 = 211: 3 (0.0)
|   X2279 = 212: 3 (0.0)
|   X2279 = 213: 3 (0.0)
|   X2279 = 214: 3 (0.0)
|   X2279 = 215: 3 (0.0)
|   X2279 = 216: 3 (0.0)
|   X2279 = 217: 3 (0.0)
|   X2279 = 218: 3 (0.0)
|   X2279 = 219: 3 (0.0)
|   X2279 = 220: 3 (0.0)
|   X2279 = 221: 3 (0.0)
|   X2279 = 222: 3 (0.0)
|   X2279 = 223: 3 (0.0)
|   X2279 = 224: 3 (0.0)
|   X2279 = 225: 3 (0.0)
|   X2279 = 226: 3 (0.0)
|   X2279 = 227: 3 (0.0)
|   X2279 = 228: 3 (0.0)
|   X2279 = 229: 3 (0.0)
|   X2279 = 230: 3 (0.0)
|   X2279 = 231: 3 (0.0)
|   X2279 = 232: 3 (0.0)
|   X2279 = 233: 3 (0.0)
|   X2279 = 234: 3 (0.0)
|   X2279 = 235: 3 (0.0)
|   X2279 = 236: 3 (0.0)
|   X2279 = 237: 3 (0.0)
|   X2279 = 238: 3 (0.0)
|   X2279 = 239: 3 (0.0)
|   X2279 = 240: 3 (0.0)
|   X2279 = 241: 3 (0.0)
|   X2279 = 242: 3 (0.0)
|   X2279 = 243: 3 (0.0)
|   X2279 = 244: 3 (0.0)
|   X2279 = 245: 3 (0.0)
|   X2279 = 246: 3 (0.0)
|   X2279 = 247: 3 (0.0)
|   X2279 = 248: 3 (0.0)
|   X2279 = 249: 3 (0.0)
|   X2279 = 250: 3 (0.0)
|   X2279 = 251: 3 (0.0)
|   X2279 = 252: 3 (0.0)
|   X2279 = 253: 3 (0.0)
|   X2279 = 254: 3 (0.0)
|   X2279 = 255: 3 (0.0)
X1264 = 24
|   X1656 = 9: 4 (0.0)
|   X1656 = 10: 4 (1.0)
|   X1656 = 11: 4 (0.0)
|   X1656 = 12: 4 (0.0)
|   X1656 = 13: 4 (0.0)
|   X1656 = 14: 4 (0.0)
|   X1656 = 15: 4 (0.0)
|   X1656 = 16: 4 (0.0)
|   X1656 = 17: 2 (1.0)
|   X1656 = 18: 4 (0.0)
|   X1656 = 19: 4 (0.0)
|   X1656 = 20: 4 (0.0)
|   X1656 = 21: 4 (0.0)
|   X1656 = 22: 4 (1.0)
|   X1656 = 23: 4 (5.0)
|   X1656 = 24: 4 (8.0)
|   X1656 = 25: 4 (3.0)
|   X1656 = 26: 4 (0.0)
|   X1656 = 27: 4 (0.0)
|   X1656 = 28: 1 (1.0)
|   X1656 = 29: 4 (0.0)
|   X1656 = 30: 4 (1.0)
|   X1656 = 31: 4 (0.0)
|   X1656 = 32: 3 (1.0)
|   X1656 = 33: 3 (2.0/1.0)
|   X1656 = 34: 6 (1.0)
|   X1656 = 35: 3 (1.0)
|   X1656 = 36: 4 (0.0)
|   X1656 = 37: 8 (1.0)
|   X1656 = 38: 6 (1.0)
|   X1656 = 39: 4 (0.0)
|   X1656 = 40: 4 (0.0)
|   X1656 = 41: 4 (0.0)
|   X1656 = 42: 3 (1.0)
|   X1656 = 43: 4 (0.0)
|   X1656 = 44: 2 (1.0)
|   X1656 = 45: 4 (0.0)
|   X1656 = 46: 4 (0.0)
|   X1656 = 47: 3 (3.0)
|   X1656 = 48: 3 (1.0)
|   X1656 = 49: 3 (1.0)
|   X1656 = 50: 4 (0.0)
|   X1656 = 51: 4 (0.0)
|   X1656 = 52: 3 (2.0)
|   X1656 = 53: 4 (0.0)
|   X1656 = 54: 3 (1.0)
|   X1656 = 55: 4 (0.0)
|   X1656 = 56: 4 (0.0)
|   X1656 = 57: 4 (0.0)
|   X1656 = 58: 4 (0.0)
|   X1656 = 59: 4 (0.0)
|   X1656 = 60: 3 (1.0)
|   X1656 = 61: 4 (0.0)
|   X1656 = 62: 4 (0.0)
|   X1656 = 63: 4 (0.0)
|   X1656 = 64: 4 (0.0)
|   X1656 = 65: 6 (1.0)
|   X1656 = 66: 4 (0.0)
|   X1656 = 67: 6 (2.0)
|   X1656 = 68: 9 (1.0)
|   X1656 = 69: 4 (0.0)
|   X1656 = 70: 4 (0.0)
|   X1656 = 71: 3 (1.0)
|   X1656 = 72: 4 (0.0)
|   X1656 = 73: 4 (0.0)
|   X1656 = 74: 4 (0.0)
|   X1656 = 75: 4 (0.0)
|   X1656 = 76: 4 (0.0)
|   X1656 = 77: 4 (0.0)
|   X1656 = 78: 4 (0.0)
|   X1656 = 79: 4 (0.0)
|   X1656 = 80: 4 (0.0)
|   X1656 = 81: 4 (0.0)
|   X1656 = 82: 4 (0.0)
|   X1656 = 83: 4 (0.0)
|   X1656 = 84: 4 (0.0)
|   X1656 = 85: 4 (0.0)
|   X1656 = 86: 7 (1.0)
|   X1656 = 87: 3 (2.0/1.0)
|   X1656 = 88: 8 (2.0)
|   X1656 = 89: 7 (1.0)
|   X1656 = 90: 4 (0.0)
|   X1656 = 91: 6 (2.0/1.0)
|   X1656 = 92: 4 (0.0)
|   X1656 = 93: 4 (0.0)
|   X1656 = 94: 4 (0.0)
|   X1656 = 95: 4 (0.0)
|   X1656 = 96: 4 (0.0)
|   X1656 = 97: 4 (0.0)
|   X1656 = 98: 4 (0.0)
|   X1656 = 99: 3 (1.0)
|   X1656 = 100: 4 (0.0)
|   X1656 = 101: 4 (0.0)
|   X1656 = 102: 4 (0.0)
|   X1656 = 103: 4 (0.0)
|   X1656 = 104: 4 (0.0)
|   X1656 = 105: 4 (0.0)
|   X1656 = 106: 6 (1.0)
|   X1656 = 107: 9 (1.0)
|   X1656 = 108: 4 (0.0)
|   X1656 = 109: 4 (0.0)
|   X1656 = 110: 4 (0.0)
|   X1656 = 111: 4 (0.0)
|   X1656 = 112: 6 (1.0)
|   X1656 = 113: 4 (0.0)
|   X1656 = 114: 4 (0.0)
|   X1656 = 115: 4 (0.0)
|   X1656 = 116: 4 (0.0)
|   X1656 = 117: 4 (0.0)
|   X1656 = 118: 3 (1.0)
|   X1656 = 119: 4 (0.0)
|   X1656 = 120: 4 (0.0)
|   X1656 = 121: 4 (0.0)
|   X1656 = 122: 4 (0.0)
|   X1656 = 123: 4 (0.0)
|   X1656 = 124: 4 (0.0)
|   X1656 = 125: 4 (0.0)
|   X1656 = 126: 4 (0.0)
|   X1656 = 127: 4 (0.0)
|   X1656 = 128: 4 (0.0)
|   X1656 = 129: 4 (0.0)
|   X1656 = 130: 4 (0.0)
|   X1656 = 131: 4 (0.0)
|   X1656 = 132: 4 (0.0)
|   X1656 = 133: 4 (0.0)
|   X1656 = 134: 4 (0.0)
|   X1656 = 135: 4 (0.0)
|   X1656 = 136: 4 (0.0)
|   X1656 = 137: 4 (0.0)
|   X1656 = 138: 4 (0.0)
|   X1656 = 139: 4 (0.0)
|   X1656 = 140: 4 (0.0)
|   X1656 = 141: 4 (0.0)
|   X1656 = 142: 4 (0.0)
|   X1656 = 143: 4 (0.0)
|   X1656 = 144: 4 (0.0)
|   X1656 = 145: 4 (0.0)
|   X1656 = 146: 4 (0.0)
|   X1656 = 147: 4 (0.0)
|   X1656 = 148: 4 (0.0)
|   X1656 = 149: 4 (0.0)
|   X1656 = 150: 4 (0.0)
|   X1656 = 151: 4 (0.0)
|   X1656 = 152: 4 (0.0)
|   X1656 = 153: 4 (0.0)
|   X1656 = 154: 4 (0.0)
|   X1656 = 155: 4 (0.0)
|   X1656 = 156: 4 (0.0)
|   X1656 = 157: 4 (0.0)
|   X1656 = 158: 4 (0.0)
|   X1656 = 159: 4 (0.0)
|   X1656 = 160: 4 (0.0)
|   X1656 = 161: 4 (0.0)
|   X1656 = 162: 4 (0.0)
|   X1656 = 163: 4 (0.0)
|   X1656 = 164: 4 (0.0)
|   X1656 = 165: 4 (0.0)
|   X1656 = 166: 4 (0.0)
|   X1656 = 167: 4 (0.0)
|   X1656 = 168: 4 (0.0)
|   X1656 = 169: 4 (0.0)
|   X1656 = 170: 4 (0.0)
|   X1656 = 171: 4 (0.0)
|   X1656 = 172: 4 (0.0)
|   X1656 = 173: 4 (0.0)
|   X1656 = 174: 4 (0.0)
|   X1656 = 175: 4 (0.0)
|   X1656 = 176: 4 (0.0)
|   X1656 = 177: 4 (0.0)
|   X1656 = 178: 4 (0.0)
|   X1656 = 179: 4 (0.0)
|   X1656 = 180: 4 (0.0)
|   X1656 = 181: 4 (0.0)
|   X1656 = 182: 4 (0.0)
|   X1656 = 183: 4 (0.0)
|   X1656 = 184: 4 (0.0)
|   X1656 = 185: 4 (0.0)
|   X1656 = 186: 4 (0.0)
|   X1656 = 187: 4 (0.0)
|   X1656 = 188: 4 (0.0)
|   X1656 = 189: 4 (0.0)
|   X1656 = 190: 4 (0.0)
|   X1656 = 191: 4 (0.0)
|   X1656 = 192: 4 (0.0)
|   X1656 = 193: 4 (0.0)
|   X1656 = 194: 4 (0.0)
|   X1656 = 195: 4 (0.0)
|   X1656 = 196: 4 (0.0)
|   X1656 = 197: 4 (0.0)
|   X1656 = 198: 4 (0.0)
|   X1656 = 199: 4 (0.0)
|   X1656 = 200: 4 (0.0)
|   X1656 = 201: 4 (0.0)
|   X1656 = 202: 4 (0.0)
|   X1656 = 203: 4 (0.0)
|   X1656 = 204: 4 (0.0)
|   X1656 = 205: 4 (0.0)
|   X1656 = 206: 4 (0.0)
|   X1656 = 207: 4 (0.0)
|   X1656 = 208: 4 (0.0)
|   X1656 = 209: 4 (0.0)
|   X1656 = 210: 4 (0.0)
|   X1656 = 211: 4 (0.0)
|   X1656 = 212: 4 (0.0)
|   X1656 = 213: 4 (0.0)
|   X1656 = 214: 4 (0.0)
|   X1656 = 215: 4 (0.0)
|   X1656 = 216: 4 (0.0)
|   X1656 = 217: 4 (0.0)
|   X1656 = 218: 4 (0.0)
|   X1656 = 219: 4 (0.0)
|   X1656 = 220: 4 (0.0)
|   X1656 = 221: 4 (0.0)
|   X1656 = 222: 4 (0.0)
|   X1656 = 223: 4 (0.0)
|   X1656 = 224: 4 (0.0)
|   X1656 = 225: 4 (0.0)
|   X1656 = 226: 4 (0.0)
|   X1656 = 227: 4 (0.0)
|   X1656 = 228: 4 (0.0)
|   X1656 = 229: 4 (0.0)
|   X1656 = 230: 4 (0.0)
|   X1656 = 231: 4 (0.0)
|   X1656 = 232: 4 (0.0)
|   X1656 = 233: 4 (0.0)
|   X1656 = 234: 4 (0.0)
|   X1656 = 235: 4 (0.0)
|   X1656 = 236: 4 (0.0)
|   X1656 = 237: 4 (0.0)
|   X1656 = 238: 4 (0.0)
|   X1656 = 239: 4 (0.0)
|   X1656 = 240: 4 (0.0)
|   X1656 = 241: 4 (0.0)
|   X1656 = 242: 4 (0.0)
|   X1656 = 243: 4 (0.0)
|   X1656 = 244: 4 (0.0)
|   X1656 = 245: 4 (0.0)
|   X1656 = 246: 4 (0.0)
|   X1656 = 247: 4 (0.0)
|   X1656 = 248: 4 (0.0)
|   X1656 = 249: 4 (0.0)
|   X1656 = 250: 4 (0.0)
|   X1656 = 251: 4 (0.0)
|   X1656 = 252: 4 (0.0)
|   X1656 = 253: 4 (0.0)
|   X1656 = 254: 4 (0.0)
|   X1656 = 255: 4 (0.0)
X1264 = 25
|   X144 = 4: 3 (0.0)
|   X144 = 5: 3 (0.0)
|   X144 = 6: 3 (0.0)
|   X144 = 7: 3 (0.0)
|   X144 = 8: 3 (0.0)
|   X144 = 9: 4 (8.0)
|   X144 = 10: 3 (1.0)
|   X144 = 11: 6 (2.0)
|   X144 = 12: 4 (1.0)
|   X144 = 13: 8 (1.0)
|   X144 = 14: 3 (0.0)
|   X144 = 15: 3 (1.0)
|   X144 = 16: 4 (1.0)
|   X144 = 17: 3 (0.0)
|   X144 = 18: 3 (3.0/1.0)
|   X144 = 19: 8 (1.0)
|   X144 = 20: 3 (0.0)
|   X144 = 21: 8 (1.0)
|   X144 = 22: 3 (0.0)
|   X144 = 23: 3 (2.0/1.0)
|   X144 = 24: 3 (1.0)
|   X144 = 25: 3 (1.0)
|   X144 = 26: 3 (0.0)
|   X144 = 27: 6 (1.0)
|   X144 = 28: 3 (0.0)
|   X144 = 29: 3 (1.0)
|   X144 = 30: 4 (2.0/1.0)
|   X144 = 31: 6 (1.0)
|   X144 = 32: 4 (2.0/1.0)
|   X144 = 33: 3 (0.0)
|   X144 = 34: 3 (0.0)
|   X144 = 35: 3 (0.0)
|   X144 = 36: 3 (0.0)
|   X144 = 37: 3 (0.0)
|   X144 = 38: 3 (0.0)
|   X144 = 39: 3 (0.0)
|   X144 = 40: 3 (0.0)
|   X144 = 41: 6 (1.0)
|   X144 = 42: 3 (0.0)
|   X144 = 43: 3 (0.0)
|   X144 = 44: 3 (0.0)
|   X144 = 45: 5 (1.0)
|   X144 = 46: 3 (0.0)
|   X144 = 47: 3 (0.0)
|   X144 = 48: 3 (0.0)
|   X144 = 49: 3 (0.0)
|   X144 = 50: 3 (0.0)
|   X144 = 51: 3 (0.0)
|   X144 = 52: 3 (0.0)
|   X144 = 53: 3 (0.0)
|   X144 = 54: 3 (0.0)
|   X144 = 55: 3 (0.0)
|   X144 = 56: 3 (0.0)
|   X144 = 57: 3 (0.0)
|   X144 = 58: 3 (0.0)
|   X144 = 59: 3 (0.0)
|   X144 = 60: 3 (0.0)
|   X144 = 61: 3 (0.0)
|   X144 = 62: 3 (0.0)
|   X144 = 63: 3 (0.0)
|   X144 = 64: 3 (0.0)
|   X144 = 65: 3 (0.0)
|   X144 = 66: 3 (0.0)
|   X144 = 67: 3 (0.0)
|   X144 = 68: 3 (0.0)
|   X144 = 69: 3 (0.0)
|   X144 = 70: 3 (0.0)
|   X144 = 71: 8 (1.0)
|   X144 = 72: 3 (0.0)
|   X144 = 73: 3 (0.0)
|   X144 = 74: 3 (0.0)
|   X144 = 75: 3 (0.0)
|   X144 = 76: 3 (0.0)
|   X144 = 77: 3 (0.0)
|   X144 = 78: 3 (0.0)
|   X144 = 79: 3 (0.0)
|   X144 = 80: 3 (0.0)
|   X144 = 81: 3 (0.0)
|   X144 = 82: 3 (0.0)
|   X144 = 83: 3 (0.0)
|   X144 = 84: 3 (0.0)
|   X144 = 85: 3 (0.0)
|   X144 = 86: 3 (0.0)
|   X144 = 87: 3 (0.0)
|   X144 = 88: 3 (0.0)
|   X144 = 89: 3 (0.0)
|   X144 = 90: 3 (0.0)
|   X144 = 91: 3 (0.0)
|   X144 = 92: 3 (0.0)
|   X144 = 93: 3 (0.0)
|   X144 = 94: 3 (0.0)
|   X144 = 95: 7 (1.0)
|   X144 = 96: 3 (0.0)
|   X144 = 97: 3 (0.0)
|   X144 = 98: 3 (0.0)
|   X144 = 99: 3 (0.0)
|   X144 = 100: 3 (0.0)
|   X144 = 101: 3 (0.0)
|   X144 = 102: 3 (0.0)
|   X144 = 103: 3 (0.0)
|   X144 = 104: 3 (0.0)
|   X144 = 105: 3 (0.0)
|   X144 = 106: 3 (0.0)
|   X144 = 107: 3 (0.0)
|   X144 = 108: 3 (0.0)
|   X144 = 109: 3 (0.0)
|   X144 = 110: 3 (0.0)
|   X144 = 111: 3 (0.0)
|   X144 = 112: 3 (0.0)
|   X144 = 113: 3 (0.0)
|   X144 = 114: 3 (0.0)
|   X144 = 115: 3 (0.0)
|   X144 = 116: 7 (1.0)
|   X144 = 117: 3 (0.0)
|   X144 = 118: 3 (0.0)
|   X144 = 119: 3 (0.0)
|   X144 = 120: 3 (0.0)
|   X144 = 121: 3 (0.0)
|   X144 = 122: 3 (0.0)
|   X144 = 123: 3 (0.0)
|   X144 = 124: 3 (0.0)
|   X144 = 125: 3 (0.0)
|   X144 = 126: 3 (0.0)
|   X144 = 127: 3 (0.0)
|   X144 = 128: 3 (0.0)
|   X144 = 129: 3 (0.0)
|   X144 = 130: 3 (0.0)
|   X144 = 131: 3 (0.0)
|   X144 = 132: 6 (1.0)
|   X144 = 133: 3 (0.0)
|   X144 = 134: 3 (0.0)
|   X144 = 135: 3 (0.0)
|   X144 = 136: 3 (1.0)
|   X144 = 137: 3 (0.0)
|   X144 = 138: 3 (0.0)
|   X144 = 139: 3 (0.0)
|   X144 = 140: 3 (0.0)
|   X144 = 141: 3 (0.0)
|   X144 = 142: 3 (0.0)
|   X144 = 143: 3 (0.0)
|   X144 = 144: 3 (0.0)
|   X144 = 145: 3 (0.0)
|   X144 = 146: 3 (0.0)
|   X144 = 147: 3 (0.0)
|   X144 = 148: 3 (0.0)
|   X144 = 149: 3 (0.0)
|   X144 = 150: 3 (0.0)
|   X144 = 151: 3 (0.0)
|   X144 = 152: 3 (0.0)
|   X144 = 153: 3 (0.0)
|   X144 = 154: 6 (1.0)
|   X144 = 155: 6 (1.0)
|   X144 = 156: 3 (0.0)
|   X144 = 157: 3 (0.0)
|   X144 = 158: 3 (0.0)
|   X144 = 159: 3 (0.0)
|   X144 = 160: 3 (1.0)
|   X144 = 161: 3 (0.0)
|   X144 = 162: 3 (0.0)
|   X144 = 163: 3 (0.0)
|   X144 = 164: 3 (0.0)
|   X144 = 165: 3 (0.0)
|   X144 = 166: 3 (0.0)
|   X144 = 167: 3 (0.0)
|   X144 = 168: 3 (0.0)
|   X144 = 169: 3 (0.0)
|   X144 = 170: 3 (0.0)
|   X144 = 171: 3 (0.0)
|   X144 = 172: 3 (0.0)
|   X144 = 173: 3 (0.0)
|   X144 = 174: 3 (0.0)
|   X144 = 175: 3 (0.0)
|   X144 = 176: 3 (0.0)
|   X144 = 177: 3 (0.0)
|   X144 = 178: 3 (0.0)
|   X144 = 179: 3 (0.0)
|   X144 = 180: 3 (0.0)
|   X144 = 181: 3 (0.0)
|   X144 = 182: 3 (0.0)
|   X144 = 183: 3 (0.0)
|   X144 = 184: 3 (0.0)
|   X144 = 185: 3 (0.0)
|   X144 = 186: 3 (0.0)
|   X144 = 187: 3 (0.0)
|   X144 = 188: 3 (0.0)
|   X144 = 189: 3 (0.0)
|   X144 = 190: 3 (0.0)
|   X144 = 191: 3 (0.0)
|   X144 = 192: 3 (0.0)
|   X144 = 193: 3 (0.0)
|   X144 = 194: 3 (2.0/1.0)
|   X144 = 195: 3 (0.0)
|   X144 = 196: 7 (1.0)
|   X144 = 197: 3 (0.0)
|   X144 = 198: 3 (0.0)
|   X144 = 199: 3 (0.0)
|   X144 = 200: 3 (0.0)
|   X144 = 201: 3 (0.0)
|   X144 = 202: 3 (0.0)
|   X144 = 203: 3 (0.0)
|   X144 = 204: 3 (0.0)
|   X144 = 205: 3 (0.0)
|   X144 = 206: 3 (0.0)
|   X144 = 207: 3 (0.0)
|   X144 = 208: 3 (0.0)
|   X144 = 209: 3 (0.0)
|   X144 = 210: 3 (0.0)
|   X144 = 211: 3 (0.0)
|   X144 = 212: 3 (0.0)
|   X144 = 213: 3 (0.0)
|   X144 = 214: 3 (0.0)
|   X144 = 215: 3 (0.0)
|   X144 = 216: 3 (0.0)
|   X144 = 217: 3 (0.0)
|   X144 = 218: 3 (0.0)
|   X144 = 219: 3 (0.0)
|   X144 = 220: 3 (0.0)
|   X144 = 221: 3 (0.0)
|   X144 = 222: 3 (0.0)
|   X144 = 223: 3 (0.0)
|   X144 = 224: 3 (0.0)
|   X144 = 225: 3 (0.0)
|   X144 = 226: 3 (0.0)
|   X144 = 227: 3 (0.0)
|   X144 = 228: 3 (0.0)
|   X144 = 229: 3 (0.0)
|   X144 = 230: 3 (0.0)
|   X144 = 231: 3 (0.0)
|   X144 = 232: 3 (0.0)
|   X144 = 233: 3 (0.0)
|   X144 = 234: 3 (0.0)
|   X144 = 235: 3 (0.0)
|   X144 = 236: 3 (0.0)
|   X144 = 237: 3 (0.0)
|   X144 = 238: 3 (0.0)
|   X144 = 239: 3 (0.0)
|   X144 = 240: 3 (0.0)
|   X144 = 241: 3 (0.0)
|   X144 = 242: 3 (0.0)
|   X144 = 243: 3 (0.0)
|   X144 = 244: 3 (0.0)
|   X144 = 245: 3 (0.0)
|   X144 = 246: 3 (0.0)
|   X144 = 247: 3 (0.0)
|   X144 = 248: 3 (0.0)
|   X144 = 249: 3 (0.0)
|   X144 = 250: 3 (0.0)
|   X144 = 251: 3 (0.0)
|   X144 = 252: 3 (0.0)
|   X144 = 253: 3 (0.0)
|   X144 = 254: 3 (0.0)
|   X144 = 255: 3 (10.0)
X1264 = 26
|   X269 = 5: 3 (0.0)
|   X269 = 6: 3 (0.0)
|   X269 = 7: 3 (0.0)
|   X269 = 8: 3 (0.0)
|   X269 = 9: 3 (0.0)
|   X269 = 10: 4 (2.0)
|   X269 = 11: 4 (1.0)
|   X269 = 12: 4 (3.0)
|   X269 = 13: 3 (0.0)
|   X269 = 14: 3 (2.0/1.0)
|   X269 = 15: 6 (4.0/1.0)
|   X269 = 16: 3 (2.0)
|   X269 = 17: 6 (4.0)
|   X269 = 18: 3 (2.0)
|   X269 = 19: 3 (3.0/2.0)
|   X269 = 20: 3 (0.0)
|   X269 = 21: 3 (2.0/1.0)
|   X269 = 22: 3 (0.0)
|   X269 = 23: 3 (2.0)
|   X269 = 24: 8 (3.0/1.0)
|   X269 = 25: 8 (2.0)
|   X269 = 26: 1 (2.0/1.0)
|   X269 = 27: 4 (1.0)
|   X269 = 28: 3 (0.0)
|   X269 = 29: 3 (0.0)
|   X269 = 30: 6 (1.0)
|   X269 = 31: 3 (0.0)
|   X269 = 32: 3 (2.0/1.0)
|   X269 = 33: 3 (0.0)
|   X269 = 34: 3 (1.0)
|   X269 = 35: 3 (0.0)
|   X269 = 36: 3 (0.0)
|   X269 = 37: 3 (0.0)
|   X269 = 38: 3 (0.0)
|   X269 = 39: 2 (1.0)
|   X269 = 40: 3 (0.0)
|   X269 = 41: 3 (0.0)
|   X269 = 42: 3 (0.0)
|   X269 = 43: 3 (0.0)
|   X269 = 44: 3 (1.0)
|   X269 = 45: 2 (2.0)
|   X269 = 46: 6 (1.0)
