digraph Tree {
node [shape=box, style="filled, rounded", color="black", fontname=helvetica] ;
edge [fontname=helvetica] ;
0 [label="X[307] <= 45.5\ngini = 0.824\nsamples = 6074\nvalue = [215, 2256, 2206, 1463, 1952, 211, 359, 226, 546, 256]", fillcolor="#fffffe"] ;
1 [label="X[965] <= 13.5\ngini = 0.81\nsamples = 2070\nvalue = [14, 300, 649, 737, 952, 102, 203, 65, 197, 79]", fillcolor="#eefdfa"] ;
0 -> 1 [labeldistance=2.5, labelangle=45, headlabel="True"] ;
2 [label="X[2039] <= 23.5\ngini = 0.586\nsamples = 176\nvalue = [0, 7, 10, 42, 172, 21, 23, 0, 5, 0]", fillcolor="#93f1df"] ;
1 -> 2 ;
3 [label="X[919] <= 7.5\ngini = 0.418\nsamples = 141\nvalue = [0, 6, 0, 30, 170, 21, 0, 0, 1, 0]", fillcolor="#73edd6"] ;
2 -> 3 ;
4 [label="X[1224] <= 11.0\ngini = 0.493\nsamples = 20\nvalue = [0, 0, 0, 0, 11, 14, 0, 0, 0, 0]", fillcolor="#d5eaf9"] ;
3 -> 4 ;
5 [label="gini = 0.0\nsamples = 11\nvalue = [0, 0, 0, 0, 0, 14, 0, 0, 0, 0]", fillcolor="#399de5"] ;
4 -> 5 ;
6 [label="gini = 0.0\nsamples = 9\nvalue = [0, 0, 0, 0, 11, 0, 0, 0, 0, 0]", fillcolor="#39e5c5"] ;
4 -> 6 ;
7 [label="X[377] <= 11.5\ngini = 0.363\nsamples = 121\nvalue = [0, 6, 0, 30, 159, 7, 0, 0, 1, 0]", fillcolor="#6becd4"] ;
3 -> 7 ;
8 [label="X[921] <= 9.5\ngini = 0.225\nsamples = 76\nvalue = [0, 2, 0, 7, 114, 7, 0, 0, 0, 0]", fillcolor="#53e8cd"] ;
7 -> 8 ;
9 [label="gini = 0.434\nsamples = 28\nvalue = [0, 0, 0, 3, 26, 7, 0, 0, 0, 0]", fillcolor="#7deed9"] ;
8 -> 9 ;
10 [label="gini = 0.121\nsamples = 48\nvalue = [0, 2, 0, 4, 88, 0, 0, 0, 0, 0]", fillcolor="#46e7c9"] ;
8 -> 10 ;
11 [label="X[886] <= 44.5\ngini = 0.518\nsamples = 45\nvalue = [0, 4, 0, 23, 45, 0, 0, 0, 1, 0]", fillcolor="#a8f4e5"] ;
7 -> 11 ;
12 [label="gini = 0.406\nsamples = 39\nvalue = [0, 1, 0, 16, 45, 0, 0, 0, 0, 0]", fillcolor="#82efda"] ;
11 -> 12 ;
13 [label="gini = 0.512\nsamples = 6\nvalue = [0, 3, 0, 7, 0, 0, 0, 0, 1, 0]", fillcolor="#9cf2ae"] ;
11 -> 13 ;
14 [label="X[1149] <= 13.5\ngini = 0.706\nsamples = 35\nvalue = [0, 1, 10, 12, 2, 0, 23, 0, 4, 0]", fillcolor="#c9c9f8"] ;
2 -> 14 ;
15 [label="X[25] <= 14.5\ngini = 0.142\nsamples = 8\nvalue = [0, 0, 0, 12, 1, 0, 0, 0, 0, 0]", fillcolor="#49e76b"] ;
14 -> 15 ;
16 [label="gini = 0.0\nsamples = 5\nvalue = [0, 0, 0, 9, 0, 0, 0, 0, 0, 0]", fillcolor="#39e55e"] ;
15 -> 16 ;
17 [label="X[789] <= 32.0\ngini = 0.375\nsamples = 3\nvalue = [0, 0, 0, 3, 1, 0, 0, 0, 0, 0]", fillcolor="#7bee94"] ;
15 -> 17 ;
18 [label="gini = 0.0\nsamples = 1\nvalue = [0, 0, 0, 0, 1, 0, 0, 0, 0, 0]", fillcolor="#39e5c5"] ;
17 -> 18 ;
19 [label="gini = 0.0\nsamples = 2\nvalue = [0, 0, 0, 3, 0, 0, 0, 0, 0, 0]", fillcolor="#39e55e"] ;
17 -> 19 ;
20 [label="X[926] <= 16.5\ngini = 0.575\nsamples = 27\nvalue = [0, 1, 10, 0, 1, 0, 23, 0, 4, 0]", fillcolor="#a8a6f3"] ;
14 -> 20 ;
21 [label="gini = 0.0\nsamples = 16\nvalue = [0, 0, 0, 0, 0, 0, 21, 0, 0, 0]", fillcolor="#3c39e5"] ;
20 -> 21 ;
22 [label="X[2096] <= 40.0\ngini = 0.623\nsamples = 11\nvalue = [0, 1, 10, 0, 1, 0, 2, 0, 4, 0]", fillcolor="#c6f4aa"] ;
20 -> 22 ;
23 [label="gini = 0.391\nsamples = 8\nvalue = [0, 1, 10, 0, 1, 0, 0, 0, 1, 0]", fillcolor="#9cec6b"] ;
22 -> 23 ;
24 [label="gini = 0.48\nsamples = 3\nvalue = [0, 0, 0, 0, 0, 0, 2, 0, 3, 0]", fillcolor="#f6bdea"] ;
22 -> 24 ;
25 [label="X[2158] <= 28.5\ngini = 0.816\nsamples = 1894\nvalue = [14, 293, 639, 695, 780, 81, 180, 65, 192, 79]", fillcolor="#f8fefd"] ;
1 -> 25 ;
26 [label="X[1214] <= 24.5\ngini = 0.797\nsamples = 1076\nvalue = [0, 138, 251, 470, 517, 49, 122, 37, 121, 20]", fillcolor="#f8fefd"] ;
25 -> 26 ;
27 [label="X[1419] <= 38.5\ngini = 0.795\nsamples = 217\nvalue = [0, 2, 48, 89, 71, 0, 91, 2, 61, 1]", fillcolor="#fefeff"] ;
26 -> 27 ;
28 [label="X[1549] <= 25.5\ngini = 0.75\nsamples = 137\nvalue = [0, 2, 37, 71, 66, 0, 5, 0, 48, 0]", fillcolor="#f9fefa"] ;
27 -> 28 ;
29 [label="gini = 0.706\nsamples = 110\nvalue = [0, 2, 37, 67, 65, 0, 3, 0, 13, 0]", fillcolor="#fcfffc"] ;
28 -> 29 ;
30 [label="gini = 0.294\nsamples = 27\nvalue = [0, 0, 0, 4, 1, 0, 2, 0, 35, 0]", fillcolor="#ea5dcc"] ;
28 -> 30 ;
31 [label="X[965] <= 22.5\ngini = 0.565\nsamples = 80\nvalue = [0, 0, 11, 18, 5, 0, 86, 2, 13, 1]", fillcolor="#8f8df0"] ;
27 -> 31 ;
32 [label="gini = 0.409\nsamples = 60\nvalue = [0, 0, 5, 6, 1, 0, 78, 2, 11, 0]", fillcolor="#716fec"] ;
31 -> 32 ;
33 [label="gini = 0.757\nsamples = 20\nvalue = [0, 0, 6, 12, 4, 0, 8, 0, 2, 1]", fillcolor="#dffbe5"] ;
31 -> 33 ;
34 [label="X[348] <= 32.5\ngini = 0.777\nsamples = 859\nvalue = [0, 136, 203, 381, 446, 49, 31, 35, 60, 19]", fillcolor="#f2fdfb"] ;
26 -> 34 ;
35 [label="X[2069] <= 29.5\ngini = 0.751\nsamples = 660\nvalue = [0, 103, 147, 339, 349, 15, 19, 30, 39, 4]", fillcolor="#fcfffe"] ;
34 -> 35 ;
36 [label="gini = 0.73\nsamples = 578\nvalue = [0, 85, 106, 300, 334, 14, 18, 18, 31, 1]", fillcolor="#f4fefc"] ;
35 -> 36 ;
37 [label="gini = 0.792\nsamples = 82\nvalue = [0, 18, 41, 39, 15, 1, 1, 12, 8, 3]", fillcolor="#fcfefb"] ;
35 -> 37 ;
38 [label="X[1688] <= 32.5\ngini = 0.825\nsamples = 199\nvalue = [0, 33, 56, 42, 97, 34, 12, 5, 21, 15]", fillcolor="#e0fbf6"] ;
34 -> 38 ;
39 [label="gini = 0.625\nsamples = 90\nvalue = [0, 3, 32, 21, 79, 7, 0, 0, 0, 2]", fillcolor="#acf4e7"] ;
38 -> 39 ;
40 [label="gini = 0.872\nsamples = 109\nvalue = [0, 30, 24, 21, 18, 27, 12, 5, 21, 13]", fillcolor="#fefefb"] ;
38 -> 40 ;
41 [label="X[1417] <= 121.5\ngini = 0.816\nsamples = 818\nvalue = [14, 155, 388, 225, 263, 32, 58, 28, 71, 59]", fillcolor="#effce7"] ;
25 -> 41 ;
42 [label="X[128] <= 27.5\ngini = 0.789\nsamples = 564\nvalue = [8, 87, 302, 219, 120, 12, 36, 21, 35, 48]", fillcolor="#effce6"] ;
41 -> 42 ;
43 [label="X[348] <= 52.5\ngini = 0.717\nsamples = 139\nvalue = [1, 8, 55, 93, 17, 5, 12, 9, 9, 0]", fillcolor="#cef9d7"] ;
42 -> 43 ;
44 [label="gini = 0.69\nsamples = 123\nvalue = [0, 8, 44, 90, 16, 5, 12, 9, 1, 0]", fillcolor="#bef7ca"] ;
43 -> 44 ;
45 [label="gini = 0.66\nsamples = 16\nvalue = [1, 0, 11, 3, 1, 0, 0, 0, 8, 0]", fillcolor="#e6fada"] ;
43 -> 45 ;
46 [label="X[1385] <= 26.5\ngini = 0.788\nsamples = 425\nvalue = [7, 79, 247, 126, 103, 7, 24, 12, 26, 48]", fillcolor="#e2f9d4"] ;
42 -> 46 ;
47 [label="gini = 0.717\nsamples = 72\nvalue = [0, 11, 17, 50, 39, 0, 1, 0, 8, 0]", fillcolor="#e6fceb"] ;
46 -> 47 ;
48 [label="gini = 0.768\nsamples = 353\nvalue = [7, 68, 230, 76, 64, 7, 23, 12, 18, 48]", fillcolor="#d4f7bf"] ;
46 -> 48 ;
49 [label="X[1546] <= 78.5\ngini = 0.787\nsamples = 254\nvalue = [6, 68, 86, 6, 143, 20, 22, 7, 36, 11]", fillcolor="#dcfaf5"] ;
41 -> 49 ;
50 [label="X[1131] <= 104.0\ngini = 0.738\nsamples = 198\nvalue = [0, 47, 52, 6, 140, 16, 22, 3, 21, 7]", fillcolor="#bcf6ec"] ;
49 -> 50 ;
51 [label="gini = 0.768\nsamples = 61\nvalue = [0, 28, 25, 5, 20, 1, 3, 0, 9, 0]", fillcolor="#fefef6"] ;
50 -> 51 ;
52 [label="gini = 0.673\nsamples = 137\nvalue = [0, 19, 27, 1, 120, 15, 19, 3, 12, 7]", fillcolor="#a1f3e3"] ;
50 -> 52 ;
53 [label="X[208] <= 44.5\ngini = 0.769\nsamples = 56\nvalue = [6, 21, 34, 0, 3, 4, 0, 4, 15, 4]", fillcolor="#e6fada"] ;
49 -> 53 ;
54 [label="gini = 0.663\nsamples = 41\nvalue = [6, 16, 33, 0, 0, 0, 0, 4, 5, 1]", fillcolor="#d1f6ba"] ;
53 -> 54 ;
55 [label="gini = 0.763\nsamples = 15\nvalue = [0, 5, 1, 0, 3, 4, 0, 0, 10, 3]", fillcolor="#f9d0f0"] ;
53 -> 55 ;
56 [label="X[1502] <= 39.5\ngini = 0.803\nsamples = 4004\nvalue = [201, 1956, 1557, 726, 1000, 109, 156, 161, 349, 177]", fillcolor="#fdfdef"] ;
0 -> 56 [labeldistance=2.5, labelangle=-45, headlabel="False"] ;
57 [label="X[99] <= 175.5\ngini = 0.759\nsamples = 449\nvalue = [3, 54, 65, 290, 175, 6, 62, 31, 31, 11]", fillcolor="#d6fade"] ;
56 -> 57 ;
58 [label="X[2053] <= 120.0\ngini = 0.789\nsamples = 278\nvalue = [2, 43, 50, 79, 166, 6, 53, 16, 21, 9]", fillcolor="#d0f9f1"] ;
57 -> 58 ;
59 [label="X[1598] <= 30.5\ngini = 0.767\nsamples = 257\nvalue = [2, 39, 48, 76, 164, 6, 24, 14, 21, 9]", fillcolor="#caf8ef"] ;
58 -> 59 ;
60 [label="X[1939] <= 61.5\ngini = 0.567\nsamples = 122\nvalue = [0, 14, 10, 37, 120, 0, 8, 1, 3, 0]", fillcolor="#96f1e0"] ;
59 -> 60 ;
61 [label="gini = 0.537\nsamples = 117\nvalue = [0, 11, 10, 37, 120, 0, 4, 1, 3, 0]", fillcolor="#91f1df"] ;
60 -> 61 ;
62 [label="gini = 0.49\nsamples = 5\nvalue = [0, 3, 0, 0, 0, 0, 4, 0, 0, 0]", fillcolor="#cecef8"] ;
60 -> 62 ;
63 [label="X[783] <= 167.0\ngini = 0.855\nsamples = 135\nvalue = [2, 25, 38, 39, 44, 6, 16, 13, 18, 9]", fillcolor="#f9fefd"] ;
59 -> 63 ;
64 [label="gini = 0.85\nsamples = 132\nvalue = [2, 25, 38, 39, 44, 6, 16, 8, 18, 9]", fillcolor="#f9fefd"] ;
63 -> 64 ;
65 [label="gini = 0.0\nsamples = 3\nvalue = [0, 0, 0, 0, 0, 0, 0, 5, 0, 0]", fillcolor="#a339e5"] ;
63 -> 65 ;
66 [label="X[821] <= 127.5\ngini = 0.502\nsamples = 21\nvalue = [0, 4, 2, 3, 2, 0, 29, 2, 0, 0]", fillcolor="#7f7dee"] ;
58 -> 66 ;
67 [label="X[1456] <= 108.0\ngini = 0.778\nsamples = 8\nvalue = [0, 4, 2, 2, 2, 0, 0, 2, 0, 0]", fillcolor="#f9fad7"] ;
66 -> 67 ;
68 [label="gini = 0.72\nsamples = 7\nvalue = [0, 4, 0, 2, 2, 0, 0, 2, 0, 0]", fillcolor="#f8f8ce"] ;
67 -> 68 ;
69 [label="gini = 0.0\nsamples = 1\nvalue = [0, 0, 2, 0, 0, 0, 0, 0, 0, 0]", fillcolor="#7be539"] ;
67 -> 69 ;
70 [label="X[806] <= 78.0\ngini = 0.064\nsamples = 13\nvalue = [0, 0, 0, 1, 0, 0, 29, 0, 0, 0]", fillcolor="#4340e6"] ;
66 -> 70 ;
71 [label="gini = 0.0\nsamples = 1\nvalue = [0, 0, 0, 1, 0, 0, 0, 0, 0, 0]", fillcolor="#39e55e"] ;
70 -> 71 ;
72 [label="gini = 0.0\nsamples = 12\nvalue = [0, 0, 0, 0, 0, 0, 29, 0, 0, 0]", fillcolor="#3c39e5"] ;
70 -> 72 ;
73 [label="X[290] <= 188.5\ngini = 0.434\nsamples = 171\nvalue = [1, 11, 15, 211, 9, 0, 9, 15, 10, 2]", fillcolor="#6eec89"] ;
57 -> 73 ;
74 [label="X[1974] <= 136.0\ngini = 0.732\nsamples = 35\nvalue = [0, 5, 13, 22, 4, 0, 0, 4, 4, 0]", fillcolor="#d1f9da"] ;
73 -> 74 ;
75 [label="X[1361] <= 70.5\ngini = 0.778\nsamples = 29\nvalue = [0, 5, 13, 13, 4, 0, 0, 4, 4, 0]", fillcolor="#ffffff"] ;
74 -> 75 ;
76 [label="gini = 0.686\nsamples = 18\nvalue = [0, 3, 0, 13, 4, 0, 0, 3, 3, 0]", fillcolor="#aef4bd"] ;
75 -> 76 ;
77 [label="gini = 0.394\nsamples = 11\nvalue = [0, 2, 13, 0, 0, 0, 0, 1, 1, 0]", fillcolor="#9eec6e"] ;
75 -> 77 ;
78 [label="gini = 0.0\nsamples = 6\nvalue = [0, 0, 0, 9, 0, 0, 0, 0, 0, 0]", fillcolor="#39e55e"] ;
74 -> 78 ;
79 [label="X[1274] <= 31.5\ngini = 0.325\nsamples = 136\nvalue = [1, 6, 2, 189, 5, 0, 9, 11, 6, 2]", fillcolor="#5fea7d"] ;
73 -> 79 ;
80 [label="X[1709] <= 76.0\ngini = 0.08\nsamples = 99\nvalue = [1, 0, 0, 163, 1, 0, 2, 3, 0, 0]", fillcolor="#41e665"] ;
79 -> 80 ;
81 [label="gini = 0.047\nsamples = 96\nvalue = [0, 0, 0, 163, 1, 0, 0, 3, 0, 0]", fillcolor="#3ee662"] ;
80 -> 81 ;
82 [label="gini = 0.444\nsamples = 3\nvalue = [1, 0, 0, 0, 0, 0, 2, 0, 0, 0]", fillcolor="#9e9cf2"] ;
80 -> 82 ;
83 [label="X[1655] <= 64.5\ngini = 0.762\nsamples = 37\nvalue = [0, 6, 2, 26, 4, 0, 7, 8, 6, 2]", fillcolor="#bcf6c8"] ;
79 -> 83 ;
84 [label="gini = 0.347\nsamples = 19\nvalue = [0, 0, 0, 23, 4, 0, 0, 2, 0, 0]", fillcolor="#69eb85"] ;
83 -> 84 ;
85 [label="gini = 0.83\nsamples = 18\nvalue = [0, 6, 2, 3, 0, 0, 7, 6, 6, 2]", fillcolor="#f8f7fe"] ;
83 -> 85 ;
86 [label="X[2277] <= 108.5\ngini = 0.784\nsamples = 3555\nvalue = [198, 1902, 1492, 436, 825, 103, 94, 130, 318, 166]", fillcolor="#fcfcec"] ;
56 -> 86 ;
87 [label="X[1743] <= 134.5\ngini = 0.804\nsamples = 2209\nvalue = [108, 988, 969, 309, 576, 68, 79, 105, 191, 128]", fillcolor="#fffffe"] ;
86 -> 87 ;
88 [label="X[1365] <= 69.5\ngini = 0.785\nsamples = 1922\nvalue = [107, 909, 878, 298, 548, 28, 69, 59, 59, 109]", fillcolor="#fffffc"] ;
87 -> 88 ;
89 [label="X[365] <= 123.0\ngini = 0.713\nsamples = 490\nvalue = [0, 373, 99, 129, 60, 0, 60, 12, 11, 35]", fillcolor="#f4f5b5"] ;
88 -> 89 ;
90 [label="gini = 0.653\nsamples = 398\nvalue = [0, 340, 68, 112, 48, 0, 32, 8, 3, 16]", fillcolor="#f2f3a7"] ;
89 -> 90 ;
91 [label="gini = 0.84\nsamples = 92\nvalue = [0, 33, 31, 17, 12, 0, 28, 4, 8, 19]", fillcolor="#fffffc"] ;
89 -> 91 ;
92 [label="X[1982] <= 64.5\ngini = 0.773\nsamples = 1432\nvalue = [107, 536, 779, 169, 488, 28, 9, 47, 48, 74]", fillcolor="#edfbe3"] ;
88 -> 92 ;
93 [label="gini = 0.749\nsamples = 670\nvalue = [10, 171, 415, 90, 287, 14, 6, 31, 27, 34]", fillcolor="#eafbdf"] ;
92 -> 93 ;
94 [label="gini = 0.775\nsamples = 762\nvalue = [97, 365, 364, 79, 201, 14, 3, 16, 21, 40]", fillcolor="#ffffff"] ;
92 -> 94 ;
95 [label="X[1689] <= 148.5\ngini = 0.823\nsamples = 287\nvalue = [1, 79, 91, 11, 28, 40, 10, 46, 132, 19]", fillcolor="#fce9f8"] ;
87 -> 95 ;
96 [label="X[479] <= 124.0\ngini = 0.799\nsamples = 220\nvalue = [1, 28, 57, 1, 26, 36, 10, 46, 127, 18]", fillcolor="#f9d0f0"] ;
95 -> 96 ;
97 [label="gini = 0.822\nsamples = 170\nvalue = [1, 24, 56, 1, 16, 32, 8, 44, 79, 14]", fillcolor="#fceaf8"] ;
96 -> 97 ;
98 [label="gini = 0.562\nsamples = 50\nvalue = [0, 4, 1, 0, 10, 4, 2, 2, 48, 4]", fillcolor="#f08bda"] ;
96 -> 98 ;
99 [label="X[1707] <= 69.0\ngini = 0.659\nsamples = 67\nvalue = [0, 51, 34, 10, 2, 4, 0, 0, 5, 1]", fillcolor="#f8f9d1"] ;
95 -> 99 ;
100 [label="gini = 0.298\nsamples = 7\nvalue = [0, 0, 2, 9, 0, 0, 0, 0, 0, 0]", fillcolor="#65eb82"] ;
99 -> 100 ;
101 [label="gini = 0.602\nsamples = 60\nvalue = [0, 51, 32, 1, 2, 4, 0, 0, 5, 1]", fillcolor="#f6f7c4"] ;
99 -> 101 ;
102 [label="X[1177] <= 209.5\ngini = 0.735\nsamples = 1346\nvalue = [90, 914, 523, 127, 249, 35, 15, 25, 127, 38]", fillcolor="#f8f9cf"] ;
86 -> 102 ;
103 [label="X[717] <= 246.5\ngini = 0.727\nsamples = 1008\nvalue = [82, 735, 297, 122, 120, 28, 15, 25, 118, 38]", fillcolor="#f5f6bb"] ;
102 -> 103 ;
104 [label="X[925] <= 60.5\ngini = 0.699\nsamples = 863\nvalue = [69, 669, 280, 51, 117, 26, 15, 25, 82, 25]", fillcolor="#f5f6b8"] ;
103 -> 104 ;
105 [label="gini = 0.84\nsamples = 135\nvalue = [3, 31, 62, 27, 28, 12, 10, 4, 16, 20]", fillcolor="#e9fbdd"] ;
104 -> 105 ;
106 [label="gini = 0.64\nsamples = 728\nvalue = [66, 638, 218, 24, 89, 14, 5, 21, 66, 5]", fillcolor="#f2f3a5"] ;
104 -> 106 ;
107 [label="X[480] <= 243.0\ngini = 0.768\nsamples = 145\nvalue = [13, 66, 17, 71, 3, 2, 0, 0, 36, 13]", fillcolor="#f9fefa"] ;
103 -> 107 ;
108 [label="gini = 0.662\nsamples = 49\nvalue = [4, 39, 6, 4, 1, 0, 0, 0, 10, 8]", fillcolor="#f1f3a2"] ;
107 -> 108 ;
109 [label="gini = 0.724\nsamples = 96\nvalue = [9, 27, 11, 67, 2, 2, 0, 0, 26, 5]", fillcolor="#bef6ca"] ;
107 -> 109 ;
110 [label="X[600] <= 112.0\ngini = 0.685\nsamples = 338\nvalue = [8, 179, 226, 5, 129, 7, 0, 0, 9, 0]", fillcolor="#effce7"] ;
102 -> 110 ;
111 [label="X[459] <= 253.0\ngini = 0.635\nsamples = 49\nvalue = [0, 7, 42, 0, 11, 6, 0, 0, 9, 0]", fillcolor="#bff29f"] ;
110 -> 111 ;
112 [label="gini = 0.589\nsamples = 46\nvalue = [0, 7, 42, 0, 5, 6, 0, 0, 9, 0]", fillcolor="#b6f192"] ;
111 -> 112 ;
113 [label="gini = 0.0\nsamples = 3\nvalue = [0, 0, 0, 0, 6, 0, 0, 0, 0, 0]", fillcolor="#39e5c5"] ;
111 -> 113 ;
114 [label="X[521] <= 33.5\ngini = 0.675\nsamples = 289\nvalue = [8, 172, 184, 5, 118, 1, 0, 0, 0, 0]", fillcolor="#fafef7"] ;
110 -> 114 ;
115 [label="gini = 0.18\nsamples = 25\nvalue = [0, 0, 36, 0, 4, 0, 0, 0, 0, 0]", fillcolor="#8ae84f"] ;
114 -> 115 ;
116 [label="gini = 0.678\nsamples = 264\nvalue = [8, 172, 148, 5, 114, 1, 0, 0, 0, 0]", fillcolor="#fdfdef"] ;
114 -> 116 ;
}